{"type": "mlp", "task": "classification", "featureOrder": ["delta", "theta", "alpha", "sigma", "beta", "gamma", "thetaAlpha", "betaAlpha", "engagement", "alphaAsym", "statMean", "statStd", "stdMean", "stdStd", "absMean"], "scaler": {"mean": [0.8231694623026796, 0.07447191068905115, 0.036674100570962764, 0.011637179950165803, 0.03838380693319699, 0.015663539976559414, 2.6513306667407353, 1.1582629995881228, 0.35036033609861966, -0.0048539391552227945, 4348.829825321321, 182.78868519157493, 79.05689898357596, 34.48982989909828, 4348.829825321321], "scale": [0.09115092538519277, 0.03653749309935174, 0.028890944240504302, 0.00924741052192825, 0.02615638006863972, 0.01568945801953369, 1.4170132028514761, 0.5300118430945184, 0.1907639369920903, 0.021805199324821133, 151.60036542669627, 89.67719315987692, 165.57477451985912, 65.63261862877124, 151.60036542669627]}, "layers": [{"W": [[0.004122567363083363, 0.2082033008337021, 0.06767268478870392, 0.10596171766519547, -0.30944645404815674, -0.14786964654922485, -0.3594455122947693, 0.3025713562965393, 0.0990004912018776, 0.19059385359287262, -0.2932969331741333, 0.2558014690876007, 0.22191068530082703, -0.21680794656276703, -0.17527498304843903, -0.14496761560440063, -0.16916678845882416, -0.035259660333395004, -0.0726105347275734, -0.12162765115499496, 0.03336232155561447, -0.26174142956733704, -0.06391025334596634, -0.10714223980903625, -0.0797797292470932, 0.1802365630865097, -0.11457111686468124, -0.13664467632770538, 0.027449969202280045, -0.3407309651374817, -0.04349854961037636, -0.1619810163974762, -0.23385590314865112, 0.18547423183918, 0.3463798463344574, 0.2102055698633194, -0.09951301664113998, -0.29681938886642456, 0.019987260922789574, -0.06085233390331268, -0.22035998106002808, 0.001565048354677856, -0.3737949728965759, 0.21416091918945312, -0.29167595505714417, 0.06751865148544312, -0.1458689421415329, -0.027369508519768715], [-0.0790700688958168, -0.10958731919527054, 0.36959317326545715, 0.15326350927352905, 0.406634122133255, 0.3326877951622009, 0.1237591952085495, 0.16889740526676178, -0.3485800623893738, -0.22119863331317902, -0.24814407527446747, -0.04351460561156273, -0.016529325395822525, -0.06240229681134224, 0.17124433815479279, -0.15427587926387787, -0.03811177983880043, 0.13217121362686157, -0.12177041918039322, 0.15802519023418427, -0.16977214813232422, 0.4196057617664337, 0.1262258142232895, -0.08556414395570755, -0.2682020366191864, 0.2109215259552002, 0.05679885670542717, 0.1447177678346634, 0.23428726196289062, -0.10126035660505295, -0.03443719074130058, -0.2726963758468628, 0.22041769325733185, 0.18259869515895844, -0.12421337515115738, -0.20072124898433685, -0.18274478614330292, -0.033131346106529236, 0.27251604199409485, 0.1248965710401535, 0.25815847516059875, 0.02182476781308651, -0.11918975412845612, 0.15488556027412415, 0.25988835096359253, 0.12905988097190857, 0.19609883427619934, -0.02338286302983761], [-0.04308326169848442, 0.053947921842336655, -0.28035300970077515, -0.3171733021736145, -0.20315080881118774, -0.022260010242462158, -0.03743245452642441, -0.041632652282714844, 0.20456868410110474, -0.24529778957366943, -0.001819774741306901, 0.15286141633987427, -0.2314966768026352, -0.3179825246334076, -0.06165836751461029, -0.28343212604522705, 0.28269124031066895, 0.2681158483028412, 0.10607139766216278, 0.2958424389362335, 0.18942217528820038, -0.24615919589996338, 0.1662202924489975, -0.016499487683176994, 0.29485198855400085, 0.17525222897529602, -0.17277799546718597, -0.11525669693946838, -0.17918643355369568, -0.044515110552310944, 0.3046874403953552, 0.20863820612430573, -0.33770298957824707, 0.09128376096487045, -0.13900001347064972, -0.24091336131095886, -0.28626325726509094, -0.09976962208747864, 0.2720485329627991, -0.18744400143623352, 0.004012487828731537, 0.07853425294160843, -0.01651798002421856, 0.38611656427383423, 0.41975873708724976, -0.16820022463798523, 0.03868256136775017, -0.03921966627240181], [-0.16830843687057495, -0.23609186708927155, -0.04874793812632561, -0.09849222749471664, -0.225536048412323, -0.24566346406936646, 0.36183446645736694, -0.20009176433086395, -0.26283857226371765, -0.042930614203214645, 0.31989002227783203, -0.16225603222846985, 0.10235318541526794, 0.11789266020059586, -0.061633478850126266, 0.0825599730014801, -0.20559096336364746, 0.13580521941184998, 0.13881145417690277, 0.14707890152931213, -0.3570503890514374, 0.16934171319007874, -0.14952726662158966, -0.33070728182792664, -0.2915927767753601, 0.04996703192591667, 0.022955317050218582, -0.156032994389534, 0.04104319587349892, -0.1395404189825058, 0.17668670415878296, -0.1913350373506546, 0.044788043946027756, -0.04468762129545212, 0.1390126794576645, -0.2946428954601288, -0.1410035938024521, -0.16413217782974243, 0.2701191008090973, 0.21165284514427185, -0.25357285141944885, 0.044514596462249756, 0.22418750822544098, 0.0005035442882217467, 0.18623368442058563, -0.1981918215751648, -0.23594312369823456, 0.28135359287261963], [0.16828912496566772, 0.13575778901576996, -0.11748512834310532, -0.10663607716560364, 0.2304648458957672, 0.21678224205970764, 0.26660770177841187, 0.1279437094926834, 0.06645872443914413, -0.3110315203666687, -0.2778549790382385, 0.2742690443992615, 0.05167284980416298, -0.27466729283332825, -0.24790818989276886, 0.07632125914096832, -0.2981899678707123, -0.18923845887184143, 0.010778306983411312, 0.07401023060083389, 0.061621107161045074, -0.16397133469581604, 0.07648425549268723, -0.14320866763591766, -0.07018602639436722, 0.16701354086399078, 0.008010787889361382, 0.37264737486839294, 0.12284227460622787, 0.05690980330109596, -0.12644179165363312, -0.10923005640506744, -0.21197547018527985, -0.1112654060125351, 0.20630910992622375, -0.07959086447954178, 0.24574756622314453, 0.1581440269947052, 0.255766898393631, 0.034707315266132355, 0.003918963018804789, 0.00908394530415535, -0.1983773410320282, 0.12357630580663681, 0.00817669928073883, -0.27546069025993347, 0.10055965185165405, -0.22028791904449463], [0.26093459129333496, 0.2901497781276703, 0.35682010650634766, -0.08927573263645172, -0.35682544112205505, 0.15686264634132385, -0.021780695766210556, 0.29240378737449646, 0.3548038899898529, 0.1544896811246872, -0.24674583971500397, -0.11975597590208054, 0.18373261392116547, -0.09624676406383514, -0.3123815059661865, 0.057614851742982864, 0.30456340312957764, 0.03387802839279175, -0.1406969577074051, -0.4075466990470886, 0.09741313010454178, 0.2383621633052826, -0.3418460786342621, 0.05346446484327316, 0.2384350299835205, 0.18357662856578827, 0.12901099026203156, 0.26185399293899536, -0.11943808943033218, -0.2590843141078949, 0.2596501111984253, 0.10590440779924393, 0.22509990632534027, 0.3095170557498932, 0.05253620073199272, 0.03112924098968506, 0.2962665557861328, 0.057506196200847626, 0.1324256956577301, 0.22571909427642822, 0.23904898762702942, -0.18702808022499084, 0.003644860815256834, -0.25974079966545105, -0.04774685204029083, -0.29519349336624146, -0.011275092139840126, 0.06918054819107056], [-0.13264042139053345, -0.06908901780843735, -0.20415063202381134, -0.17299120128154755, 0.07943668961524963, -0.0806702971458435, -0.29366335272789, 0.03543483093380928, 0.21228617429733276, -0.16320793330669403, 0.08930473029613495, -0.20319201052188873, -0.2577492892742157, 0.09609024971723557, -0.00870285090059042, 0.15519477427005768, 0.17439235746860504, 0.25537729263305664, -0.08348237723112106, -0.15648800134658813, 0.2702547311782837, -0.11034125834703445, -0.003808737499639392, -0.159386545419693, -0.312089741230011, 0.3147854208946228, 0.26468586921691895, 0.020793836563825607, -0.0948076918721199, -0.2419268786907196, -0.27354127168655396, -0.25813475251197815, 0.10687631368637085, 0.13931073248386383, 0.1803334802389145, -0.08392540365457535, 0.28952619433403015, 0.108741894364357, -0.006287330761551857, 0.10812655836343765, 0.013374109752476215, -0.15066218376159668, -0.025317812338471413, 0.18544018268585205, -0.3842369318008423, -0.23099415004253387, -0.27092835307121277, -0.3129212260246277], [0.11721853166818619, 0.1230015903711319, -0.07006672769784927, -0.13589990139007568, -0.016260221600532532, 0.06243858486413956, -0.27746596932411194, -0.05628107115626335, -0.03445517271757126, 0.07620971649885178, 0.015544002875685692, -0.24101541936397552, -0.061290740966796875, 0.13739745318889618, -0.034684035927057266, 0.2387339323759079, 0.02904261276125908, -0.24819542467594147, -0.29737022519111633, -0.01210616622120142, -0.3791692852973938, 0.06818658858537674, 0.2474493533372879, 0.11553177982568741, -0.14697378873825073, 0.1822599321603775, -0.09904178977012634, 0.03491605445742607, 0.2979717552661896, -0.1535342037677765, 0.29595738649368286, 0.24094034731388092, -0.23840643465518951, -0.27033066749572754, -0.19588129222393036, -0.2556176781654358, -0.16229285299777985, 0.1573619693517685, -0.19775699079036713, -0.11778649687767029, 0.2147301435470581, -0.25814303755760193, 0.13618417084217072, -0.1872255504131317, -0.25199460983276367, 0.12605847418308258, 0.07166862487792969, 0.11616098880767822], [0.06560838967561722, 0.23507003486156464, -0.21127936244010925, -0.12371578067541122, 0.22491644322872162, 0.2537723183631897, 0.2710159420967102, -0.07148832827806473, -0.08358752727508545, 0.21939130127429962, -0.2035190910100937, 0.2862921357154846, 0.22384122014045715, -0.05129531770944595, 0.13109426200389862, 0.12972207367420197, -0.30889761447906494, 0.23440265655517578, -0.016161872074007988, 0.14535781741142273, -0.21826034784317017, 0.2242349088191986, -0.0831514373421669, -0.29167112708091736, 0.2025483250617981, -0.19477516412734985, -0.19754469394683838, 0.37245041131973267, 0.3232860565185547, -0.033663637936115265, 0.09612482786178589, 0.038989171385765076, -0.20431524515151978, -0.15726928412914276, 0.055364273488521576, 0.1490134596824646, 0.2488182932138443, 0.25308868288993835, -0.22033552825450897, -0.030094528570771217, -0.3027286231517792, 0.0755670815706253, -0.07603724300861359, 0.19682243466377258, -0.03184133023023605, -0.2245010882616043, -0.22484233975410461, 0.05878818407654762], [-0.004552787635475397, -0.2900743782520294, -0.12376756966114044, 0.139963299036026, -0.26532062888145447, 0.0491579994559288, 0.21941836178302765, -0.3399570882320404, -0.1383601725101471, 0.32352522015571594, -0.0006452685338445008, -0.06895067542791367, 0.16136203706264496, 0.24257004261016846, 0.35337626934051514, 0.18407675623893738, -0.034615080803632736, -0.2919251620769501, 0.23231160640716553, 0.11603359878063202, -0.08119936287403107, 0.16944681107997894, -0.3913712501525879, -0.09412282705307007, -0.26187384128570557, 0.01650247909128666, -0.26656341552734375, -0.11025705188512802, -0.20091509819030762, 0.11916337162256241, 0.26184189319610596, 0.09824701398611069, 0.22196710109710693, -0.16924327611923218, -0.2645430862903595, 0.06402089446783066, -0.22096918523311615, 0.20135727524757385, -0.23714005947113037, 0.2297542840242386, -0.15735489130020142, 0.2507743239402771, 0.09338726848363876, 0.21345004439353943, -0.25229158997535706, -0.09521158784627914, 0.2287915199995041, 0.09382737427949905], [0.017446942627429962, 0.22188004851341248, -0.11134150624275208, 0.08985771238803864, 0.16450606286525726, 0.40255191922187805, -0.22250311076641083, -0.2266569882631302, 0.26912352442741394, 0.3437035083770752, -0.050254907459020615, 0.21700039505958557, -0.004679836332798004, -0.09427328407764435, -0.09787877649068832, -0.0798611044883728, 0.12680917978286743, -0.1723865121603012, 0.26797574758529663, 0.2192678302526474, 0.15027232468128204, 0.06614580005407333, -0.18727682530879974, 0.25535836815834045, 0.2726854979991913, -0.10572326183319092, 0.262935608625412, 0.23204456269741058, 0.24971280992031097, 0.12487991154193878, 0.11026329547166824, -0.1300474852323532, 0.23978503048419952, 0.31827008724212646, -0.33461716771125793, -0.275662899017334, -0.1656910628080368, 0.23264966905117035, 0.3815183639526367, -0.3162435293197632, 0.04159241169691086, -0.024254197254776955, 0.2940868139266968, 0.2516227662563324, 0.130493625998497, -0.043681900948286057, -0.11846461892127991, -0.1395004391670227], [-0.4050584137439728, 0.2454461306333542, 0.2397739291191101, 0.3157237768173218, 0.40543922781944275, -0.034163691103458405, 0.2274877429008484, 0.12426845729351044, 0.3410499095916748, -0.2534581422805786, -0.19629628956317902, -0.1504031866788864, 0.38019421696662903, 0.18123877048492432, -0.2975979745388031, 0.023291008546948433, 0.20764261484146118, -0.006134804803878069, -0.4426003098487854, 0.1209157332777977, 0.09371189773082733, 0.3126516342163086, -0.11078420281410217, 0.24309265613555908, 0.029493333771824837, 0.18321141600608826, 0.12658636271953583, -0.09001000225543976, -0.1908961832523346, -0.4241877794265747, 0.2233295440673828, 0.048934634774923325, 0.08297165483236313, -0.22173860669136047, -0.42305460572242737, -0.4989875257015228, -0.30248621106147766, 0.01047003734856844, -0.043664731085300446, 0.018098579719662666, 0.3690824508666992, -0.08656196296215057, 0.07389284670352936, 0.21142339706420898, -0.1231919452548027, -0.10008896887302399, 0.23801037669181824, 0.3771020770072937], [-0.2950250804424286, 0.1712251752614975, 0.007180946879088879, -0.19271138310432434, 0.037245653569698334, 0.2706619203090668, 0.055262479931116104, -0.11042927950620651, 0.10553545504808426, -0.2513076961040497, -0.4236728250980377, -0.2339390218257904, -0.19023767113685608, -0.35328200459480286, -0.23721875250339508, 0.03972846269607544, -0.3753327429294586, -0.20769280195236206, 0.10059627890586853, 0.05807475745677948, 0.09950193762779236, -0.29683080315589905, -0.2570699453353882, -0.3790207505226135, -0.24354662001132965, -0.20177538692951202, -0.19643640518188477, -0.28873658180236816, -0.22592280805110931, 0.05817975103855133, -0.29945674538612366, -0.03891448304057121, -0.07594715058803558, 0.17223452031612396, -0.43781447410583496, 0.06698019802570343, -0.027642132714390755, -0.3383086919784546, 0.1022414118051529, 0.3769858777523041, -0.31689420342445374, -0.23957502841949463, 0.20626281201839447, 0.10690335184335709, -0.13501156866550446, -0.22166413068771362, 0.010621760040521622, -0.03404617682099342], [0.035772208124399185, -0.18968454003334045, -0.05933118611574173, 0.21054323017597198, -0.2733690142631531, -0.19140957295894623, 0.10266055911779404, 0.3050951361656189, 0.05416374281048775, -0.07265186309814453, -0.20195749402046204, -0.01047244481742382, 0.08418431878089905, -0.25237032771110535, -0.06899630278348923, -0.09382829815149307, -0.4661146402359009, -0.14954593777656555, -0.2308528572320938, -0.02512936107814312, -0.26436617970466614, 0.2730230391025543, 0.13423526287078857, 0.1318252980709076, 0.23749306797981262, -0.023281916975975037, -0.244093656539917, 0.030175907537341118, 0.0314970389008522, 0.17112594842910767, -0.08089818060398102, -0.14660479128360748, -0.21013103425502777, -0.07489281892776489, 0.041563164442777634, -0.028097957372665405, 0.005797951947897673, 0.2805428206920624, 0.027292734012007713, -0.2543957829475403, -0.3248518705368042, -0.2961796522140503, -0.0397828109562397, -0.2670545279979706, -0.05453034117817879, -0.13232246041297913, -0.21808217465877533, 0.10708318650722504], [-0.32145926356315613, 0.11620600521564484, -0.13857565820217133, 0.30877745151519775, -0.1269386261701584, 0.09199734032154083, 0.3476463258266449, 0.1340935379266739, 0.18686328828334808, -0.04651734605431557, -0.22599594295024872, 0.24694009125232697, 0.39769744873046875, 0.13323137164115906, -0.03128097578883171, -0.12513421475887299, 0.24148808419704437, -0.10492955148220062, -0.13354454934597015, -0.12672683596611023, 0.03267564997076988, -0.11506496369838715, -0.30742567777633667, 0.12997251749038696, 0.028248552232980728, 0.1525939702987671, -0.20386576652526855, 0.021425340324640274, -0.007732487749308348, -0.29098615050315857, -0.06052478030323982, -0.3051930367946625, -0.29669737815856934, 0.3947228491306305, -0.16358676552772522, 0.20778405666351318, -0.24086594581604004, 0.15302394330501556, 0.2414070963859558, -0.04148062691092491, -0.03399307653307915, -0.005156148225069046, -0.08915172517299652, 0.30555489659309387, 0.12573778629302979, 0.26255759596824646, -0.29771438241004944, 0.14276276528835297]], "b": [0.26529502868652344, -0.137910395860672, -0.23326680064201355, 0.13711783289909363, 0.05103796720504761, 0.3294984996318817, -0.23384642601013184, 0.1640181541442871, -0.16331958770751953, -0.11017603427171707, -0.09104864299297333, 0.2170058637857437, 0.15496352314949036, 0.10892152041196823, -0.08332376927137375, 0.24741144478321075, 0.053682923316955566, 0.18878380954265594, 0.04374229535460472, -0.15186788141727448, -0.02271810732781887, 0.014688697643578053, 0.22428955137729645, 0.13610847294330597, -0.15111736953258514, 0.2313561886548996, -0.08035645633935928, 0.006621247623115778, 0.31892287731170654, 0.03898125886917114, -0.18776828050613403, 0.28009915351867676, 0.09347222000360489, -0.009754180908203125, -0.08818955719470978, 0.32127904891967773, 0.1420617252588272, 0.043893855065107346, 0.3455885052680969, 0.1749754250049591, -0.21040090918540955, -0.02583974599838257, -0.21209976077079773, 0.047400180250406265, -0.25757384300231934, 0.1483502835035324, 0.16353921592235565, 0.22469721734523773], "act": "relu"}, {"W": [[-0.04215790703892708, 0.25614631175994873, -0.2641949951648712, 0.16488005220890045, -0.2504967153072357, -0.056742750108242035, 0.12915508449077606, -0.20474034547805786, -0.1856222003698349, 0.10567420721054077, 0.1575680375099182, 0.1013738289475441, 0.09477159380912781, 0.04024983569979668, 0.02588464505970478, 0.02585279569029808, -0.17523932456970215, 0.30111005902290344, 0.055558834224939346, -0.1892387568950653, -0.06859522312879562, 0.22112901508808136, -0.22834862768650055, 0.09571557492017746], [0.037275057286024094, 0.0022885254584252834, -0.28223174810409546, 0.16041460633277893, 0.24445974826812744, 0.049176719039678574, 0.15596915781497955, 0.28553539514541626, 0.15789929032325745, -0.13901467621326447, 0.06070244312286377, 0.002365915337577462, -0.06724660843610764, 0.12113556265830994, 0.27861303091049194, 0.2527737021446228, 0.01898573525249958, -0.24627381563186646, 0.23263338208198547, 0.07135049998760223, -0.1879350244998932, 0.3310004472732544, 0.18628405034542084, -0.030984455719590187], [-0.09332756698131561, 0.04541002959012985, -0.058223214000463486, -0.055875539779663086, 0.19377996027469635, -0.2757997512817383, -0.1323312371969223, -0.05747139826416969, 0.018216781318187714, 0.22055749595165253, -0.10657792538404465, -0.012119980528950691, 0.08523667603731155, -0.10494668781757355, -0.2375979870557785, -0.10094277560710907, -0.21819496154785156, -0.3183605670928955, -0.07491553574800491, -0.13581441342830658, 0.2734517753124237, -0.10695730894804001, 0.15377141535282135, 0.15840214490890503], [-0.263400673866272, 0.10966458171606064, -0.0995277687907219, 0.2675234377384186, -0.154666468501091, -0.012276025488972664, -0.23450270295143127, 0.33359044790267944, -0.014753038994967937, 0.09994200617074966, -0.22306030988693237, 0.1695064753293991, -0.22517555952072144, 0.1663322150707245, -0.13714900612831116, -0.2910345792770386, -0.3032606542110443, -0.09865674376487732, 0.01860828883945942, -0.06124116852879524, 0.1117294579744339, -0.041040100157260895, 0.0601646713912487, 0.011568753980100155], [-0.11236874759197235, 0.08574593812227249, -0.09320609271526337, -0.26980072259902954, 0.36146488785743713, 0.434709370136261, 0.062295276671648026, 0.004051098134368658, 0.18108734488487244, 0.11071378737688065, -0.2874169647693634, -0.22140583395957947, 0.1000644862651825, 0.0690162405371666, -0.1996621936559677, -0.18682946264743805, -0.18324624001979828, 0.03704545646905899, -0.34313976764678955, -0.2210824340581894, 0.08655531704425812, -0.12952260673046112, 0.21216365694999695, -0.1984240710735321], [-0.2676874101161957, -0.19229507446289062, 0.1780795156955719, 0.15758542716503143, 0.269375205039978, 0.003955211024731398, 0.15207450091838837, -0.1385120004415512, -0.0894555002450943, 0.2797917127609253, -0.2926880717277527, -0.23741377890110016, -0.18906737864017487, -0.293466180562973, -0.16055500507354736, 0.05880151316523552, -0.0035470419097691774, 0.18926341831684113, 0.166041299700737, -0.08891818672418594, -0.20530103147029877, -0.0704428181052208, 0.14306041598320007, -0.0859382152557373], [0.024522770196199417, -0.13042427599430084, -0.03365885093808174, -0.0474734753370285, -0.13473983108997345, 0.24860158562660217, 0.14482183754444122, -0.21064172685146332, 0.20052388310432434, -0.029461655765771866, 0.3189159333705902, 0.172399640083313, -0.08621148020029068, -0.1984807401895523, -0.2136719822883606, -0.03930944204330444, 0.03286053240299225, -0.15697643160820007, -0.2454867660999298, 0.3188672959804535, 0.30328643321990967, 0.03999853879213333, -0.25515154004096985, -0.1468617171049118], [-0.3198050856590271, 0.30843251943588257, -0.1602717638015747, 0.06463856250047684, -0.10454673320055008, 0.06000123918056488, 0.07815902680158615, 0.19652193784713745, -0.19385768473148346, -0.27458474040031433, -0.10104523599147797, 0.2669486999511719, 0.21715807914733887, 0.03928147628903389, -0.08133599162101746, 0.11985283344984055, -0.19541510939598083, 0.2102234810590744, -0.028560878708958626, -0.09760060906410217, -0.0020075507927685976, -0.2609546482563019, -0.12880226969718933, 0.18796944618225098], [-0.22085031867027283, 0.008415373973548412, -0.1833287626504898, -0.06349465250968933, -0.12770423293113708, -0.12625102698802948, 0.0967748686671257, -0.16268107295036316, 0.007434231229126453, -0.03585176542401314, 0.06977865844964981, 0.2637105882167816, 0.07200948148965836, -0.21995194256305695, -0.2061818242073059, -0.191743403673172, 0.1454407274723053, -0.30853626132011414, -0.00015341526886913925, -0.005696122534573078, -0.07277210801839828, 0.15236826241016388, -0.23689202964305878, -0.19177840650081635], [0.20637406408786774, 0.0012264949036762118, 0.042355526238679886, -0.10952647030353546, -0.07483958452939987, 0.25852540135383606, 0.27425315976142883, 0.22290705144405365, -0.04081932455301285, 0.14835123717784882, -0.10177582502365112, -0.345258891582489, 0.19804492592811584, -0.24931538105010986, 0.3408896028995514, -0.041773177683353424, -0.06346025317907333, 0.02298714965581894, 0.17060811817646027, 0.16437867283821106, 0.1903103142976761, 0.20659087598323822, 0.10929340124130249, 0.0955820232629776], [-0.05180148780345917, 0.06591089814901352, -0.29081520438194275, 0.25619933009147644, 0.16939519345760345, -0.2621726095676422, 0.0812898799777031, 0.2574971318244934, -0.22843481600284576, 0.019890105351805687, 0.30564409494400024, -0.2642098069190979, 0.037617750465869904, -0.13884472846984863, 0.4255916178226471, 0.3641450107097626, 0.20485910773277283, 0.11833660304546356, 0.16786079108715057, 0.22593136131763458, -0.09998050332069397, 0.20099225640296936, -0.4036497473716736, 0.030277524143457413], [-0.10530979931354523, -0.1671571284532547, -0.3162086009979248, 0.09555346518754959, 0.03151051327586174, 0.23402197659015656, -0.16405898332595825, -0.024271739646792412, 0.09102339297533035, 0.2649296820163727, -0.09496045857667923, 0.04640830308198929, 0.16690319776535034, 0.009997119195759296, -0.03579525649547577, -0.23690444231033325, 0.2128773033618927, -0.2802170217037201, 0.276559054851532, -0.0034495769068598747, 0.16567659378051758, 0.22773925960063934, 0.3969746232032776, -0.11756674945354462], [0.16873490810394287, -0.10337958484888077, 0.006844161543995142, 0.03605944663286209, 0.2636103332042694, 0.3170905113220215, 0.20899547636508942, 0.013596904464066029, -0.029744459316134453, 0.209942027926445, -0.10295739024877548, -0.24455083906650543, -0.10813849419355392, -0.17451080679893494, -0.05436236038804054, -0.1950397491455078, -0.2765581011772156, -0.33388176560401917, 0.2685399055480957, -0.005324627738445997, -0.08930330723524094, 0.17107932269573212, -0.1315561830997467, 0.24545547366142273], [0.20195920765399933, -0.1785694807767868, -0.05072533339262009, 0.2319684624671936, 0.2551138699054718, -0.03313771262764931, 0.0026171740610152483, -0.22966881096363068, 0.24847662448883057, -0.18074198067188263, 0.3561567962169647, 0.12184347957372665, 0.07982741296291351, -0.05306066945195198, -0.027565237134695053, -0.19306349754333496, -0.15186545252799988, -0.22910176217556, 0.19986680150032043, 0.05960043892264366, -0.17473141849040985, 0.26551553606987, 0.2697208523750305, 0.28540587425231934], [0.44208911061286926, -0.08045114576816559, -0.21108978986740112, 0.03493306785821915, 0.10943043977022171, -0.08583750575780869, 0.24158097803592682, -0.04856112226843834, -0.058999914675951004, 0.1159585639834404, 0.08298040926456451, -0.1021375060081482, -0.31632813811302185, 0.18087944388389587, 0.04622342064976692, -0.061290692538022995, 0.3039568066596985, 0.3066083490848541, 0.18454653024673462, 0.2592354714870453, -0.0033741409424692392, 0.10639218986034393, -0.26705244183540344, -0.1689341813325882], [-0.10224981606006622, -0.22972771525382996, 0.22401399910449982, -0.06742683798074722, -0.21801306307315826, -0.13654354214668274, 0.08597514778375626, -0.21418236196041107, 0.18331843614578247, 0.005898971110582352, -0.06542975455522537, 0.08256176114082336, 0.1990915834903717, -0.08881077915430069, 0.13156194984912872, 0.041600462049245834, -0.1318885236978531, 0.1930941790342331, 0.15605510771274567, -0.009850258007645607, 0.18460650742053986, 0.2151193469762802, 0.16823050379753113, 0.21453487873077393], [0.01980138197541237, 0.26387813687324524, 0.19365985691547394, 0.25989457964897156, -0.0855073630809784, 0.19749018549919128, 0.2221878468990326, -0.30088895559310913, 0.10958728939294815, -0.19653579592704773, -0.023242902010679245, 0.2625002861022949, -0.23856744170188904, 0.10210365056991577, 0.11623635143041611, -0.13478833436965942, -0.12222903966903687, -0.21669544279575348, 0.18228423595428467, 0.3320561945438385, 0.03755137324333191, -0.21780046820640564, 0.204544335603714, 0.16155949234962463], [0.09580846130847931, -0.10047706961631775, 0.13364697992801666, 0.05610399693250656, 0.2406727820634842, -0.01423212606459856, 0.01376281213015318, 0.206590473651886, -0.2592199444770813, 0.2405654340982437, 0.18569613993167877, -0.17584405839443207, -0.1244024708867073, 0.10503865778446198, -0.17000840604305267, 0.14527200162410736, -0.11803851276636124, 0.12179576605558395, -0.2576463520526886, 0.22231842577457428, 0.20783144235610962, 0.23421859741210938, 0.16020970046520233, -0.17946076393127441], [0.24623624980449677, -0.23568829894065857, -0.3596106469631195, -0.1935579627752304, 0.046055685728788376, 0.2570915222167969, 0.1656820923089981, 0.0929233506321907, -0.060583680868148804, 0.3848668336868286, -0.04604753851890564, -0.1097809448838234, -0.32037681341171265, 0.1323479861021042, 0.25585654377937317, -0.17641746997833252, -0.1895499974489212, 0.0959465503692627, 0.04823272302746773, -0.06464778631925583, 0.21596240997314453, -0.11055248975753784, -0.06676100194454193, 0.16427195072174072], [-0.11129265278577805, 0.039877887815237045, -0.09313172101974487, -0.15413255989551544, 0.2976941764354706, -0.03712540492415428, 0.24842865765094757, -0.11945630609989166, -0.1601920872926712, -0.2628718912601471, 0.18624939024448395, -0.0838504433631897, 0.17210903763771057, -0.040263015776872635, 0.21441704034805298, -0.2901468575000763, 0.2147407978773117, 0.12149229645729065, 0.10547083616256714, 0.3258759081363678, 0.14050433039665222, 0.08742237091064453, -0.19186866283416748, -0.2943245470523834], [0.1697649210691452, 0.13915622234344482, 0.25816112756729126, 0.07102522999048233, -0.20410507917404175, -0.3029415011405945, -0.01353030651807785, -0.164590522646904, -0.25394880771636963, -0.12890371680259705, -0.15053614974021912, 0.13989701867103577, -0.15411080420017242, 0.09549325704574585, -0.1718904972076416, -0.05558718740940094, -0.2916679382324219, -0.2903999984264374, -0.03759707883000374, 0.002560177817940712, 0.06165613979101181, -0.21972212195396423, 0.1707768440246582, 0.33930855989456177], [0.18141058087348938, -0.06835739314556122, 0.06727150082588196, -0.23870185017585754, -0.08559553325176239, 0.3088325560092926, -0.19783341884613037, 0.05627421289682388, 0.06244037300348282, 0.14292508363723755, -0.04003008455038071, -0.2567143142223358, -0.14793483912944794, 0.025651633739471436, -0.1707361340522766, -0.10400168597698212, -0.28585997223854065, -0.2893468141555786, -0.03708731755614281, -0.1728087067604065, 0.026078561320900917, 0.14726591110229492, 0.26533323526382446, -0.14689458906650543], [-0.20084866881370544, -0.1329018473625183, 0.018108906224370003, 0.06971253454685211, -0.27287086844444275, 0.3705199360847473, -0.260804682970047, 0.09103372693061829, 0.20352301001548767, 0.2727077007293701, 0.1880785971879959, 0.12514033913612366, -0.08662108331918716, 0.2245451807975769, -0.08306851238012314, 0.33383533358573914, 0.022430866956710815, 0.2226201891899109, -0.006366035435348749, 0.11255199462175369, -0.06457143276929855, 0.11305249482393265, -0.2128269225358963, -0.27719658613204956], [-0.1599711775779724, -0.11102811247110367, 0.3136349618434906, -0.07536204159259796, 0.3442877233028412, -0.08834545314311981, -0.18634739518165588, 0.2048160582780838, 0.034588586539030075, 0.034403882920742035, 0.06376282870769501, 0.22133475542068481, -0.22389017045497894, 0.2108442783355713, 0.3097672760486603, -0.011438703164458275, -0.1818322241306305, 0.01547808013856411, -0.17234505712985992, -0.1860145777463913, -0.18183265626430511, -0.0507415272295475, 0.2970491647720337, 0.21733659505844116], [0.2044047713279724, 0.08943583816289902, -0.22287355363368988, -0.02180214412510395, 0.31850048899650574, -0.28382790088653564, 0.21460476517677307, 0.053012773394584656, -0.05786927789449692, 0.13640373945236206, 0.03900151327252388, 0.25464800000190735, 0.20372386276721954, -1.2635113080250449e-06, -0.11054374277591705, 0.11142508685588837, 0.2282256782054901, -0.07745281606912613, 0.14493151009082794, 0.024200700223445892, 0.16466626524925232, -0.18977612257003784, 0.1865752637386322, 0.24129240214824677], [-0.21129462122917175, -0.046615324914455414, 0.35268861055374146, -0.18432563543319702, 0.2686080038547516, 0.04664333537220955, -0.17717084288597107, 0.20724081993103027, -0.055429402738809586, 0.027748320251703262, -0.005854696035385132, 0.12499643117189407, -0.20673386752605438, -0.10583115369081497, 0.31832417845726013, -0.11392585933208466, 0.08949682116508484, -0.15542647242546082, 0.19791264832019806, -0.14155146479606628, 0.23263752460479736, -0.05733001232147217, -0.04769578203558922, -0.17590434849262238], [-0.22627751529216766, 0.10383032262325287, -0.007112395484000444, 0.1963539868593216, 0.016626549884676933, -0.10582619160413742, 0.08011352270841599, 0.12091502547264099, -0.17444683611392975, -0.16498762369155884, -0.13479967415332794, 0.20694170892238617, 0.06319615244865417, -0.08335236459970474, 0.2202005237340927, 0.19243066012859344, 0.06960932910442352, 0.17168951034545898, -0.20432932674884796, -0.22862528264522552, -0.17014573514461517, -0.23517486453056335, 0.11013678461313248, 0.34748849272727966], [-0.3082667291164398, -0.2453705370426178, 0.00981986429542303, 0.24879029393196106, -0.08430156111717224, -0.014966826885938644, -0.28295817971229553, -0.1995408684015274, 0.22793862223625183, 0.25336703658103943, -0.2532147467136383, 0.32227247953414917, 0.061377789825201035, 0.2026667594909668, -0.12344376742839813, 0.07349900156259537, 0.014718874357640743, 0.10707087814807892, -0.17983147501945496, -0.43295833468437195, -0.1185675635933876, 0.09610685706138611, -0.0948667898774147, 0.16813555359840393], [0.2297331690788269, -0.32586315274238586, 0.13976885378360748, -0.07063782960176468, 0.3256186246871948, -0.08985044807195663, 0.19576244056224823, 0.29004162549972534, 0.3147065043449402, 0.18701164424419403, -0.06387124955654144, 0.06946805864572525, 0.18732604384422302, 0.036987174302339554, -0.10279416292905807, 0.28135946393013, 0.13567928969860077, 0.10817258059978485, -0.12679840624332428, 0.0004867182578891516, -0.1618957221508026, 0.09682255983352661, -0.08921895921230316, 0.1130119040608406], [0.3872477412223816, -0.10003198683261871, 0.22119270265102386, -0.13206349313259125, 0.23715098202228546, 0.2876638174057007, 0.04544638842344284, 0.22856909036636353, 0.2998740077018738, 0.04011909291148186, -0.1451840102672577, 0.01757037080824375, 0.1741797924041748, 0.1723761409521103, 0.33330264687538147, -0.008773484267294407, 0.16672757267951965, -0.15442775189876556, 0.010211696848273277, -0.31101301312446594, -0.22644869983196259, -0.053502850234508514, -0.09404280036687851, 0.05505289137363434], [-0.08668467402458191, 0.03416825458407402, -0.12480738013982773, -0.04323158413171768, -0.1987052857875824, -0.3690136969089508, -0.014459080994129181, 0.05120556056499481, -0.01909475401043892, -0.09893514215946198, 0.03434564173221588, 0.27689090371131897, -0.01651538535952568, -0.0715339258313179, -0.43107879161834717, -0.08399666845798492, -0.06197088584303856, -0.04363349825143814, 0.053410228341817856, 0.13022461533546448, 0.16905620694160461, 0.19758282601833344, 0.16710345447063446, 0.16322512924671173], [0.28704696893692017, -0.16131682693958282, -0.17965610325336456, -0.34977084398269653, 0.061046600341796875, 0.25013312697410583, -0.1832934021949768, 0.2789373993873596, -0.2590360939502716, 0.25113195180892944, -0.04841291531920433, -0.22828485071659088, -0.011211669072508812, -0.13322904706001282, 0.002508841222152114, -0.06253239512443542, 0.1625879406929016, 0.028606098145246506, -0.1444748342037201, 0.08756691962480545, 0.11443021148443222, -0.1389467567205429, -0.08781380951404572, -0.21731539070606232], [-0.14466975629329681, 0.2435697615146637, -0.10402753204107285, 0.006029446143656969, 0.15324436128139496, -0.20287321507930756, 0.007778732571750879, -0.13370797038078308, 0.2319987565279007, -0.005549866706132889, 0.2869439125061035, 0.08435404300689697, -0.288018137216568, 0.010229852981865406, 0.3326277732849121, 0.04419687017798424, 0.08332114666700363, 0.15758179128170013, -0.18748414516448975, 0.02801436185836792, 0.017723247408866882, -0.07985319942235947, 0.2536472976207733, 0.3118900954723358], [-0.19676251709461212, -0.15398280322551727, 0.20950710773468018, -0.10111570358276367, 0.27304843068122864, 0.023151643574237823, 0.15133143961429596, -0.3066226541996002, 0.06446109712123871, 0.08189737796783447, -0.02517835982143879, -0.15517951548099518, 0.12351127713918686, 0.1456860452890396, -0.3029467761516571, -0.333968847990036, -0.10966945439577103, 0.030529839918017387, 0.08038009703159332, -0.15097419917583466, -0.29091697931289673, -0.09073756635189056, 0.10641961544752121, 0.09689550846815109], [0.2863743007183075, -0.043279994279146194, 0.05075709894299507, -0.027611887082457542, -0.20492258667945862, 0.14049571752548218, -0.009958220645785332, 0.200602725148201, -0.2588283121585846, -0.29493242502212524, 0.23798386752605438, 0.0899946540594101, -0.13729794323444366, -0.20347832143306732, -0.11938544362783432, 0.3527400493621826, -0.1923142671585083, 0.026712339371442795, -0.2088506668806076, -0.14239227771759033, -0.27239763736724854, 0.005576259456574917, -0.39273953437805176, 0.22198161482810974], [-0.15134935081005096, 0.1357850581407547, 0.26583555340766907, 0.06913783401250839, -0.0018617184832692146, -0.07312408834695816, -0.18596994876861572, 0.05180298164486885, 0.25737428665161133, 0.09235754609107971, 0.0952475517988205, 0.1677851527929306, 0.019839152693748474, -0.3192451000213623, 0.06324274092912674, 0.26457029581069946, -0.18980945646762848, 0.13639739155769348, -0.16661639511585236, 0.017941059544682503, -0.26086553931236267, -0.030607927590608597, 0.16750460863113403, -0.046501901000738144], [-0.015295901335775852, 0.3393598198890686, 0.29355400800704956, -0.08750016987323761, -0.22439946234226227, -0.27219170331954956, 0.13317492604255676, 0.13554450869560242, -0.09902584552764893, 0.07235446572303772, 0.13178794085979462, 0.18243490159511566, -0.2076517790555954, 0.15430274605751038, -0.3911127746105194, 0.2992456257343292, 0.14709147810935974, 0.1946227103471756, -0.2754182815551758, -0.08679838478565216, -0.06778320670127869, -0.16797591745853424, -0.3542523980140686, 0.3666042685508728], [0.03225128352642059, 0.013588444329798222, 0.057024672627449036, 0.006969323847442865, 0.11919236183166504, -0.018531160429120064, 0.2312861979007721, -0.010657545179128647, 0.22250719368457794, 0.1923377960920334, -0.3227687478065491, 0.33083125948905945, -0.2560126483440399, 0.13929389417171478, -0.10323801636695862, 0.19898445904254913, 0.2649203836917877, 0.15223364531993866, 0.2368689328432083, -0.22914640605449677, -0.25157856941223145, -0.0633918046951294, -0.09353818744421005, 0.20065616071224213], [-0.20884302258491516, 0.27458110451698303, 0.11041189730167389, 0.16720181703567505, -0.12437307089567184, 0.29194384813308716, 0.312686026096344, 0.022104201838374138, 0.11230338364839554, 0.22865384817123413, -0.13015596568584442, 0.007333860266953707, -0.08437072485685349, -0.27149567008018494, -0.08741768449544907, -0.3213682472705841, -0.2572959065437317, -0.266891747713089, 0.23832382261753082, 0.06681492924690247, 0.1942945122718811, -0.07350502163171768, -0.03110000491142273, 0.06311188638210297], [-0.12393642216920853, -0.23728664219379425, 0.20066823065280914, -0.2076495736837387, 0.06831475347280502, 0.11885043233633041, -0.27664992213249207, -0.24835392832756042, 0.1395789384841919, -0.0321466289460659, -0.26847225427627563, 0.3549388349056244, -0.2204967737197876, 0.0834474191069603, 0.2781513035297394, -0.25849857926368713, -0.2692914307117462, -0.31984686851501465, -0.13861802220344543, -0.1456242799758911, 0.1069004163146019, -0.29064905643463135, 0.040237490087747574, 0.3702142536640167], [0.03388437628746033, 0.2228451818227768, 0.007508222945034504, 0.09024705737829208, 0.0970115065574646, -0.013445830903947353, -0.17691682279109955, 0.26507362723350525, -0.02158380299806595, -0.13323351740837097, -0.10049496591091156, 0.022920001298189163, 0.1597631424665451, 0.08713287115097046, 0.14750398695468903, -0.3453349173069, -0.024183090776205063, -0.08719906955957413, -0.29985857009887695, -0.1821746528148651, 0.14622484147548676, -0.18965736031532288, 0.1520228534936905, -0.09438558667898178], [-0.14932696521282196, 0.042857810854911804, 0.14802147448062897, 0.1085493341088295, 0.22566896677017212, 0.02177979052066803, -0.2331114262342453, 0.13267511129379272, 0.03313416615128517, 0.23404160141944885, -0.1555625945329666, -0.10284697264432907, -0.3048357665538788, -0.09785684198141098, 0.2643720507621765, 0.0541888065636158, -0.1045335978269577, -0.05014008283615112, -0.08777197450399399, 0.2936154007911682, 0.21592938899993896, 0.3283627927303314, 0.06702250242233276, -0.19789297878742218], [0.04401495307683945, -0.11961202323436737, -0.1309637725353241, 0.14786507189273834, -0.31252825260162354, 0.21010331809520721, -0.031952135264873505, 0.05457755923271179, 0.09047677367925644, 0.17591843008995056, 0.15978944301605225, 0.03565899655222893, -0.26461684703826904, -0.009189109317958355, -0.29398539662361145, 0.04967620223760605, 0.035844914615154266, 0.05546754598617554, -0.3190902769565582, -0.1509903222322464, 0.1684197038412094, -0.19276577234268188, -0.2958289682865143, -0.2869017422199249], [0.20875822007656097, 0.10916909575462341, -0.06104867160320282, -0.11887005716562271, -0.09923256933689117, 0.12953722476959229, 0.07640063017606735, -0.24521885812282562, -0.21813306212425232, -0.2530788481235504, 0.22811949253082275, 0.16094426810741425, -0.18882595002651215, -0.33313968777656555, -0.3719797432422638, 0.16555261611938477, -0.10835740715265274, 0.09596133232116699, 0.04748866334557533, 0.11161760985851288, -0.163686603307724, -0.24492217600345612, 0.08753615617752075, 0.20864777266979218], [-0.022542530670762062, 0.08112712949514389, -0.3227709233760834, 0.2816932797431946, 0.26511919498443604, -0.05040593817830086, 0.3437389135360718, 0.09811282902956009, 0.08283980935811996, 0.207976296544075, 0.24159902334213257, 0.11193794757127762, -0.26138293743133545, -0.11679621785879135, 0.2801900804042816, -0.16299566626548767, -0.03175249323248863, -0.07749201357364655, -0.05635010451078415, 0.09996896237134933, 0.19444090127944946, -0.17623285949230194, -0.11660995334386826, -0.1371089667081833], [0.22765441238880157, 0.17549718916416168, -0.0699222981929779, 0.22745001316070557, 0.24796730279922485, 0.2198251187801361, 0.20886391401290894, -0.1542840600013733, 0.1175893247127533, 0.004202794283628464, 0.2875007092952728, 0.1672603040933609, 0.13013488054275513, 0.024898895993828773, -0.08387088775634766, 0.04348348453640938, 0.26894450187683105, 0.21117642521858215, -0.20576077699661255, -0.10226384550333023, -0.24432598054409027, 0.1399765908718109, 0.23848271369934082, -0.12938682734966278], [0.012933050282299519, 0.3628907799720764, 0.22279256582260132, 0.01130884699523449, 0.09579570591449738, 0.07046066969633102, -0.16610775887966156, 0.12162373960018158, 0.11884480714797974, 0.25562646985054016, 0.08510082215070724, 0.21067464351654053, -0.16468192636966705, -0.05209575220942497, -0.1690778136253357, -0.20058536529541016, 0.06636003404855728, 0.1976093202829361, -0.18828746676445007, 0.1079351156949997, 0.1358645260334015, -0.19469749927520752, 0.11673060804605484, 0.19199545681476593], [0.06429097801446915, -0.21187584102153778, -0.010537640191614628, 0.12157070636749268, 0.07618080824613571, -0.22475166618824005, 0.19683408737182617, -0.19149568676948547, 0.1633392721414566, -0.12337703257799149, 0.3034449815750122, -0.10035043209791183, -0.10681227594614029, -0.20560401678085327, -0.18173131346702576, 0.16918312013149261, 0.254751056432724, -0.12440607696771622, -0.0563298724591732, 0.2449021339416504, 0.21716248989105225, 0.10442939400672913, -0.032584670931100845, -0.09576527774333954]], "b": [0.1337638795375824, -0.20088988542556763, 0.11474017798900604, -0.12881526350975037, 0.24381546676158905, -0.1437903195619583, 0.07402206212282181, 0.0159299299120903, 0.0977238342165947, -0.1853552907705307, 0.1319911926984787, 0.0566699281334877, 0.04373360052704811, 0.016692379489541054, 0.23157089948654175, 0.22524939477443695, -0.1471741944551468, 0.17400117218494415, 0.016761966049671173, -0.1847665011882782, -0.3634165823459625, -0.11094164848327637, 0.25150778889656067, 0.151411235332489], "act": "relu"}, {"W": [[0.3484993875026703, 0.043916329741477966, -0.15466630458831787], [-0.4554753601551056, -0.09654168039560318, -0.00811301451176405], [-0.5653138756752014, -0.2506866157054901, 0.22354888916015625], [0.2065039724111557, 0.43686017394065857, 0.45545464754104614], [0.14586210250854492, -0.19522598385810852, 0.21345673501491547], [0.37895074486732483, -0.5188719034194946, -0.041521068662405014], [0.31740185618400574, -0.16852769255638123, 0.10237337648868561], [0.11827319860458374, -0.3556765615940094, -0.11104430258274078], [-0.1773146241903305, -0.5568730235099792, -0.36290115118026733], [0.32270264625549316, -0.2919931411743164, 0.07570783793926239], [-0.2528970539569855, 0.564436674118042, -0.37971413135528564], [-0.18756213784217834, 0.3582272231578827, 0.37351304292678833], [-0.3171083331108093, 0.29505911469459534, -0.021178292110562325], [-0.049229517579078674, -0.38570019602775574, -0.3579745888710022], [0.4207124412059784, -0.169253408908844, -0.13498654961585999], [0.18100330233573914, 0.3757134675979614, -0.45709070563316345], [0.12049759179353714, -0.37098097801208496, 0.22611863911151886], [0.10707108676433563, 0.4785879850387573, -0.43827906250953674], [-0.37652334570884705, -0.32174819707870483, -0.16210557520389557], [-0.4147484004497528, 0.5174450278282166, -0.2349718064069748], [-0.2506873309612274, 0.24673675000667572, -0.02336789295077324], [0.329882949590683, -0.5191308856010437, -0.006807022728025913], [-0.5033590197563171, -0.5473242998123169, 0.5218924283981323], [-0.4693581163883209, 0.04347074404358864, -0.01499979943037033]], "b": [-0.16146570444107056, 0.31906452775001526, -0.40251755714416504], "act": "softmax"}], "classes": ["relaxed", "focused", "overload"], "metrics": {"accuracy": 0.2857142857142857, "macroF1": 0.29685314685314684, "accuracyRandomSplit": 0.6074074074074074, "trainSamples": 930, "testSamples": 420, "synthetic": false, "dataset": "STEW (mitulahirwal)", "hardware": "Emotiv EPOC 14ch \u2192 frontal-mapped to Muse contract", "note": "real workload EEG; subject-independent ~29%, subject-dependent ~61%"}}