{"type": "mlp", "task": "classification", "featureOrder": ["delta", "theta", "alpha", "sigma", "beta", "gamma", "thetaAlpha", "alphaTheta", "engagement", "betaAlpha"], "scaler": {"mean": [0.16260578564791406, 0.23382053432792116, 0.21305205367716554, 0.07310616649070047, 0.23040934762249285, 0.08700611242503631, 1.8124304892062355, 1.3400719684167173, 0.541658286245729, 1.6106450569016306], "scale": [0.04810358630482755, 0.09428309639755462, 0.10369135801859998, 0.02936434721844247, 0.06285054320044316, 0.03002063654247692, 5.669826839702774, 3.219620243971794, 0.21439051076871102, 4.019751492737648]}, "layers": [{"W": [[-0.10527672618627548, 0.28192150592803955, 0.29525747895240784, 0.141832634806633, -0.29578402638435364, -0.16646768152713776, -0.23571641743183136, 0.1881292313337326, 0.0756630152463913, 0.10800229012966156, -0.5368852019309998, 0.2919636368751526, 0.036416325718164444, -0.23277568817138672, -0.23129180073738098, -0.11036675423383713, -0.016842972487211227, 0.10002551972866058, -0.03405817970633507, -0.3032976984977722], [0.356174498796463, -0.6648045778274536, -0.04678972065448761, -0.025101039558649063, 0.05417078360915184, 0.136689230799675, -0.49908438324928284, -0.18334007263183594, 0.31778383255004883, -0.6200724244117737, 0.13329510390758514, -0.3635774850845337, -0.6270067095756531, 0.05213242769241333, 0.597220242023468, 0.43294793367385864, -0.21342135965824127, -0.3248880207538605, 0.4147132933139801, -0.266630619764328], [-0.6452524662017822, 0.2555091083049774, -0.5987182259559631, 0.2615291178226471, -0.32498377561569214, 0.26573118567466736, -0.3345625698566437, 0.17744308710098267, -0.23713436722755432, -0.04891681671142578, 0.39313456416130066, 0.2735612392425537, 0.6338381171226501, 0.6808546781539917, -0.13513337075710297, 0.21819841861724854, -0.29888972640037537, -0.15292824804782867, -0.7172789573669434, 0.0710250586271286], [-0.03178348019719124, -0.11020990461111069, 0.36728209257125854, -0.20828849077224731, -0.16366486251354218, 0.0433189682662487, -0.2460918426513672, 0.2976820468902588, -0.47447994351387024, 0.2938997149467468, 0.2840459942817688, -0.20310448110103607, -0.24310670793056488, 0.2583960294723511, 0.2277050018310547, 0.22385773062705994, 0.2103271633386612, -0.29550495743751526, -0.11886951327323914, -0.2900794744491577], [0.11424003541469574, -0.08531074970960617, -0.14123834669589996, -0.26354479789733887, -0.058501653373241425, -0.21978797018527985, 0.35013848543167114, 0.3111962378025055, 0.39846014976501465, -0.17634308338165283, -0.3098355829715729, 0.28533387184143066, 0.05133303999900818, -0.05982062593102455, 0.2766682207584381, -0.07634685188531876, -0.06918440014123917, -0.27096742391586304, -0.4863908290863037, -0.35802361369132996], [-0.28569865226745605, 0.15109561383724213, -0.37494319677352905, -0.1346588432788849, 0.44096800684928894, -0.06648773699998856, 0.03068060241639614, 0.2618911862373352, -0.18575850129127502, -0.41463300585746765, -0.16624955832958221, -0.3570672273635864, 0.18469449877738953, 0.1210479587316513, 0.0012071785749867558, 0.21533389389514923, 0.15760330855846405, -0.14879463613033295, 0.09071119129657745, 0.003721604123711586], [0.471251517534256, 0.1602669209241867, -0.11565479636192322, -0.3260134160518646, -0.31698402762413025, -0.10914935916662216, 0.15748028457164764, 0.24847570061683655, -0.2137034833431244, -0.11596493422985077, -0.14595089852809906, -0.292214035987854, -0.45507678389549255, -0.4078817665576935, 0.5050597786903381, 0.005410478450357914, 0.0212909784168005, 0.28712186217308044, 0.021094409748911858, 0.2676616907119751], [0.3022848963737488, 0.06418654322624207, -0.19514258205890656, -0.3429185152053833, -0.4176828861236572, -0.2953014075756073, -0.1784210056066513, 0.09554191678762436, -0.6470704674720764, 0.05962444469332695, 0.29369571805000305, -0.23421794176101685, -0.04021897539496422, 0.14625771343708038, 0.32947200536727905, -0.36092036962509155, 0.18229271471500397, 0.31766441464424133, -0.5223190784454346, 0.3467538356781006], [-0.2866056263446808, -0.044058289378881454, 0.1181388646364212, 0.1506323665380478, -0.2975924611091614, 0.36494895815849304, 0.03434775769710541, -0.11573842167854309, -0.45051565766334534, -0.09040588140487671, 0.17660658061504364, -0.35637080669403076, -0.18644477427005768, -0.3707151412963867, 0.10323915630578995, -0.34083637595176697, 0.12251903116703033, -0.27767741680145264, 0.28146862983703613, -0.36260122060775757], [-0.01424254011362791, -0.5377603769302368, 0.4138725697994232, 0.38343575596809387, -0.3321073651313782, 0.11541658639907837, 0.3127745985984802, 0.07320372760295868, 0.22556234896183014, -0.3866027891635895, -0.42025840282440186, 0.3495865762233734, 0.24213072657585144, -0.09086130559444427, -0.07710593938827515, -0.010369246825575829, 0.20261667668819427, 0.30514591932296753, 0.39151301980018616, 0.1258179098367691]], "b": [0.24814394116401672, -0.23806528747081757, -0.05514100566506386, 0.5307888388633728, 0.47292420268058777, -0.54128098487854, -0.028648920357227325, 0.25237351655960083, -0.2136261761188507, -0.4452937841415405, 0.14089401066303253, 0.20610348880290985, 0.21808186173439026, -0.0952371135354042, 0.4453579783439636, -0.21979425847530365, -0.24300901591777802, 0.22742661833763123, 0.378778338432312, 0.2905769348144531], "act": "relu"}, {"W": [[0.14527863264083862, 0.11534944921731949, -0.4252694547176361, -0.22940705716609955, -0.3476622998714447, -0.09752590954303741, 0.32652586698532104, 0.010826067999005318, 0.5150830745697021, -0.011556833051145077, 0.4159044325351715, 0.10306527465581894], [-0.049274932593107224, -0.04588878154754639, 0.09676728397607803, 0.5302440524101257, -0.12092583626508713, -0.49890780448913574, 0.18925556540489197, -0.21058081090450287, 0.3122650682926178, 0.7561829686164856, 0.2947410047054291, -0.1389303356409073], [-0.3745381534099579, 0.25481075048446655, -0.1680442988872528, 0.28251734375953674, 0.5226671695709229, 0.4990948438644409, -0.25738444924354553, 0.17771677672863007, 0.3015919029712677, -0.2821163833141327, -0.013365469872951508, 0.20819349586963654], [0.31821778416633606, 0.17568743228912354, 0.17853344976902008, -0.22821134328842163, 0.4685641825199127, 0.38419216871261597, 0.009832540526986122, 0.13918353617191315, 0.1642015278339386, 0.34298956394195557, 0.41092151403427124, 0.14633221924304962], [-0.24507403373718262, -0.13046273589134216, 0.21202081441879272, 0.1971745491027832, 0.41386622190475464, 0.498494029045105, -0.005372023209929466, 0.22931623458862305, 0.41645708680152893, 0.013016505166888237, 0.412434846162796, 0.41156017780303955], [0.4104348123073578, -0.1954428255558014, -0.15352363884449005, -0.4035526514053345, 0.1330181509256363, -0.3418917655944824, -0.09997322410345078, 0.14262738823890686, -0.14604084193706512, 0.024911364540457726, -0.277397096157074, -0.3330158293247223], [0.3038384020328522, -0.11913278698921204, -0.37893015146255493, -0.05336533859372139, 0.3839043080806732, -0.1488371640443802, 0.08465240895748138, -0.13235577940940857, -0.26241758465766907, -0.04048115387558937, 0.2728305459022522, 0.19709040224552155], [0.06855816394090652, 0.2599310576915741, 0.17846687138080597, 0.05914394184947014, 0.4672238230705261, -0.20583988726139069, 0.11143682897090912, -0.1340249925851822, -0.44620487093925476, 0.5864534974098206, 0.36965054273605347, 0.14835003018379211], [-0.18609678745269775, 0.04918152466416359, -0.27553820610046387, -0.3083667755126953, 0.04603196680545807, 0.36913686990737915, 0.019749194383621216, -0.07123309373855591, 0.5649739503860474, 0.049939367920160294, 0.2954437732696533, 0.22209025919437408], [-0.16023088991641998, -0.30963054299354553, 0.12260948866605759, 0.4273674786090851, -0.36736881732940674, -0.27997830510139465, -0.4296780228614807, -0.31393158435821533, 0.22116053104400635, 0.4319251775741577, -0.05811893194913864, -0.3593407869338989], [-0.09264358878135681, -0.060004349797964096, -0.11694034934043884, 0.1150069385766983, 0.17559319734573364, 0.031086161732673645, 0.24877847731113434, -0.3566155731678009, -0.2455756962299347, 0.26476067304611206, 0.04901685565710068, 0.22105346620082855], [0.08628416806459427, -0.3611837923526764, -0.1970086693763733, 0.2972477674484253, -0.06422407180070877, 0.047672148793935776, 0.5659893155097961, 0.189418226480484, -0.29527994990348816, 0.30182570219039917, 0.08347461372613907, 0.006033154204487801], [0.27142950892448425, -0.18803048133850098, 0.6774610877037048, 0.6826035976409912, -0.050118252635002136, -0.45356565713882446, -0.143923819065094, -0.3542281985282898, -0.5262495279312134, 0.41367512941360474, -0.3597135543823242, -0.24446427822113037], [0.11961261183023453, -0.4716937243938446, 0.602406919002533, 0.15650339424610138, -0.14324955642223358, 0.012791781686246395, 0.060750074684619904, 0.2996978461742401, 0.07261516898870468, 0.6021292209625244, -0.09703201800584793, -0.40586990118026733], [0.23283670842647552, 0.22582989931106567, 0.3127395808696747, -0.22518077492713928, 0.0012690857984125614, 0.36767902970314026, -0.20916135609149933, 0.5183889269828796, 0.4484861195087433, -0.17724460363388062, 0.3757527768611908, 0.341500848531723], [-0.39589449763298035, 0.4738798141479492, 0.07395707815885544, 0.3166268765926361, -0.03176424279808998, 0.2858129143714905, -0.0661412850022316, -0.3094879984855652, 0.40923160314559937, -0.29109835624694824, 0.07765703648328781, 0.35342058539390564], [0.4341737926006317, -0.029679888859391212, 0.04637707397341728, -0.09216184914112091, 0.017536569386720657, -0.0991426557302475, 0.05303986370563507, 0.3234657943248749, 0.14984174072742462, 0.21843327581882477, -0.27278465032577515, 0.06291301548480988], [-0.4653737545013428, 0.0790555402636528, 0.10306058824062347, 0.503236711025238, -0.030030537396669388, -0.35290443897247314, -0.3017604947090149, 0.2565581500530243, 0.1804414838552475, -0.2450033277273178, -0.2630757987499237, 0.14238125085830688], [-0.3448761999607086, 0.24988389015197754, 0.04018767550587654, -0.5366735458374023, -0.4617216885089874, 0.5887033939361572, -0.3931746482849121, 0.05350269377231598, 0.5102870464324951, 0.21441909670829773, 0.6811840534210205, 0.35859933495521545], [-0.2122083306312561, -0.2763640880584717, 0.43552732467651367, 0.2604271173477173, -0.12640783190727234, 0.27514857053756714, -0.33470678329467773, -0.07239051163196564, -0.35155096650123596, 0.1419745683670044, -0.2995114326477051, -0.4108826518058777]], "b": [-0.40782761573791504, 0.011598173528909683, 0.08084750920534134, -0.06849757581949234, 0.739873468875885, 0.13885453343391418, 0.00425521656870842, 0.6031906604766846, -0.3232925236225128, 0.44567763805389404, -0.1824621558189392, 0.7051026225090027], "act": "relu"}, {"W": [[-0.5152883529663086, 0.41148748993873596, -0.006311486475169659], [0.5185279250144958, -0.49703726172447205, 0.2198134958744049], [0.8134846091270447, -0.04040888696908951, -0.04631863161921501], [0.5512081980705261, -0.31799471378326416, -0.10386282950639725], [-0.20807577669620514, 0.9503671526908875, -1.0028800964355469], [-0.4906325042247772, 0.5016015768051147, 0.6893558502197266], [-0.11800247430801392, 0.3321838676929474, -0.39116039872169495], [-0.6008878350257874, 0.26178833842277527, -0.10675864666700363], [-0.024940017610788345, -0.7424361705780029, 0.8358619809150696], [0.8651292324066162, 0.29924196004867554, -0.24776385724544525], [-0.5358474850654602, 0.156752347946167, 0.5232923030853271], [-0.6821075081825256, 0.7330024242401123, 0.5147067308425903]], "b": [0.423321008682251, 0.545850932598114, -0.05907203629612923], "act": "softmax"}], "metrics": {"accuracy": 0.905, "macroF1": 0.9049066351976934, "trainSamples": 9600, "synthetic": true, "note": "workload literature-grounded synthetic (theta-up/alpha-down)"}, "classes": ["relaxed", "focused", "overload"]}