{"type": "mlp", "task": "classification", "featureOrder": ["EDA_mean", "EDA_std", "EDA_min", "EDA_max", "EDA_slope", "EDA_peak_count", "TEMP_mean", "TEMP_std", "TEMP_slope"], "scaler": {"mean": [5.210674011704062, 0.011941194383808765, 5.155299173557188, 5.280241028490884, 8.097233708758772e-08, 215.3330007256894, 33.59855140005988, 0.028852730483497277, 3.679070984609198e-07], "scale": [3.653324775334779, 0.019515763395028606, 3.6518751243706182, 3.651945693210338, 5.72957961369789e-05, 43.311845504719365, 1.5146389805466984, 0.6677237337841277, 5.16384317862265e-05]}, "layers": [{"W": [[-0.700825572013855, 0.7805629968643188, 0.007696877233684063, 0.2644553482532501, -0.2526407241821289, -0.669410765171051, -1.4300274848937988, 0.13998445868492126, 0.021639132872223854, 0.504693329334259, -1.4512890577316284, 0.8566941618919373, 0.4366026818752289, -0.8248275518417358, 0.15833191573619843, -0.5737712979316711, 0.6492456793785095, 0.3764783442020416, 0.016018042340874672, -0.020348869264125824, -0.12220422923564911, -0.594630241394043, -0.12670114636421204, -0.4569385349750519, 0.40471866726875305, 0.2842158079147339, -0.4917595088481903, -0.042539842426776886, -0.16060572862625122, 0.9136255979537964, 0.3614007234573364, -0.436845064163208], [0.036127541214227676, -0.20413091778755188, 0.09356872737407684, 0.8863884806632996, -2.030717611312866, -0.05228712409734726, -0.009528132155537605, 0.21099461615085602, -0.2263261079788208, -0.5965754389762878, -0.4938783347606659, 0.44896167516708374, -0.16589461266994476, -0.17830930650234222, -0.6869242787361145, 0.08263339847326279, 0.06404951214790344, -0.8684982061386108, 0.20273718237876892, 0.25483471155166626, 1.076920986175537, -0.013817003928124905, 0.7190845012664795, 0.30731362104415894, -0.1650049090385437, -0.3700713813304901, -0.8007854223251343, -1.3820533752441406, -0.09370030462741852, -0.5294980406761169, 0.0116591090336442, 0.08576828241348267], [-0.6718803644180298, 0.516248345375061, -0.4401322901248932, 0.42191776633262634, -0.22774480283260345, 7.343379547819495e-05, -0.8015573024749756, -0.46389758586883545, -0.46717244386672974, 0.5794479250907898, -0.786803662776947, 0.6428600549697876, 0.4045797884464264, -0.807702362537384, 0.3015342354774475, -0.6023831367492676, 1.0817376375198364, 0.41748228669166565, -0.08880451321601868, -0.17932884395122528, -0.45758283138275146, -0.33308830857276917, 0.19972741603851318, -0.2959598898887634, 0.7250481247901917, -0.028852684423327446, -0.5093245506286621, 0.10178768634796143, -0.12735050916671753, 1.3571696281433105, 0.4637594521045685, -0.17884795367717743], [-0.656666100025177, 0.3293120563030243, -0.5196195840835571, -0.12583404779434204, -0.42435044050216675, -0.28980836272239685, -1.366424560546875, -0.05480692908167839, 0.2743843197822571, 0.14954029023647308, -1.3125015497207642, 0.7188755869865417, -0.048119060695171356, -1.0766102075576782, 0.21740952134132385, -0.5285523533821106, 1.0940821170806885, 0.627590000629425, 0.225473552942276, 0.44744163751602173, 0.12426077574491501, -0.6588922142982483, 0.31001824140548706, -0.3316595256328583, 0.6899882555007935, 0.42828550934791565, -0.426119327545166, -0.34627765417099, -0.3607538640499115, 1.1414680480957031, 0.5436558127403259, 0.1020740494132042], [-0.04310452938079834, 0.06828659772872925, -0.36960476636886597, -0.5490818023681641, -0.1981596201658249, 0.01462218165397644, -0.036412570625543594, -0.021273432299494743, 0.2196633517742157, 0.04143066704273224, 0.3029581904411316, 0.11429672688245773, 0.15441197156906128, -0.47379934787750244, 0.2578542232513428, -0.01230995636433363, -0.03275807574391365, 0.452313631772995, -0.05609370768070221, 0.01808897964656353, -0.5024322271347046, -0.01026949193328619, 0.6353579759597778, 0.030382148921489716, -0.07194441556930542, 0.270178884267807, 0.16740119457244873, -0.4083344638347626, 0.003483046079054475, 0.19740431010723114, -0.1597553938627243, 0.013170559890568256], [0.1408253014087677, -0.05302789434790611, -0.31079691648483276, 0.28726494312286377, -0.6918901801109314, 0.02049320749938488, 0.028206640854477882, 0.060514289885759354, -0.6577025651931763, 0.04598711058497429, 0.18371950089931488, -0.1987522542476654, 0.28899288177490234, -0.08661174774169922, -0.07138185948133469, -0.040873099118471146, -0.05132612586021423, -0.14930401742458344, 0.7484018206596375, -0.47645437717437744, -0.029255524277687073, -0.11172601580619812, -0.20543460547924042, 0.8705192804336548, 0.2194320559501648, 0.26199737191200256, 0.25728607177734375, -0.08698777109384537, 0.07996328175067902, -0.11913859099149704, -0.14188963174819946, 0.7138423323631287], [0.9588043093681335, -0.1285044252872467, -1.0503008365631104, -0.36768394708633423, 0.2999880313873291, 1.7563018798828125, 0.34903648495674133, 1.5508471727371216, 0.6090874075889587, -1.017207384109497, -1.5239537954330444, -0.09344078600406647, -0.3413521349430084, -1.4355195760726929, -1.1759144067764282, 1.415313959121704, -0.6437842845916748, -0.6883106827735901, 0.7254811525344849, 0.748684287071228, 1.0972535610198975, 0.02671431191265583, 0.12521114945411682, -1.111214280128479, -0.3363794684410095, 0.8106117248535156, 0.35477033257484436, 1.0105949640274048, 1.5197972059249878, -0.2699117064476013, -1.0589218139648438, -0.5660004615783691], [0.1596849113702774, 0.243880495429039, -0.7500361800193787, -0.240121990442276, 1.8153432607650757, 1.3213719129562378, -2.0012381076812744, 0.9175348281860352, -1.43784499168396, 0.37922531366348267, 0.34419846534729004, 0.46387121081352234, 0.07010699808597565, -0.9663772583007812, 0.7494906187057495, 0.6262228488922119, 1.1327409744262695, 0.6370558142662048, -0.1404147446155548, 0.22847941517829895, 0.08327088505029678, 1.1436707973480225, 0.11958439648151398, -0.2500031590461731, 0.666820228099823, -1.2147212028503418, -1.3348690271377563, -0.6212601661682129, 1.279158115386963, 0.2843076288700104, 0.28054797649383545, 0.25250694155693054], [0.03938554972410202, -0.006924827117472887, 0.0009637820185162127, 0.021333467215299606, 0.04075828939676285, -0.0027250589337199926, -0.016385173425078392, -0.017003174871206284, 0.12881098687648773, 0.32082614302635193, 0.00930821243673563, 0.0818173810839653, 0.003831256181001663, 0.015304284170269966, 0.04413750395178795, 0.002801067428663373, -0.0011161884758621454, 0.029005378484725952, 0.002538031432777643, -0.0034981968346983194, 0.03424633666872978, -0.005282464437186718, 0.1695612221956253, 0.039913877844810486, 0.056074559688568115, 0.05194394290447235, 0.05967826023697853, -0.01588042639195919, 0.03482295572757721, -0.004856462590396404, -0.24923890829086304, -0.001978914253413677]], "b": [-0.6575444936752319, -0.3688143491744995, -0.3439467251300812, -0.814749002456665, -0.18290568888187408, -1.012921690940857, 0.6464004516601562, 0.0627184584736824, 1.0069068670272827, -0.44183725118637085, 0.0714697539806366, -1.1287312507629395, -0.8575433492660522, 0.29705995321273804, -0.5128426551818848, -0.617973804473877, -0.27975499629974365, 0.4579918682575226, 0.42744550108909607, -0.8197165131568909, 0.052428603172302246, -0.7120081186294556, -0.13708363473415375, -0.4040752649307251, -1.418991208076477, 1.6297202110290527, 0.9994523525238037, 1.3544764518737793, 0.15244102478027344, -0.7835208773612976, -0.39743271470069885, 0.4181581735610962], "act": "relu"}, {"W": [[-0.5849050879478455, -1.3373905420303345, 0.6439348459243774, -1.2102853059768677, 0.6605037450790405, -0.4622425436973572, 0.7463182210922241, 0.6705732345581055, -0.2151259481906891, 0.9415318965911865, -0.029546748846769333, 0.8608558773994446, -1.913515567779541, 0.44122743606567383, -0.28598830103874207, 0.33972516655921936], [0.9339599013328552, -0.0005111846840009093, -0.13450291752815247, 0.36110445857048035, -0.07934030890464783, 0.653849184513092, -1.7046775817871094, -0.2292526662349701, 0.008738595992326736, -2.453097749821609e-06, 0.27204689383506775, -0.5839517116546631, -0.0828973576426506, -0.42582976818084717, -0.018710028380155563, -1.203956127166748], [-0.09690945595502853, 0.5575181841850281, -0.6925385594367981, 0.4907477796077728, -0.7845093011856079, -0.7047754526138306, 0.5973052978515625, -0.11996649950742722, 0.8275086283683777, -0.05011221393942833, -0.9716185927391052, 0.25888553261756897, 0.5746086239814758, -0.36879733204841614, -1.10508131980896, 0.4004042446613312], [-0.0609031580388546, -1.099648356437683, -0.7918920516967773, -1.9626030921936035, -0.6759378910064697, 0.5267659425735474, -0.19717881083488464, -0.5365647077560425, 0.4019685387611389, -0.10599750280380249, 0.9825127124786377, -0.592606782913208, 0.09430082887411118, -0.6444612145423889, 0.744966447353363, -0.18214884400367737], [0.09791950136423111, 0.16465261578559875, 0.29198548197746277, -0.29251334071159363, 0.6215153336524963, -0.05997868999838829, 0.6201921105384827, -0.5028066635131836, 0.07080540060997009, 0.4683990180492401, -0.002295304788276553, 0.6141553521156311, 0.0007743059541098773, -0.16889628767967224, 0.6789877414703369, 0.44741782546043396], [-2.728008508682251, 0.0004713564703706652, -0.2902470827102661, -2.2320079803466797, -0.3568032681941986, -0.25712016224861145, 0.6988776326179504, -0.8210721611976624, 0.09190548211336136, 0.26958468556404114, 0.08871819078922272, 0.871036171913147, 0.4260478615760803, 0.9554445147514343, 0.1922691911458969, 0.7999290823936462], [0.3963296711444855, -0.4523349702358246, 0.5562955141067505, 0.5548028945922852, 0.28393423557281494, 0.4822376072406769, -0.5204324126243591, 0.10639966279268265, -1.2553322315216064, 0.3710900545120239, -0.0981278195977211, 0.15245011448860168, -0.4811670184135437, -1.4362657070159912, -0.8140793442726135, -0.059028260409832], [0.2338784635066986, -0.3567069172859192, -1.266987681388855, 0.08856233209371567, -1.2775037288665771, 0.43264448642730713, 0.23298805952072144, -1.2763551473617554, -0.4346810281276703, 0.4686470925807953, -0.20344683527946472, -0.24052096903324127, 0.37576958537101746, 0.5311424136161804, 0.26046326756477356, -0.00797524768859148], [0.4292182922363281, -0.7663100361824036, 0.22147585451602936, 0.27441146969795227, 0.012317548505961895, 0.6102662086486816, 0.15925900638103485, -0.3257547914981842, -1.2047221660614014, -0.16504639387130737, -1.227175235748291, -0.18366432189941406, -0.8149285316467285, 0.4143525958061218, -0.46659159660339355, 0.10080476105213165], [-0.4680541157722473, -1.6995515823364258, -0.15906573832035065, -0.9756255149841309, -0.16069024801254272, 0.6415649652481079, -0.3006124496459961, 0.25542041659355164, 0.49303990602493286, 0.6548482179641724, 0.3528636395931244, 0.34967055916786194, -0.8883624076843262, 0.1952567994594574, 0.9141899943351746, -0.02506011538207531], [-0.13700369000434875, 1.0462521314620972, 0.5867881774902344, 0.6472479701042175, 0.5281949043273926, 0.4141765534877777, -0.46783849596977234, 0.5096065402030945, 0.616989254951477, 0.5450290441513062, -0.06706502288579941, 0.03234301880002022, 0.20553803443908691, -2.4053752422332764, -0.0780411884188652, -0.210188627243042], [-0.3577522933483124, -0.1411983072757721, 0.7555538415908813, 0.03539081662893295, 0.5039036870002747, 0.12846533954143524, -0.5269116163253784, 0.4859945476055145, -0.15375323593616486, -0.3355183005332947, 0.587185800075531, 0.2900463342666626, 0.5547606945037842, 0.22646093368530273, 0.15196754038333893, -0.24963606894016266], [-0.9746770262718201, 0.025027669966220856, -1.415196180343628, -1.2069473266601562, -1.1601811647415161, 0.9142736792564392, 0.3094347417354584, -0.9270023107528687, 0.1954428255558014, -0.49438878893852234, 1.1328974962234497, -0.056152038276195526, 0.4014820158481598, -0.7190572023391724, 0.9823444485664368, -0.012009701691567898], [-0.1977185755968094, 1.0258543491363525, 0.591101884841919, 0.8598698973655701, 0.618339478969574, 0.1676526814699173, 0.11730019003152847, 0.6673941612243652, 0.5837871432304382, -0.38270363211631775, -1.089583158493042, -0.2331441193819046, 0.5040265321731567, -2.3721370697021484, 0.19132709503173828, 0.06124088168144226], [-1.5651580095291138, -0.1767864227294922, -0.6917895078659058, -0.2585460841655731, -0.4117255210876465, 0.5955058932304382, 0.013483306393027306, -0.1885233372449875, 0.5635663270950317, 0.2735635042190552, 0.45695599913597107, -0.45301997661590576, -0.162484273314476, -0.7053996324539185, 0.9961904287338257, -0.05638674646615982], [-0.14862887561321259, -0.349969744682312, -0.4769926965236664, -0.8848429918289185, -0.29424524307250977, -0.16734223067760468, 0.2960076928138733, -0.43280625343322754, 0.14387118816375732, 0.25499871373176575, 0.044774942100048065, 0.4668521285057068, -0.7440848350524902, 0.5168003439903259, 0.12430182099342346, 0.6250477433204651], [-0.042308930307626724, -0.03636426851153374, 0.13050182163715363, 0.0327783077955246, 0.07224485278129578, 0.8573461771011353, -0.3340253531932831, -0.07700345665216446, 0.4316179156303406, -0.04767007380723953, 0.04786992445588112, -0.39851194620132446, -0.2259218543767929, -0.6063685417175293, -0.04255842790007591, -0.22938135266304016], [-0.9592346549034119, 0.27385833859443665, 0.6209651827812195, -0.7075077891349792, 0.41257548332214355, 0.04927391931414604, 1.5873090028762817, -0.025251058861613274, 0.010433743707835674, 0.1205059066414833, -0.35113704204559326, 0.11227314919233322, -0.4561321437358856, 0.4536716938018799, -0.13082514703273773, 0.9826565384864807], [0.070225790143013, -0.7727169394493103, -0.18629801273345947, 0.3008610010147095, -0.02705048955976963, -0.3103700876235962, 0.2834501564502716, 0.34972453117370605, -1.0430063009262085, -0.5633217096328735, 0.20394231379032135, 0.3334052860736847, -0.06702446937561035, 0.9416590929031372, -0.27045705914497375, -0.14402326941490173], [-1.0486657619476318, -0.2673169672489166, -0.23249360918998718, -0.848623514175415, -0.4699578881263733, -0.6552096009254456, 0.6286908388137817, -0.14491026103496552, -0.1108066514134407, 0.38489437103271484, -0.4398796856403351, 0.373660683631897, -0.1311781257390976, 0.18875503540039062, -0.4279184639453888, 0.3452484905719757], [0.058264125138521194, -1.3194622993469238, -0.770642876625061, -0.4340691566467285, -0.8029516339302063, 0.4606006443500519, 0.11739841848611832, -0.1783209592103958, 0.03392558544874191, 0.1131734624505043, -0.16158507764339447, -0.012858253903687, -0.07708865404129028, 0.2599424421787262, -0.024939073249697685, -0.44664010405540466], [-2.288774013519287, -0.11441369354724884, 1.1304072141647339, -1.5520153045654297, 0.8614761233329773, -0.07242853939533234, 0.40664252638816833, 1.0031718015670776, -0.1833416074514389, 0.18037442862987518, -0.23160545527935028, 0.11067818850278854, -0.2408619076013565, -0.4033730924129486, -0.14707449078559875, 0.8346232771873474], [0.003782538464292884, -0.6919145584106445, -0.1235782578587532, 0.2896050810813904, -0.7099061608314514, 0.1923069953918457, 0.3041397035121918, 0.6525442004203796, -0.05435293912887573, -0.5795831084251404, -0.060345519334077835, 0.012334775179624557, 0.4225378930568695, -0.30145591497421265, 0.40228915214538574, -0.6587247848510742], [-0.01165043655782938, 0.6737226843833923, 0.026696903631091118, 0.3863215148448944, -0.14041295647621155, -0.03538957238197327, -0.5955302119255066, -0.22044290602207184, -0.46784350275993347, 0.13281600177288055, 0.33169782161712646, -0.32050079107284546, 0.5717660784721375, -1.5113590955734253, 0.4811999499797821, -0.612612783908844], [-3.1408615112304688, 5.6714813401193e-11, 0.41788387298583984, -2.449293375015259, 0.4717530310153961, 0.022810397669672966, 0.012906933203339577, 0.6631537079811096, -0.19321638345718384, 0.007690380327403545, 0.4730817973613739, 0.5536630153656006, 0.5865716934204102, 0.7362403273582458, 0.08963845670223236, 0.2840369641780853], [0.6713622212409973, -1.9533015489578247, -0.15438136458396912, 0.41885843873023987, 0.17258863151073456, 0.7485848069190979, 0.1247626319527626, 0.31540700793266296, -0.8184059858322144, -0.8890335559844971, -0.5031948089599609, 0.2892904281616211, 0.252549409866333, 0.744795560836792, -0.32869279384613037, 0.22099407017230988], [0.06596974283456802, 1.0494824647903442, 0.5229889750480652, 0.15322281420230865, 0.23720943927764893, -0.19693468511104584, 0.17700061202049255, 0.26302003860473633, -0.9411940574645996, -0.020177939906716347, 0.5783045887947083, 0.10380993783473969, 0.7698468565940857, 0.8576831221580505, 0.08221994340419769, 0.33203068375587463], [0.5573614239692688, -1.9637891054153442, 0.024496158584952354, 0.3872080147266388, 0.10249591618776321, 0.3816414773464203, 0.5952638983726501, -0.00022542642545886338, -2.6486215591430664, -0.3121473789215088, -0.5158880352973938, 0.20667347311973572, -0.5505973100662231, 0.3764614164829254, -0.12125378102064133, 0.27238360047340393], [0.17301541566848755, -0.22518570721149445, -1.499756932258606, 0.3094380795955658, -1.4792269468307495, 0.16402414441108704, 0.3291790783405304, -1.4731148481369019, -0.21224969625473022, 0.18579912185668945, 0.15886083245277405, -0.15848806500434875, 0.27310556173324585, 0.01751592755317688, -0.15158233046531677, -0.3598361611366272], [0.7005622386932373, 9.670316103438381e-06, 0.1882282942533493, 0.7565678358078003, -0.06080801412463188, 1.0394563674926758, -2.8105978965759277, -0.10431518405675888, 0.1698787361383438, 0.1740233302116394, -0.10160309076309204, -0.07000384479761124, 0.39500731229782104, -0.34120070934295654, 0.08210652321577072, -1.592398762702942], [-0.888599157333374, -2.060614585876465, 0.16757315397262573, -1.1240700483322144, 0.0468166247010231, 0.33808615803718567, 0.37505990266799927, 0.3738367557525635, 0.7813151478767395, 0.2984447181224823, 0.693725049495697, 0.27397269010543823, -0.34765303134918213, 0.5680233240127563, 0.6219654083251953, 0.031085509806871414], [-0.429128497838974, 0.7931647300720215, 0.219955176115036, -0.1384207159280777, 0.6013290882110596, -0.38418179750442505, -0.16163183748722076, 0.5666791796684265, 0.3085123598575592, 0.09464932978153229, -0.04016619548201561, 0.017544612288475037, 0.5095487236976624, 0.657411515712738, 0.2003551721572876, -0.04226161539554596]], "b": [0.4041498601436615, 0.3587779402732849, 0.06899599730968475, 0.43599367141723633, 0.2404579073190689, 0.37056732177734375, 0.20874962210655212, 0.1708012819290161, -0.5305173397064209, -0.5150576829910278, -0.9800750017166138, 0.2361975610256195, -0.17178544402122498, 0.18479587137699127, -0.8017663359642029, 0.12142633646726608], "act": "relu"}, {"W": [[1.720981240272522], [1.7604385614395142], [-2.2738211154937744], [2.0297014713287354], [-1.741202712059021], [1.1274555921554565], [-1.1144182682037354], [-1.932770013809204], [-2.4597620964050293], [-0.9146015048027039], [1.1616590023040771], [-0.9783582091331482], [1.3558911085128784], [-2.234391450881958], [1.1086888313293457], [-0.6074365377426147]], "b": [0.2902224063873291], "act": "softmax"}], "classes": ["calm", "stress"], "metrics": {"accuracy": 0.7743918980016277, "macroF1": 0.703347062532549, "fullRefAccuracy": 0.7414775296138891, "trainSamples": 22048, "testSamples": 11059, "subjects": 15, "synthetic": false, "dataset": "WESAD (asmarufoglu/wesad-features)", "hardware": "EDA + skin-temp (matches ScentraVN smartwatch)", "note": "real EDA stress; subject-wise validation"}}