{"type": "mlp", "task": "classification", "featureOrder": ["delta", "theta", "alpha", "sigma", "beta", "gamma", "thetaAlpha", "betaAlpha", "engagement", "alphaAsym", "statMean", "statStd", "stdMean", "stdStd", "absMean"], "scaler": {"mean": [0.07355191511771245, 0.08436145921650717, 0.10566976985627968, 0.06328252785890978, 0.35712718007488503, 0.3160071482111917, 0.8072175910932858, 3.4239257593465044, 1.8945390017722978, 0.00012163057196071569, -10.049771501571453, 60.939816898148536, 41.136234528575564, 46.69333023813235, 50.88548530378216], "scale": [0.00937727534769121, 0.009839864178368811, 0.011981175287841818, 0.007238314328810274, 0.02006690932417103, 0.023382348876156207, 0.12218335777843357, 0.4548786387590782, 0.21706558965226666, 0.023331518044403594, 52.44526179272442, 82.85970840468536, 35.20707312279217, 46.215536191377616, 44.72671437985433]}, "layers": [{"W": [[-0.08593852818012238, 0.3559706211090088, 0.3663223683834076, 0.04339585080742836, -0.3350279927253723, -0.22182585299015045, -0.28765466809272766, 0.09327065944671631, -0.010222082026302814, 0.1915937066078186, -0.3586224317550659, 0.41444361209869385, 0.19897696375846863, -0.13685409724712372, -0.10619135946035385, -0.2016342431306839, -0.17477260529994965, 0.016358941793441772, -0.13657402992248535, -0.19196979701519012, -0.014358042739331722, -0.17144088447093964, -0.06294269114732742, -0.23156414926052094, -0.21674005687236786, 0.28119808435440063, -0.08912207186222076, 0.07567324489355087, 0.1828114092350006, -0.2231697291135788, -0.03558804839849472, -0.13384714722633362, -0.14434391260147095, 0.24099229276180267, 0.20967276394367218, 0.2293030172586441, 0.0069424151442945, -0.36706000566482544, 0.07343825697898865, -0.03351765125989914, -0.06987155973911285, 0.11905083060264587, -0.17504192888736725, 0.216963991522789, 0.0672476664185524, 0.13371264934539795, 0.003421585541218519, -0.0365113690495491], [0.042172256857156754, -0.15191344916820526, 0.25909364223480225, 0.11316563934087753, 0.30412667989730835, 0.25755658745765686, 0.14540305733680725, 0.19986802339553833, -0.268692284822464, -0.27183112502098083, -0.2699504792690277, 0.0038085253909230232, -0.08085842430591583, -0.15042369067668915, 0.24182848632335663, -0.10270033776760101, -0.2527884542942047, 0.03679361194372177, -0.18808886408805847, 0.13310745358467102, -0.06995309889316559, 0.382637619972229, 0.09142649173736572, -0.019994225353002548, -0.28211548924446106, 0.11502595990896225, 0.09760099649429321, 0.19286642968654633, 0.23384636640548706, -0.278363972902298, -0.27959945797920227, -0.11571010202169418, 0.07661689072847366, -0.04100165516138077, -0.0548526905477047, -0.19283726811408997, -0.13406263291835785, -0.03177235275506973, 0.1636003702878952, -0.023478969931602478, 0.2749393582344055, 0.041962478309869766, -0.20584534108638763, 0.15174177289009094, 0.08471015095710754, 0.07949400693178177, 0.2925418019294739, 0.013998962938785553], [0.12406429648399353, -0.1062830314040184, -0.4397090673446655, -0.345752090215683, -0.2522542476654053, 0.2207029163837433, -0.055250223726034164, -0.06586338579654694, 0.18785426020622253, -0.1542646437883377, -0.027394974604249, 0.10294758528470993, -0.13687770068645477, -0.2304433137178421, -0.15537714958190918, -0.1624428778886795, 0.15617316961288452, 0.21087104082107544, 0.015987779945135117, 0.21037063002586365, 0.1346055120229721, -0.19725364446640015, 0.2314309924840927, 0.1061462014913559, 0.028867725282907486, 0.17505407333374023, -0.08850018680095673, -0.06369099766016006, -0.10202870517969131, -0.11177793145179749, 0.13019287586212158, 0.29456478357315063, -0.22351938486099243, 0.08654595911502838, -0.062404654920101166, -0.08233673870563507, -0.19128559529781342, -0.12675222754478455, 0.30871644616127014, -0.07638450711965561, -0.14621827006340027, 0.09993845969438553, -0.10522560775279999, 0.2992528975009918, 0.11404462903738022, -0.20252928137779236, -0.09383928775787354, -0.181894451379776], [-0.09797251224517822, -0.2891148328781128, 0.017060626298189163, 0.048376474529504776, -0.3051839768886566, -0.032345250248909, 0.22548839449882507, 0.012346758507192135, -0.2071480005979538, -0.15080218017101288, 0.312612384557724, -0.18660807609558105, -0.03140091896057129, 0.18345321714878082, -0.1361638605594635, 0.12108264863491058, -0.014972515404224396, 0.09959761053323746, 0.10131894052028656, -0.023627106100320816, -0.2726651728153229, 0.10446906089782715, -0.08476971834897995, -0.25808846950531006, -0.2252938151359558, -0.07464983314275742, 0.109702467918396, -0.22582130134105682, 0.05315525457262993, -0.2168128937482834, 0.1792270839214325, -0.2903558313846588, 0.03969721496105194, -0.023273222148418427, 0.1496642529964447, -0.26944202184677124, -0.010540354065597057, -0.2750760018825531, 0.2825685143470764, 0.09991136938333511, -0.10070295631885529, 0.10784275084733963, 0.03787244111299515, 0.11017821729183197, -0.052594903856515884, -0.11089526861906052, -0.1875097006559372, 0.2347736805677414], [0.20590054988861084, 0.05845240131020546, -0.08206084370613098, -0.11219971626996994, 0.15460972487926483, 0.19217753410339355, 0.1646837294101715, 0.18157896399497986, 0.15407909452915192, -0.28750115633010864, -0.17461587488651276, 0.37712085247039795, 0.10350556671619415, -0.29877713322639465, -0.30806225538253784, 0.12494267523288727, -0.39945724606513977, -0.10203129798173904, 0.10473288595676422, 0.1179889589548111, 0.20789675414562225, -0.1710585504770279, 0.09694915264844894, -0.28000837564468384, 0.011414864100515842, 0.1834930032491684, 0.10136055946350098, 0.12004270404577255, -0.025952061638236046, 0.021266145631670952, -0.2694104313850403, -0.11773328483104706, -0.2088809311389923, -0.19847442209720612, 0.2846362590789795, -0.025579387322068214, 0.1220053881406784, 0.05100259557366371, 0.21136316657066345, 0.0035587202291935682, -0.04626411944627762, -0.06946895271539688, -0.15987937152385712, 0.15423020720481873, -0.1331324726343155, -0.22328446805477142, 0.07597353309392929, -0.2211848497390747], [0.24006453156471252, 0.2977924644947052, 0.24077917635440826, 0.018193261697888374, -0.257267028093338, 0.20803727209568024, -0.03153063729405403, 0.3491140902042389, 0.28116631507873535, 0.28480464220046997, -0.14745135605335236, -0.34966033697128296, 0.2082558423280716, -0.15645955502986908, -0.18320530652999878, -0.0017113806679844856, 0.43262800574302673, 0.006002930924296379, 0.01105229277163744, -0.15337170660495758, -0.05967261269688606, 0.2364090383052826, -0.18205474317073822, 0.0673568919301033, 0.26805487275123596, 0.19223351776599884, 0.07652993500232697, 0.05602370202541351, -0.11793847382068634, -0.060650747269392014, 0.3540063798427582, 0.11666310578584671, 0.26673009991645813, 0.2755371928215027, 0.054059550166130066, -0.11576278507709503, 0.20120370388031006, 0.1439560502767563, 0.09823811799287796, 0.26516470313072205, 0.32338497042655945, -0.1204809844493866, -0.10187840461730957, -0.29639220237731934, 0.09732552617788315, -0.37571388483047485, -0.10478293150663376, 0.08939895778894424], [-0.18217310309410095, 0.09878749400377274, -0.16860896348953247, -0.2789164185523987, 0.1806751787662506, -0.1295379400253296, -0.18571323156356812, -0.009423420764505863, 0.24398982524871826, -0.2079530656337738, 0.059604886919260025, -0.140634685754776, -0.29159390926361084, 0.0005887500010430813, 0.08310598134994507, 0.056342024356126785, 0.16054770350456238, 0.2610442638397217, 0.10738414525985718, -0.16652867197990417, 0.3706951439380646, -0.07602949440479279, -0.10253018885850906, -0.18799178302288055, -0.171190083026886, 0.232575923204422, 0.19212763011455536, 0.09076917916536331, -0.017832402139902115, -0.13468219339847565, -0.3474957048892975, -0.08459501713514328, -0.129240021109581, 0.03734438121318817, 0.1545729786157608, -0.15466579794883728, 0.21413075923919678, 0.19912955164909363, 0.004034499172121286, -0.015829455107450485, 0.12618675827980042, -0.12607784569263458, -0.060447271913290024, 0.1541139930486679, -0.22057996690273285, -0.19770845770835876, -0.16090576350688934, -0.23249419033527374], [0.14102627336978912, 0.11994599550962448, 0.15932078659534454, -0.19742390513420105, -0.0450417660176754, -0.06783279031515121, -0.31865254044532776, 0.02573048323392868, 0.011375708505511284, 0.07691291719675064, 0.04326198995113373, -0.2206006795167923, -0.08919547498226166, 0.0999530553817749, -0.07314241677522659, 0.18515510857105255, 0.17756155133247375, -0.20569922029972076, -0.18216454982757568, 0.058892909437417984, -0.19930408895015717, 0.08304643630981445, 0.22128693759441376, -0.029145969077944756, 0.08317723870277405, 0.11403388530015945, -0.01312191877514124, -0.10623262822628021, 0.19126960635185242, -0.04027246683835983, 0.34032535552978516, 0.16758230328559875, -0.34512412548065186, -0.3214366137981415, -0.25540891289711, -0.2983301281929016, -0.3770754039287567, 0.06832894682884216, -0.30076873302459717, -0.04963243007659912, 0.3341112434864044, -0.30407068133354187, 0.20073823630809784, -0.17765480279922485, -0.0959484800696373, 0.1538865715265274, 0.13534322381019592, 0.2764154076576233], [0.10251125693321228, 0.14589494466781616, 0.010079805739223957, -0.14244957268238068, 0.09124048054218292, 0.1360069364309311, 0.15280555188655853, 0.018588615581393242, -0.014820427633821964, 0.20650357007980347, -0.10913743823766708, 0.25854310393333435, 0.20211735367774963, -0.006208360660821199, 0.08434547483921051, 0.16155950725078583, -0.14627259969711304, 0.2835127115249634, 0.061603035777807236, 0.2013799399137497, -0.14128153026103973, 0.1904502958059311, -0.09885331243276596, -0.46282437443733215, 0.33923473954200745, -0.1801486760377884, -0.08776499330997467, 0.16618259251117706, 0.19619792699813843, 0.05034492537379265, 0.22614426910877228, -0.16252028942108154, -0.17420445382595062, -0.10631454735994339, 0.06881777942180634, 0.12501363456249237, 0.07622509449720383, 0.10822870582342148, -0.2766255736351013, 0.09463650733232498, -0.22036270797252655, 0.0030987600330263376, -0.030820418149232864, 0.20813368260860443, 0.021038206294178963, -0.22469614446163177, -0.23261339962482452, 0.13091056048870087], [0.12797389924526215, -0.3010367453098297, -0.370550274848938, 0.30327633023262024, -0.4679661989212036, 0.06838788092136383, 0.09753657132387161, -0.22050736844539642, -0.4391220808029175, 0.3781181871891022, -0.06001010164618492, -0.2438051998615265, 0.2766163647174835, 0.359474778175354, 0.2587431073188782, 0.07660134881734848, -0.02045784518122673, -0.09728143364191055, 0.0799739807844162, -0.02560046873986721, -0.10790097713470459, 0.26379483938217163, -0.20309825241565704, -0.11814200133085251, -0.549964427947998, -0.09954618662595749, -0.29337620735168457, -0.2580834925174713, -0.28126630187034607, -0.038830045610666275, 0.2719608247280121, 0.007543760817497969, 0.24482478201389313, -0.05038920044898987, -0.16709072887897491, 0.1513877958059311, -0.1750601977109909, 0.2824670374393463, -0.3009825646877289, 0.22485847771167755, -0.31888389587402344, 0.25086984038352966, 0.1046229898929596, 0.1451360434293747, -0.14933817088603973, 0.002587226452305913, 0.19090275466442108, 0.04504863917827606], [0.37133532762527466, -0.050126124173402786, 0.04940085485577583, 0.19897949695587158, -0.12324774265289307, 0.09236422926187515, -0.40072891116142273, -0.3050585389137268, 0.48828744888305664, 0.5247465372085571, -0.2458198219537735, 0.0486174114048481, -0.25364580750465393, -0.37216296792030334, 0.2674962878227234, -0.0013215512735769153, 0.3801771402359009, -0.5155308842658997, 0.5795527100563049, 0.6298276782035828, 0.40555253624916077, 0.024855634197592735, -0.22200360894203186, -0.04264114797115326, 0.07974088937044144, -0.5415762066841125, 0.47617974877357483, 0.5153965353965759, 0.3643418252468109, -0.0944986641407013, 0.10871490091085434, -0.34832891821861267, 0.19576814770698547, 0.3892444968223572, -0.575568675994873, -0.48909375071525574, -0.36509349942207336, 0.0725627988576889, 0.208436518907547, -0.29785752296447754, 0.2445155382156372, -0.17294788360595703, 0.5384218096733093, 0.47188398241996765, 0.5660417675971985, -0.0894605740904808, 0.07037676870822906, -0.1744031012058258], [-0.5505334734916687, 0.3259143531322479, 0.14944672584533691, 0.26562097668647766, 0.44203680753707886, 0.12205913662910461, 0.36414650082588196, 0.48082658648490906, 0.16439901292324066, -0.4716847538948059, 0.052805498242378235, -0.1901044398546219, 0.43078890442848206, 0.12512575089931488, -0.4040130078792572, -0.012804778292775154, -0.16632413864135742, -0.041272006928920746, -0.5179719924926758, -0.21976645290851593, -0.3055868446826935, 0.10037444531917572, 0.0916166603565216, 0.313188374042511, 0.03799574449658394, 0.09476393461227417, 0.017799409106373787, -0.3861285448074341, -0.35747984051704407, -0.2695158123970032, 0.17037443816661835, 0.2389594465494156, 0.06882962584495544, -0.33200767636299133, -0.17099322378635406, -0.2575315535068512, -0.0018374179489910603, 0.22478997707366943, 0.16963931918144226, -0.039378635585308075, 0.12864509224891663, -0.16595014929771423, -0.22380371391773224, -0.05462383106350899, -0.3548295497894287, 0.17034488916397095, 0.015074651688337326, 0.3776904344558716], [-0.31422433257102966, 0.5281373858451843, -0.11210614442825317, -0.36916446685791016, 0.0492427796125412, 0.6518275141716003, 0.173740416765213, -0.06206370145082474, -0.0991227924823761, -0.21335847675800323, -0.275719553232193, -0.3351006507873535, -0.12602578103542328, -0.3490487039089203, -0.32482272386550903, -0.056035153567790985, -0.2793167531490326, -0.04861297458410263, 0.0927439033985138, -0.254627525806427, 0.10916568338871002, -0.08112002909183502, -0.25106367468833923, -0.026684124022722244, -0.33594706654548645, -0.08374843746423721, -0.29506585001945496, -0.3681403696537018, -0.3032953143119812, 0.18624310195446014, -0.29652032256126404, 0.0726521834731102, -0.047557055950164795, -0.027752315625548363, -0.3249243199825287, 0.48821085691452026, 0.23381412029266357, -0.19328787922859192, 0.3319823443889618, 0.33646801114082336, -0.3638240694999695, -0.10606635361909866, 0.09635282307863235, -0.05052009969949722, -0.40322640538215637, -0.08541014045476913, -0.20318767428398132, 0.17663238942623138], [0.04158756881952286, -0.014749783091247082, 0.1492021679878235, 0.20035263895988464, -0.4015740156173706, -0.10388344526290894, 0.2827855348587036, 0.2862991690635681, 0.1894858330488205, 0.10808728635311127, -0.3033205568790436, -0.0015186261152848601, 0.15732373297214508, -0.2721296548843384, -0.15947598218917847, -0.18177349865436554, -0.3093939423561096, -0.2258518487215042, -0.28699594736099243, -0.270708829164505, -0.13932734727859497, 0.3375862240791321, 0.11747711896896362, 0.049238502979278564, 0.2289801985025406, -0.22205069661140442, -0.3294452428817749, -0.0840904712677002, 0.02401728369295597, 0.35121721029281616, 0.09696844220161438, -0.3193167746067047, -0.02058033086359501, -0.07924222201108932, -0.034135062247514725, 0.021618809551000595, -0.13263359665870667, 0.5128721594810486, 0.3806057870388031, -0.37805047631263733, -0.2078343629837036, -0.19552643597126007, -0.25150445103645325, -0.20236904919147491, -0.3532845377922058, 0.08156541734933853, -0.24928274750709534, 0.3657096326351166], [-0.009059755131602287, -0.02959648333489895, -0.008201733231544495, 0.35332944989204407, -0.13425873219966888, -0.27888041734695435, 0.45940932631492615, 0.4797441363334656, 0.3031355142593384, -0.26722076535224915, -0.4994881749153137, 0.10041078925132751, 0.3939930498600006, -0.282980740070343, 0.3220275938510895, -0.31541088223457336, 0.44967231154441833, -0.6036343574523926, 0.24752695858478546, 0.2690718472003937, -0.13207079470157623, -0.4229007065296173, -0.3617326021194458, -0.09014542400836945, -0.2744305431842804, -0.3386494219303131, -0.132522851228714, 0.17422178387641907, 0.054867520928382874, -0.6925294995307922, -0.03460351750254631, -0.30849575996398926, -0.5708871483802795, 0.39816558361053467, -0.5004327893257141, 0.0351998545229435, -0.40629374980926514, 0.23873043060302734, 0.2731940448284149, -0.07897236943244934, 0.09121021628379822, -0.39916083216667175, 0.11769288778305054, 0.4395257532596588, 0.5409713983535767, 0.34169963002204895, -0.6788203716278076, 0.15989139676094055]], "b": [0.24531860649585724, -0.039382465183734894, -0.3542642891407013, 0.24574653804302216, 0.1253836452960968, 0.3889527916908264, 0.04887373000383377, 0.33289018273353577, 0.06430424749851227, 0.05313421040773392, -0.13161985576152802, 0.3723180294036865, 0.23504583537578583, 0.11959938704967499, -0.14004439115524292, 0.21748381853103638, 0.05350719764828682, 0.40664389729499817, -0.08562666922807693, 0.013097427785396576, 0.11862072348594666, 0.11641699820756912, 0.2532544732093811, -0.04768528416752815, -0.07581523060798645, 0.4999655783176422, 0.04875616729259491, 0.1337130069732666, 0.2897866368293762, 0.34089818596839905, -0.17922718822956085, 0.41729655861854553, 0.21857322752475739, -0.14782662689685822, -0.10365777462720871, 0.3706529438495636, 0.2579078674316406, 0.21482418477535248, 0.5014721751213074, 0.22270750999450684, -0.11641445010900497, 0.06447818130254745, -0.1675609052181244, 0.26007547974586487, -0.19111932814121246, 0.24867042899131775, 0.2795967161655426, 0.4643928110599518], "act": "relu"}, {"W": [[-0.11619797348976135, 0.09507929533720016, -0.15599466860294342, 0.3179487884044647, -0.29093822836875916, -0.11190889030694962, 0.09014318883419037, -0.22634640336036682, -0.22817343473434448, 0.04934820905327797, 0.11184481531381607, 0.17732134461402893, 0.2569713592529297, -0.01520154532045126, -0.38991546630859375, -0.19603551924228668, -0.17012372612953186, 0.2587236166000366, 0.2436095029115677, -0.06493251025676727, 0.13700683414936066, 0.24744008481502533, -0.17217762768268585, 0.17085586488246918], [-0.030162665992975235, -0.013562973588705063, -0.32098233699798584, 0.0606398768723011, 0.2921215295791626, 0.19094912707805634, 0.22365257143974304, 0.3620695471763611, 0.2674408555030823, -0.10827478021383286, 0.019110916182398796, -0.08382361382246017, 0.017937494441866875, 0.1378558725118637, 0.5343407392501831, 0.32963839173316956, -0.030512316152453423, -0.3307531177997589, 0.15564829111099243, 0.17710982263088226, -0.2162054181098938, 0.18069493770599365, 0.14789022505283356, -0.07112294435501099], [0.11122385412454605, 0.1713479906320572, -0.1554291844367981, 0.14889799058437347, 0.133388489484787, -0.33877694606781006, -0.21085906028747559, -0.174082949757576, -0.145513653755188, 0.10994140058755875, -0.0991806834936142, 0.1447911560535431, 0.35910287499427795, -0.02452278323471546, -0.37528830766677856, -0.1378476917743683, -0.10579196363687515, -0.21548205614089966, 0.2600347399711609, -0.061133746057748795, 0.4043029248714447, -0.21065926551818848, 0.018439367413520813, 0.2212175577878952], [-0.2506865859031677, 0.33605310320854187, -0.37398988008499146, 0.3310707211494446, -0.15013884007930756, -0.03484451770782471, -0.22252212464809418, 0.3043757975101471, 0.0001666370953898877, -0.047139037400484085, -0.24851761758327484, 0.18908093869686127, -0.05291198939085007, 0.2027900069952011, -0.24004946649074554, -0.4140578806400299, -0.12777268886566162, 0.0776064544916153, 0.20520493388175964, -0.2753608226776123, 0.18033356964588165, -0.3056938350200653, -0.16477328538894653, -0.022924823686480522], [-0.0879809632897377, -0.04202581197023392, -0.1906488537788391, -0.2737967073917389, 0.2739190459251404, 0.4257333278656006, 0.04679739475250244, 0.0322815403342247, 0.24305731058120728, 0.058713149279356, -0.17049986124038696, -0.30169183015823364, 0.188937708735466, 0.03068014420568943, 0.06627461314201355, -0.0723828449845314, -0.17889659106731415, 0.045422717928886414, -0.30566591024398804, -0.23860593140125275, 0.11699860543012619, -0.15599128603935242, 0.17621071636676788, -0.18835724890232086], [-0.27685028314590454, -0.43341484665870667, 0.15478678047657013, 0.08257986605167389, 0.3687261939048767, 0.17374227941036224, 0.30054736137390137, 0.09717302024364471, 0.07351171225309372, 0.3901442885398865, -0.3334556221961975, -0.45066890120506287, -0.22170370817184448, -0.3007173240184784, 0.20156921446323395, 0.1678202748298645, 0.0024471262004226446, 0.16505423188209534, 0.02103470452129841, -0.10416344553232193, -0.2634042501449585, 0.023230647668242455, 0.1397615224123001, -0.17922502756118774], [0.04148883745074272, 0.1045600101351738, -0.28885042667388916, -0.024380456656217575, 0.026566263288259506, 0.3509228527545929, 0.23386378586292267, -0.05651198327541351, 0.268171489238739, 0.11400686949491501, 0.22547955811023712, 0.1689293086528778, -0.03373859077692032, -0.3855418860912323, -0.020568035542964935, -0.041809406131505966, 0.27243170142173767, -0.17748890817165375, -0.14910878241062164, 0.152073934674263, 0.2256515622138977, -0.028118586167693138, -0.3563813865184784, -0.15337172150611877], [-0.2577740550041199, 0.40457892417907715, -0.5506102442741394, 0.011722704395651817, -0.038103725761175156, 0.1286463588476181, 0.161607563495636, 0.3088608384132385, -0.09616080671548843, -0.12711018323898315, -0.23118138313293457, 0.20577159523963928, 0.250369668006897, 0.07395044714212418, 0.20183256268501282, 0.10280229151248932, 0.0008509503095410764, 0.20625905692577362, -0.05512089654803276, -0.08604622632265091, -0.019498901441693306, -0.2118360698223114, -0.3981533944606781, 0.10596126317977905], [-0.2100052535533905, 0.3916107714176178, -0.3187803626060486, 0.08184818923473358, -0.1584148406982422, -0.08614882081747055, 0.07312417775392532, -0.19042877852916718, -0.01892935298383236, -0.1990823596715927, 0.07330438494682312, 0.35421261191368103, 0.30882054567337036, -0.15867692232131958, -0.4077993333339691, -0.2236177921295166, 0.08002830296754837, -0.0975765660405159, 0.20029079914093018, 0.038809314370155334, 0.0818350687623024, -0.1690092384815216, -0.31875017285346985, -0.14931419491767883], [0.12110637128353119, -0.09209861606359482, 0.16164451837539673, 0.1414336860179901, -0.2646404504776001, 0.1353248506784439, 0.06921660155057907, 0.024960074573755264, -0.2206725776195526, -0.031063683331012726, -0.0012000456918030977, -0.11497161537408829, 0.40369734168052673, -0.23754382133483887, -0.01964154839515686, -0.17073768377304077, -0.18107904493808746, 0.07051737606525421, 0.4731982946395874, 0.10754837095737457, 0.37307363748550415, 0.06905937194824219, 0.07889200001955032, 0.3773380517959595], [-0.16932286322116852, 0.1015109270811081, 0.12543527781963348, 0.392781138420105, 0.43330562114715576, -0.1615322083234787, 0.1323220431804657, 0.37359896302223206, -0.23959945142269135, 0.11788740009069443, 0.26082608103752136, -0.17955951392650604, 0.12145134806632996, -0.15172113478183746, 0.03870981186628342, 0.19524888694286346, 0.48896652460098267, -0.12418823689222336, 0.3562597632408142, 0.14720329642295837, -0.09919411689043045, 0.35256826877593994, -0.006189099978655577, 0.14512589573860168], [-0.18680569529533386, 0.14593017101287842, -0.21003654599189758, 0.3084319531917572, -0.1377526819705963, 0.06284045428037643, -0.3642725646495819, -0.0754803717136383, -0.06083815544843674, 0.05863291397690773, -0.1739066243171692, 0.22138404846191406, 0.41650378704071045, 0.02382962964475155, -0.3584289252758026, -0.4291630983352661, 0.24515002965927124, -0.15196873247623444, 0.4692269563674927, -0.034870073199272156, 0.43034714460372925, 0.15911619365215302, 0.2827652096748352, 0.0500967800617218], [0.12191340327262878, 0.06797641515731812, -0.2801956534385681, 0.0911644920706749, 0.34745514392852783, 0.35149770975112915, 0.2195281684398651, 0.07255880534648895, -0.010753998532891273, 0.16971895098686218, -0.17649149894714355, -0.22544535994529724, -0.17540928721427917, -0.10801994055509567, -0.08125480264425278, -0.29602688550949097, -0.03194824978709221, -0.36017704010009766, 0.3698701858520508, -0.06236603483557701, -0.11402422189712524, 0.19180099666118622, -0.254971444606781, 0.24150091409683228], [0.15766720473766327, -0.3017142117023468, 0.14950275421142578, 0.24164365231990814, 0.4421203136444092, 0.17020995914936066, 0.21905022859573364, 0.08084601908922195, 0.3496745824813843, -0.03911777585744858, 0.33725929260253906, 0.0941300317645073, -0.07242745906114578, -0.026478156447410583, -0.03958025202155113, -0.21860532462596893, 0.034002337604761124, -0.30442437529563904, 0.16516567766666412, -0.07473697513341904, -0.4126933813095093, 0.39697426557540894, 0.35220199823379517, 0.34917736053466797], [0.27805402874946594, -0.38907548785209656, -0.20175804197788239, 0.2933529317378998, -0.13503317534923553, -0.4156149625778198, 0.03193816915154457, -0.3411025404930115, -0.24794650077819824, -0.13572432100772858, 0.02008391171693802, 0.14283037185668945, 0.0012745476560667157, 0.18434153497219086, -0.17976009845733643, -0.23441064357757568, -0.012010796926915646, 0.4052271544933319, 0.4855349063873291, 8.253227861132473e-06, 0.3516405522823334, -0.11333160102367401, -0.35596930980682373, 0.10078209638595581], [-0.09713416546583176, -0.013839008286595345, 0.26835885643959045, 0.058593712747097015, -0.11951222270727158, -0.03813715651631355, 0.2154453843832016, -0.03064274974167347, 0.24548843502998352, 0.05829102173447609, 0.012200317345559597, 0.08232807368040085, 0.1983015239238739, -0.13033010065555573, 0.2911681532859802, 0.022273560985922813, -0.007873887196183205, 0.13482029736042023, 0.22224216163158417, 0.06812941282987595, 0.17623867094516754, 0.2483447790145874, 0.2360205352306366, 0.18548958003520966], [0.14418278634548187, 0.31790706515312195, -0.008131221868097782, 0.34650954604148865, -0.3798955976963043, 0.2107052356004715, 0.0766400471329689, -0.4523223042488098, 0.08346747606992722, -0.345955491065979, -0.13587112724781036, 0.2861005663871765, 0.033955372869968414, 0.15262292325496674, 0.02433864213526249, 0.05328967049717903, -0.3865383267402649, 0.03899000212550163, 0.3927295207977295, 0.24788518249988556, 0.29941269755363464, -0.29073455929756165, -0.04930746927857399, 0.22701731324195862], [0.13677191734313965, -0.5187808871269226, 0.4336046278476715, -0.11089607328176498, 0.5490900278091431, 0.2991572618484497, 0.33723220229148865, 0.5845510363578796, 0.04522959515452385, 0.5115306377410889, 0.06731562316417694, -0.3571990132331848, -0.3099130094051361, 0.07436525821685791, 0.1482129991054535, 0.3162081837654114, 0.24829305708408356, -0.10364231467247009, -0.43600335717201233, 0.1736416220664978, -0.01781608909368515, 0.6648114919662476, 0.39592525362968445, -0.25058048963546753], [0.13876935839653015, -0.4581295847892761, -0.44552484154701233, -0.013194296509027481, -0.2609897553920746, -0.0396493598818779, -0.024112915620207787, -0.26785808801651, -0.18822526931762695, 0.09097395092248917, -0.01738913170993328, -0.0015674042515456676, 0.054957784712314606, 0.15914587676525116, 0.19816869497299194, -0.31745848059654236, -0.4742295742034912, 0.3563902974128723, 0.23297733068466187, -0.17547369003295898, 0.4882830083370209, -0.378690242767334, -0.21393199265003204, 0.38832706212997437], [-0.07494352757930756, 0.25524455308914185, -0.1646350622177124, 0.012293921783566475, 0.0972972884774208, -0.2678369879722595, 0.08461344242095947, -0.3392508924007416, -0.26292896270751953, -0.4599832594394684, 0.0878245010972023, 0.02799912728369236, 0.4314219057559967, -0.03997277095913887, 0.30577632784843445, -0.2711942195892334, 0.03475825861096382, 0.3361107110977173, 0.3482257127761841, 0.14576606452465057, 0.378081738948822, -0.0764879360795021, -0.3487235903739929, -0.10547161847352982], [0.21473965048789978, 0.06811755150556564, 0.183351531624794, 0.23515717685222626, -0.3582700788974762, -0.31858569383621216, -0.07151316851377487, -0.1653902679681778, -0.2951991856098175, -0.1428142786026001, -0.32463523745536804, 0.21472309529781342, 0.09194831550121307, 0.12494806945323944, -0.43508267402648926, -0.1633836030960083, -0.3004350960254669, -0.14445839822292328, 0.3293082118034363, -0.02864869497716427, 0.2752297818660736, -0.048017196357250214, 0.12698543071746826, 0.4460879862308502], [0.11933700740337372, -0.07323360443115234, 0.07956916838884354, -0.07822580635547638, 0.02167980559170246, 0.4134249687194824, -0.1087879091501236, 0.15243098139762878, 0.10868363827466965, 0.1917792409658432, 0.02002350240945816, -0.25202006101608276, -0.05834747850894928, -0.03076627478003502, -0.24234524369239807, -0.19793888926506042, -0.02337855100631714, -0.31686750054359436, 0.10198082029819489, -0.20958440005779266, 0.07316303253173828, 0.2009490430355072, 0.3332887291908264, -0.15829798579216003], [-0.22480811178684235, 0.01825626939535141, 0.2394559383392334, 0.26180142164230347, -0.11023767292499542, 0.35960403084754944, -0.2352297306060791, 0.21742700040340424, 0.11053575575351715, 0.27963313460350037, 0.08629535138607025, 0.30462729930877686, -0.0021790973842144012, 0.13383115828037262, -0.2838311791419983, 0.18338292837142944, 0.21527253091335297, 0.10023657977581024, 0.18386317789554596, 0.030874352902173996, 0.008950768038630486, 0.2880963385105133, 0.004008317831903696, -0.1597241461277008], [-0.17491759359836578, -0.17951148748397827, 0.17069165408611298, -0.19475868344306946, 0.42817240953445435, 0.08867903053760529, -0.018017983064055443, 0.3499116599559784, 0.21719132363796234, 0.049098528921604156, 0.00572715699672699, 0.07235179841518402, -0.16075555980205536, 0.24845784902572632, 0.3328038454055786, 0.1034986600279808, -0.12245972454547882, 0.12940548360347748, -0.21472223103046417, -0.3029928505420685, -0.15688633918762207, 0.10311762243509293, 0.18304027616977692, 0.26730406284332275], [0.1198473870754242, 0.21064934134483337, 0.07684535533189774, 0.0682918056845665, 0.3532809615135193, -0.17849403619766235, 0.16687704622745514, 0.10090839117765427, -0.128116637468338, 0.08484359830617905, -0.20584924519062042, 0.3307231366634369, 0.3103873133659363, -0.0938960462808609, -0.24728438258171082, -0.061294641345739365, 0.32119643688201904, -0.16332490742206573, 0.230989471077919, 0.057209841907024384, 0.21191617846488953, -0.22556382417678833, 0.1850682497024536, 0.3656916618347168], [-0.1769952028989792, -0.15732567012310028, 0.38774415850639343, -0.2927931845188141, 0.3631361722946167, 0.20492911338806152, 0.0002486263692844659, 0.4758387506008148, 0.15729238092899323, 0.29404139518737793, -0.10605498403310776, -0.055393531918525696, -0.14523223042488098, -0.12247991561889648, 0.5650935769081116, -0.014638437889516354, 0.30332088470458984, -0.22441935539245605, 0.08124863356351852, -0.2308216691017151, 0.17567910254001617, 0.37528350949287415, -0.08693963289260864, -0.34906572103500366], [-0.2032802402973175, -0.053912147879600525, -0.018622705712914467, 0.3014724552631378, -0.09086240082979202, -0.17120203375816345, -0.025331491604447365, 0.059759411960840225, -0.24102900922298431, -0.23768407106399536, -0.29048222303390503, 0.23701107501983643, 0.2572866380214691, -0.06781543791294098, 0.16906028985977173, 0.16836605966091156, 0.09671352803707123, 0.2188510298728943, 0.05265936627984047, -0.2718794047832489, 0.029194911941885948, -0.15369737148284912, 0.12422597408294678, 0.38394132256507874], [-0.2814851999282837, -0.41780099272727966, -0.021608036011457443, 0.3726883828639984, -0.23111273348331451, -0.08659575134515762, -0.39347001910209656, -0.3228950500488281, 0.20603196322917938, 0.16272152960300446, -0.35290753841400146, 0.35814782977104187, 0.27159300446510315, 0.16468267142772675, -0.23373296856880188, -0.026142342016100883, -0.0820690244436264, 0.13913999497890472, 0.04374691843986511, -0.2538634240627289, 0.11350264400243759, 0.06983501464128494, -0.18408486247062683, 0.24750404059886932], [0.25681042671203613, -0.15549729764461517, 0.12861470878124237, 0.07490218430757523, 0.11550188064575195, -0.28049105405807495, 0.011355224065482616, 0.11319708079099655, 0.19322365522384644, 0.027059832587838173, 0.032048679888248444, 0.1664109230041504, 0.3838183879852295, -0.006792357191443443, -0.3211669325828552, 0.204494446516037, 0.03755303844809532, 0.13135376572608948, 0.06269132345914841, 0.04210403561592102, 0.1526377648115158, 0.02378116361796856, -0.207587331533432, 0.21013551950454712], [0.24488818645477295, -0.5400327444076538, 0.5783334374427795, -0.011895154602825642, 0.409638911485672, 0.3634781241416931, 0.12414242327213287, 0.3884950280189514, 0.250279039144516, 0.036466993391513824, -0.16181392967700958, 0.09722143411636353, 0.20532923936843872, 0.10784862190485, 0.2787120044231415, -0.1092783734202385, 0.3763543665409088, -0.3464775085449219, 0.04286274313926697, -0.3236660063266754, -0.04945645108819008, 0.05431118234992027, 0.19014374911785126, 0.23789085447788239], [-0.06691380590200424, 0.4086708724498749, -0.0801747739315033, 0.23289233446121216, -0.2122063934803009, -0.3950217366218567, -0.09701650589704514, -0.022320428863167763, -0.15365976095199585, -0.17111191153526306, -0.04793239012360573, 0.48225340247154236, 0.1171884685754776, -0.05963938310742378, -0.6711778044700623, -0.23250770568847656, 0.03895030543208122, -0.024603189900517464, 0.3889515697956085, 0.005415943916887045, 0.24684183299541473, 0.12143158912658691, 0.17137068510055542, 0.38455134630203247], [0.22730211913585663, -0.4951285123825073, -0.014427977614104748, -0.3368275463581085, 0.27007508277893066, 0.5422775745391846, -0.0439879409968853, 0.5008809566497803, -0.14520861208438873, 0.3381788730621338, -0.12320239096879959, -0.29051128029823303, -0.0899958610534668, -0.16902893781661987, 0.11084318906068802, -0.04753003269433975, 0.31486421823501587, -0.07518346607685089, -0.17246182262897491, 0.04338465631008148, 0.01606941781938076, 0.08470271527767181, -0.00017658353317528963, -0.183227077126503], [-0.208490788936615, -0.051262084394693375, 0.010930520482361317, 0.1584562510251999, 0.19157451391220093, -0.07764215022325516, 0.002525792922824621, -0.01053501944988966, 0.22048567235469818, 0.01719416119158268, 0.16649127006530762, 0.0929388701915741, -0.1636892706155777, 0.0434887520968914, 0.11623746901750565, -0.1659863293170929, 0.34635376930236816, 0.20437119901180267, 0.0739622563123703, -0.13073588907718658, 0.18238051235675812, 0.08393751829862595, 0.30299288034439087, 0.36867526173591614], [-0.05469059944152832, -0.038094066083431244, 0.1447453498840332, 0.0700719952583313, 0.0981387346982956, -0.07418928295373917, 0.01905083656311035, -0.30822956562042236, 0.003987863194197416, -0.141018345952034, 0.02027813345193863, -0.054619498550891876, 0.39313578605651855, 0.18464821577072144, -0.28977856040000916, -0.27396833896636963, -0.3139231503009796, 0.19661091268062592, 0.3023636043071747, 0.008340606465935707, 0.06760561466217041, -0.2376982420682907, 0.011039518751204014, 0.27008581161499023], [0.23494799435138702, -0.2161545306444168, 0.4624788165092468, 0.005440435837954283, 0.24701353907585144, 0.2802037000656128, 0.20285090804100037, 0.5397157073020935, -0.13987165689468384, -0.01089120376855135, 0.12999828159809113, 0.1251087486743927, -0.27908721566200256, -0.28460755944252014, -0.2055906504392624, 0.1955724060535431, 0.13488489389419556, -0.29943010210990906, -0.12266374379396439, -0.12459450215101242, -0.40825632214546204, 0.2535097897052765, 0.08607377856969833, 0.151902437210083], [-0.20184855163097382, -0.03526528552174568, 0.10730589181184769, -0.013862106949090958, 0.15171679854393005, 0.05071915313601494, 0.024281011894345284, 0.26690253615379333, 0.41140878200531006, 0.32228782773017883, -0.0014935956569388509, 0.02557619847357273, -0.10659196227788925, -0.22628335654735565, 0.26082727313041687, 0.4141528308391571, -0.007652829401195049, 0.04242916777729988, -0.2941274642944336, 0.002001713728532195, -0.27017542719841003, 0.17348332703113556, 0.12336277961730957, -0.15719342231750488], [0.07266315072774887, -0.033223457634449005, 0.5322701334953308, -0.29326772689819336, 0.14073194563388824, 0.1120467260479927, 0.4752545952796936, 0.5110335350036621, 0.225027397274971, 0.41093581914901733, -0.029655542224645615, -0.08185829967260361, -0.28722646832466125, 0.11120901256799698, 0.191474050283432, 0.3334490954875946, 0.3411719501018524, -0.029525987803936005, -0.48453059792518616, -0.1281767189502716, -0.31072309613227844, 0.11920671164989471, -0.06649696826934814, 0.11903863400220871], [-0.024149594828486443, 0.2963833510875702, -0.17565365135669708, 0.2095993608236313, 0.1811990588903427, 0.03905392065644264, 0.24618542194366455, 0.06903423368930817, 0.21097946166992188, 0.12853623926639557, -0.18381772935390472, 0.4214228391647339, -0.0881292074918747, 0.14187155663967133, -0.10401555895805359, 0.0755186527967453, 0.3988640010356903, 0.1090955138206482, 0.4455646574497223, -0.128033846616745, -0.07720474153757095, -0.08681509643793106, -0.19348175823688507, 0.27549606561660767], [-0.1258695125579834, 0.4209129214286804, 0.08413636684417725, 0.18804854154586792, -0.021436190232634544, 0.3828355669975281, 0.3865768015384674, 0.16460326313972473, 0.19183197617530823, 0.2934582233428955, -0.20468734204769135, 0.015425684861838818, 0.11712688207626343, -0.2567765712738037, 0.02863059937953949, -0.10645531862974167, -0.09231480211019516, -0.2388947457075119, 0.2998141348361969, -0.02123871073126793, 0.3176526427268982, -0.013929836452007294, -0.05821717903017998, 0.021258791908621788], [-0.029485272243618965, -0.4312067925930023, 0.08676906675100327, -0.2991105616092682, 0.16986674070358276, 0.24085387587547302, -0.08356800675392151, -0.011115806177258492, 0.30556613206863403, 0.2631394565105438, -0.2628648281097412, 0.14811073243618011, -0.5075459480285645, 0.16261565685272217, 0.6051996946334839, 0.07096356898546219, -0.06848856806755066, -0.29654327034950256, -0.28103107213974, -0.23455791175365448, 0.005377413704991341, -0.06396035104990005, -0.020427731797099113, 0.23273807764053345], [0.17820210754871368, 0.20152625441551208, -0.054859552532434464, 0.16815046966075897, -0.014227605424821377, 0.10432853549718857, -0.3218230903148651, 0.17452965676784515, -0.0849786102771759, -0.1792665719985962, -0.07980909943580627, 0.03812214359641075, 0.35636618733406067, 0.08583240211009979, 0.15815585851669312, -0.24709543585777283, -0.010459610261023045, -0.019709380343556404, -0.031420860439538956, -0.14782604575157166, 0.3043394386768341, -0.17299793660640717, 0.029610419645905495, -0.0538027286529541], [-0.3055330514907837, -0.242684468626976, 0.3927459120750427, 0.21037206053733826, 0.3046417236328125, 0.05257521569728851, -0.2435758411884308, 0.14945733547210693, 0.018354663625359535, 0.19509123265743256, -0.22360731661319733, 0.0008436062489636242, -0.11460200697183609, -0.1389351189136505, 0.22025072574615479, -0.11509346961975098, 0.02268066070973873, -0.049838125705718994, 0.006268911529332399, 0.11869265139102936, 0.26203611493110657, 0.3282204568386078, 0.2204948216676712, -0.05995522812008858], [0.10233079642057419, -0.1518719494342804, -0.17461498081684113, 0.2200106382369995, -0.37374433875083923, 0.09653385728597641, -0.09684640914201736, -0.0950503796339035, 0.04559394344687462, 0.1316062957048416, 0.10510962456464767, 0.0636431947350502, -0.11710560321807861, -0.00565304746851325, -0.02379596047103405, 0.12097232788801193, -0.08328304439783096, 0.22792774438858032, -0.22076453268527985, -0.2838629186153412, 0.27922728657722473, -0.40800344944000244, -0.3701733648777008, -0.2183035910129547], [0.24733351171016693, 0.3713301122188568, -0.19500216841697693, 0.01796957477927208, -0.12056849151849747, 0.10042337328195572, 0.042808592319488525, -0.2220768928527832, -0.21092207729816437, -0.400766521692276, 0.12287193536758423, 0.25086960196495056, 0.08957632631063461, -0.3209144175052643, -0.28357574343681335, 0.056366752833127975, -0.2683549225330353, 0.27536875009536743, 0.2707621157169342, -0.12186946719884872, -0.05651894584298134, -0.4253751337528229, -0.05336413159966469, 0.11398795992136002], [0.11077267676591873, -0.016998589038848877, -0.41503801941871643, 0.4459573030471802, -0.06693761050701141, -0.299663782119751, 0.11716975271701813, -0.2253326028585434, 0.014736725017428398, -0.11054423451423645, 0.16406796872615814, 0.20129117369651794, 0.12818215787410736, -0.12464059889316559, 0.13040904700756073, -0.26398393511772156, -0.3378532826900482, 0.2377062290906906, 0.2444407194852829, 0.027937527745962143, 0.5405383706092834, -0.41383472084999084, -0.3818189203739166, 0.06047000735998154], [0.2436254918575287, 0.17887462675571442, -0.24223919212818146, 0.17339839041233063, 0.3117736279964447, 0.27348417043685913, 0.30862289667129517, -0.03282377868890762, 0.21164894104003906, -0.011900562793016434, 0.1709551066160202, 0.11531420052051544, 0.27375635504722595, 0.05667174234986305, -0.14909778535366058, -0.0865846648812294, 0.381144255399704, 0.2742610275745392, -0.16549883782863617, -0.20668762922286987, -0.2329413890838623, 0.1634925752878189, 0.06906456500291824, -0.1954243928194046], [-0.033030711114406586, 0.18812714517116547, 0.34202709794044495, 0.16450810432434082, 0.23643560707569122, 0.22007587552070618, -0.11369255930185318, 0.31468626856803894, 0.12438024580478668, 0.2706668972969055, -0.02337123081088066, 0.2627192437648773, -0.1638754904270172, -0.06695017218589783, -0.35039639472961426, -0.25062960386276245, 0.3784501850605011, 0.17145535349845886, -0.06833123415708542, -0.03271614760160446, 0.22597643733024597, 0.11880163103342056, 0.2387607842683792, 0.24460579454898834], [0.04971901699900627, 0.020516008138656616, -0.28594550490379333, 0.16762453317642212, 0.1565466970205307, -0.18824732303619385, 0.22641746699810028, -0.14278644323349, 0.20446068048477173, -0.029964597895741463, 0.2663450241088867, -0.08133934438228607, -0.08886465430259705, -0.18234916031360626, -0.009251173585653305, 0.22485896944999695, 0.5468397736549377, -0.1564868986606598, -0.002874616999179125, 0.10580895841121674, 0.23336637020111084, 0.07787735760211945, -0.14925827085971832, -0.08134382963180542]], "b": [0.09066581726074219, -0.11883983761072159, 0.11140558123588562, -0.06971047073602676, 0.31195902824401855, -0.07712844014167786, 0.1686270534992218, 0.1642731875181198, 0.20592983067035675, -0.19149796664714813, 0.0183018259704113, 0.01360359974205494, 0.17109937965869904, 0.019954176619648933, 0.2644158601760864, 0.2109290361404419, 0.06858708709478378, 0.14295454323291779, 0.03894910216331482, -0.2839834690093994, -0.19731146097183228, 0.043440837413072586, 0.1871258169412613, 0.08833082765340805], "act": "relu"}, {"W": [[0.24637876451015472, 0.11111098527908325, -0.06274159252643585], [-0.808777928352356, -0.4098084270954132, 0.42681559920310974], [-0.6523969769477844, -0.6587610840797424, 0.5695543885231018], [-0.06205501779913902, 0.5699563026428223, 0.4722781777381897], [0.26838138699531555, -0.3434295058250427, 0.24875332415103912], [0.3903435468673706, -0.6807986497879028, 0.059540193527936935], [0.3976512849330902, -0.2750740647315979, 0.158460795879364], [0.2806757390499115, -0.69996178150177, 0.08558081090450287], [-0.046609923243522644, -0.5785964131355286, -0.3716641962528229], [0.35558411478996277, -0.5461551547050476, 0.10448712110519409], [-0.2142561376094818, 0.5574386715888977, -0.32341495156288147], [-0.34147024154663086, 0.43011513352394104, 0.3882313072681427], [-0.5483207106590271, 0.46831706166267395, -0.03290875628590584], [-0.04910556599497795, -0.290581077337265, -0.3822506070137024], [0.6062900424003601, -0.22673803567886353, -0.34624719619750977], [0.5139234662055969, 0.17334777116775513, -0.5717735290527344], [0.08064250648021698, -0.720221757888794, 0.5194751620292664], [0.08331521600484848, 0.6204882264137268, -0.47544366121292114], [-0.8516291379928589, -0.03312218561768532, -0.16710203886032104], [-0.25659921765327454, 0.35326263308525085, -0.2057434767484665], [-0.4535156190395355, 0.39122793078422546, -0.06276986747980118], [0.3614785075187683, -0.8464754819869995, 0.2148505598306656], [-0.5602648854255676, -0.6519410014152527, 0.6460518836975098], [-0.5875573754310608, 0.12988346815109253, -0.03398151695728302]], "b": [-0.07460196316242218, 0.2922559082508087, -0.38563239574432373], "act": "softmax"}], "classes": ["negative", "neutral", "positive"], "metrics": {"accuracy": 0.9324577861163227, "macroF1": 0.9321862567299991, "fullRefAccuracy": 0.9849906191369606, "trainSamples": 1599, "testSamples": 533, "synthetic": false, "dataset": "birdy654/eeg-brainwave-dataset-feeling-emotions", "hardware": "Muse (TP9/AF7/AF8/TP10)", "note": "real Muse EEG valence; compact band-power feature contract"}}