{"type": "mlp", "task": "classification", "featureOrder": ["delta", "theta", "alpha", "sigma", "beta", "gamma", "engagement", "relaxation", "thetaBeta", "faa"], "scaler": {"mean": [0.18034085605736436, 0.1845164467521363, 0.21005613892596556, 0.08015717216503163, 0.24511252917891396, 0.09981685699124682, 0.8394354153333461, 1.8946241201561134, 2.3757403165499817, -0.0195777247772598], "scale": [0.08409378289434093, 0.09998895726622989, 0.12094999361715421, 0.030908132905408753, 0.12801277783555237, 0.06124526016253159, 0.6885537301368255, 9.763835740113343, 17.37351879735492, 0.12233607650809095]}, "layers": [{"W": [[-0.11228436976671219, 0.20840300619602203, 0.37130317091941833, 0.2190600037574768, -0.36611077189445496, -0.37680917978286743, -0.3101576864719391, 0.3388228416442871, 0.30895158648490906, 0.024356506764888763, -0.3375445008277893, 0.2891828119754791, 0.08598436415195465, -0.4137353301048279, -0.3852936923503876, -0.21959687769412994, -0.3541709780693054, -0.21558372676372528, 0.1213204488158226, -0.2827982008457184], [0.20429809391498566, -0.4096401035785675, -0.021722231060266495, -0.00622055446729064, -0.20780302584171295, 0.09779030084609985, -0.1750081330537796, 0.020557772368192673, 0.2900306284427643, -0.5363000631332397, 0.1172732263803482, -0.4028180241584778, -0.5392152070999146, 0.20588047802448273, 0.42115122079849243, 0.3646792769432068, -0.4043354392051697, -0.6213359236717224, 0.3330455422401428, -0.16023990511894226], [-0.5627961754798889, -0.1629183143377304, -0.6047403812408447, 0.44594499468803406, -0.14236155152320862, 0.35367798805236816, -0.08911032974720001, 0.09411130845546722, -0.13519376516342163, -0.30384695529937744, 0.720095694065094, 0.4836280643939972, 0.5727354884147644, 0.1263660490512848, -0.10953827202320099, 0.5563379526138306, -0.5678752660751343, -0.1794055998325348, -0.5898586511611938, -0.26415935158729553], [-0.2559792399406433, -0.31544846296310425, 0.2639242708683014, -0.20207950472831726, -0.09664929658174515, 0.10600597411394119, -0.2508861720561981, 0.3156883120536804, -0.3946628272533417, 0.5085446238517761, 0.13736820220947266, -0.12381685525178909, -0.24734364449977875, 0.3974810242652893, 0.06536418944597244, 0.14866405725479126, 0.1589973121881485, -0.14873582124710083, -0.20837637782096863, -0.20164842903614044], [0.4069425165653229, 0.2468726485967636, -0.27346765995025635, -0.5712072849273682, -0.18427683413028717, -0.2622750401496887, 0.11572352796792984, 0.09079699963331223, 0.11155632138252258, 0.08461258560419083, -0.5272492170333862, -0.059876449406147, 0.0712379515171051, 0.2720397710800171, 0.3808683156967163, -0.24510478973388672, 0.22290785610675812, 0.05818263441324234, -0.5940392017364502, -0.23860937356948853], [-0.23820120096206665, 0.32058185338974, -0.30285754799842834, -0.18482796847820282, 0.38379213213920593, -0.29577556252479553, -0.1640169620513916, 0.15663105249404907, -0.49929964542388916, -0.24225687980651855, -0.38668525218963623, -0.5656799674034119, 0.1803225725889206, 0.47181063890457153, 0.2876405417919159, 0.13951699435710907, 0.4798944592475891, -0.18980726599693298, 0.18511448800563812, 0.10289411246776581], [0.3219863474369049, 0.41336050629615784, -0.28432828187942505, -0.557830274105072, -0.28914156556129456, -0.22684866189956665, 0.20173516869544983, 0.2787046730518341, -0.6794081926345825, 0.09616865962743759, -0.297893762588501, -0.5080010890960693, -0.5207622647285461, 0.046953268349170685, 0.5003846287727356, -0.4395722448825836, 0.1788121461868286, 0.2610921561717987, -0.27635231614112854, 0.5230076313018799], [0.3543158173561096, -0.39628246426582336, -0.055617332458496094, -0.07640036195516586, -0.25640901923179626, -0.2954353392124176, 0.16038201749324799, 0.07136906683444977, -0.47435468435287476, -0.30685940384864807, 0.4393133223056793, 0.0020598394330590963, -0.17275822162628174, -0.2424631267786026, 0.3238999843597412, -0.12213226407766342, -0.02142481692135334, 0.24442385137081146, -0.19739983975887299, 0.20240525901317596], [-0.1998891979455948, -0.05560607463121414, 0.09892567992210388, 0.093288354575634, -0.5337005853652954, 0.10851937532424927, -0.07287116348743439, -0.2564789354801178, -0.21225911378860474, -0.054019901901483536, 0.10805118829011917, -0.5932821035385132, -0.18732492625713348, -0.46489331126213074, -0.006090713664889336, -0.27440130710601807, -0.07793457806110382, -0.26464903354644775, 0.5469028353691101, -0.39871859550476074], [-0.42564845085144043, -0.5484711527824402, 0.5446036458015442, 0.2570148706436157, -0.16340042650699615, 0.17839409410953522, 0.219777911901474, 0.27077385783195496, -0.05383574962615967, 0.04640449583530426, -0.18821366131305695, 0.3455730974674225, 0.4264185130596161, 0.0560162328183651, -0.3499188721179962, -0.020627461373806, 0.06726416200399399, 0.6517305970191956, 0.23540906608104706, 0.5286956429481506]], "b": [0.31340491771698, -0.20040886104106903, -0.06330091506242752, 0.5713145136833191, 0.2831963002681732, -0.2758760452270508, -0.4425729513168335, 0.13056164979934692, -0.202731654047966, -0.17059995234012604, 0.31936177611351013, 0.3766597807407379, 0.32961782813072205, -0.01706627756357193, 0.3567657470703125, -0.1774747371673584, 0.10342571884393692, 0.46383771300315857, 0.3005329966545105, 0.44354888796806335], "act": "relu"}, {"W": [[0.34700360894203186, 0.10173892974853516, -0.12310715764760971, -0.2306947112083435, -0.21522711217403412, -0.0762888565659523, 0.6216057538986206, 0.10474063456058502, 0.5015678405761719, -0.04457872733473778, 0.18533830344676971, -0.09823378175497055], [0.291537344455719, -0.034889087080955505, -0.03529461845755577, 0.0058256033807992935, -0.338741272687912, -0.3745523989200592, 0.4180137813091278, -0.05976463481783867, 0.5847833156585693, 0.21274898946285248, 0.30768415331840515, -0.2129090577363968], [-0.4725385308265686, 0.5117919445037842, -0.014609219506382942, 0.4060822129249573, 0.5560474991798401, 0.5782364010810852, 0.092726930975914, 0.09263166785240173, 0.5490589141845703, -0.005354990251362324, -0.3856990337371826, 0.22698301076889038], [0.5585447549819946, 0.3547094166278839, 0.0943664088845253, -0.18004253506660461, -0.07862386107444763, 0.4348162114620209, -0.18512961268424988, -0.08673849701881409, 0.32277733087539673, 0.3416542112827301, 0.07318462431430817, 0.37354230880737305], [0.093186154961586, -0.22505387663841248, 0.4426637291908264, 0.246587336063385, 0.22576984763145447, 0.06787270307540894, 0.2785694897174835, 0.16165603697299957, 0.41532519459724426, 0.003283457364886999, 0.12270565330982208, 0.17448246479034424], [0.6011175513267517, -0.10063520073890686, -0.10349708050489426, -0.10413631051778793, -0.10618337988853455, -0.5218603014945984, -0.14383511245250702, -0.15889708697795868, -0.3027764558792114, 0.2512669265270233, -0.4573056399822235, -0.14328357577323914], [0.1751139760017395, -0.15963207185268402, -0.18008390069007874, 0.08989623188972473, 0.42959389090538025, -0.27919384837150574, 0.1852794736623764, -0.24044717848300934, -0.30377253890037537, 0.17271828651428223, 0.005640431307256222, 0.05251358821988106], [0.048234615474939346, 0.36251330375671387, 0.18377983570098877, 0.05232188105583191, 0.4764817953109741, -0.14367733895778656, 0.00523572601377964, -0.22554147243499756, -0.3046308755874634, 0.6220093965530396, 0.25921112298965454, 0.11328021436929703], [-0.056609127670526505, -0.05771373584866524, -0.4654982089996338, -0.14997781813144684, -0.17985351383686066, 0.46985507011413574, 0.3554185926914215, -0.2779327929019928, 0.5821942687034607, 0.02359619364142418, -0.07451766729354858, 0.3189027011394501], [-0.028544969856739044, -0.2930660545825958, 0.09193845838308334, 0.4043942987918854, -0.18392740190029144, -0.4043256640434265, -0.20739342272281647, -0.1900171935558319, 0.43677613139152527, 0.35651078820228577, -0.07473444193601608, -0.41112953424453735], [0.19704172015190125, 0.023619018495082855, -0.20241913199424744, 0.1505991667509079, -0.308082640171051, 0.011585931293666363, 0.045953862369060516, -0.46894383430480957, -0.2223372608423233, 0.27684852480888367, -0.09072656184434891, 0.5613588690757751], [0.3684883415699005, -0.12054391205310822, -0.27260810136795044, 0.3100075125694275, -0.23983702063560486, 0.026877714321017265, 0.3433810770511627, 0.07226042449474335, -0.12411408126354218, 0.3049384355545044, -0.12041401863098145, 0.2625756561756134], [0.5624937415122986, -0.17609000205993652, 0.5421918034553528, 0.5361630320549011, 0.05214124917984009, -0.494223952293396, -0.42368122935295105, -0.19328196346759796, -0.46301567554473877, 0.35642120242118835, -0.39966991543769836, 0.008972731418907642], [0.21169725060462952, -0.49304115772247314, 0.49882060289382935, -0.013332070782780647, -0.05215366557240486, 0.07103648781776428, 0.28046077489852905, 0.603107750415802, 0.20700058341026306, 0.45848217606544495, -0.27065175771713257, -0.4178029000759125], [0.4244372248649597, 0.21260260045528412, 0.6200444102287292, -0.1703473925590515, 0.03291063383221626, 0.18614526093006134, 0.0671825185418129, 0.5451608300209045, 0.4644935131072998, -0.20129911601543427, 0.16381646692752838, 0.12024552375078201], [-0.08493006229400635, 0.28119292855262756, 0.07235949486494064, 0.5491834878921509, -0.2410430759191513, 0.2115771770477295, -0.11854645609855652, -0.3901217579841614, 0.22188065946102142, -0.19823259115219116, -0.20528735220432281, 0.5803290605545044], [0.309753954410553, -0.004847510252147913, 0.3495439887046814, 0.06923673301935196, 0.061761002987623215, -0.26141709089279175, 0.3545074164867401, 0.4253302216529846, 0.46213221549987793, 0.4262576997280121, -0.40538495779037476, -0.12408477813005447], [-0.5884438753128052, -0.01927986368536949, 0.23938024044036865, 0.561207115650177, 0.25079771876335144, -0.41250309348106384, -0.38907378911972046, 0.5242123007774353, 0.1874169260263443, -0.0719195306301117, -0.40067434310913086, 0.1048005074262619], [-0.4609956443309784, 0.4626389443874359, 0.10608072578907013, -0.5176657438278198, -0.39929723739624023, 0.6468437910079956, 0.20666559040546417, -0.017222674563527107, 0.45710888504981995, 0.36841168999671936, 0.32847633957862854, 0.4013613760471344], [-0.2855481803417206, -0.44090476632118225, 0.48061880469322205, 0.2714359164237976, 0.28704410791397095, 0.2483125478029251, -0.2343539595603943, 0.20102007687091827, -0.27551186084747314, 0.23985204100608826, -0.42486488819122314, -0.44608914852142334]], "b": [-0.1556786298751831, 0.14806193113327026, 0.3955179452896118, 0.24757622182369232, 0.6717846989631653, -0.10625612735748291, 0.017809340730309486, 0.5084311962127686, -0.07994869351387024, 0.581698477268219, -0.48596927523612976, 0.3802069127559662], "act": "relu"}, {"W": [[-0.8819682598114014, 0.7062821388244629, -0.14797230064868927, 0.8466992378234863], [-0.6191896200180054, -0.019946815446019173, 0.7340266108512878, -0.05166507512331009], [0.3981572091579437, 0.016024334356188774, -0.23256732523441315, 0.23761878907680511], [0.36655640602111816, 0.6173449754714966, -0.7682449817657471, -0.4755599796772003], [1.000382423400879, 0.13629524409770966, -0.17500625550746918, 0.08031370490789413], [-0.42691466212272644, -0.41924354434013367, 0.1977076381444931, -0.43534979224205017], [-0.2764565646648407, -0.7876402139663696, 0.39700618386268616, 0.9509758353233337], [0.5546517372131348, -0.2573797106742859, -0.46510010957717896, 0.5399520993232727], [0.05422695726156235, -0.6619279384613037, 0.5801764726638794, 0.6095369458198547], [0.7421457171440125, 0.42026880383491516, 0.02630259469151497, -0.19118985533714294], [0.4720613956451416, 0.405961275100708, -0.5773114562034607, -0.5391559600830078], [-0.373413622379303, 0.6116079092025757, 0.5758594274520874, -0.5995391011238098]], "b": [0.275117427110672, -0.09544997662305832, 0.46857863664627075, 0.45144420862197876], "act": "softmax"}], "metrics": {"accuracy": 0.9734375, "macroF1": 0.9734244401498043, "trainSamples": 12800, "synthetic": true, "note": "QEEG-grounded synthetic; engagement index Pope 1995"}, "classes": ["focused", "relaxed", "drowsy", "stressed"]}