{"type": "mlp", "task": "classification", "featureOrder": ["delta", "theta", "alpha", "sigma", "beta", "gamma", "thetaAlpha", "betaAlpha", "engagement", "alphaAsym", "statMean", "statStd", "stdMean", "stdStd", "absMean"], "scaler": {"mean": [0.21731421903312814, 0.1580061692345713, 0.14000895342049643, 0.062058463738755294, 0.25905911059325715, 0.16355308400584267, 1.2038826780687295, 1.9350959290542418, 0.8893621770395522, 0.0027573227619689523, 20.70973208973073, 20.038724572251983, 0.0, 0.0, 28.939871544861038], "scale": [0.07368723024229139, 0.027493568427552934, 0.03372383294794966, 0.01328088579782067, 0.0381619305612762, 0.03536737471600821, 0.41334331664974305, 0.4622505660592938, 0.20681969099428804, 0.042278100406027884, 20.31583215433414, 27.412174300818585, 1.0, 1.0, 17.42058146624205]}, "layers": [{"W": [[-0.10345621407032013, 0.2663305401802063, 0.1719772219657898, 0.03785480186343193, -0.23792439699172974, -0.19671599566936493, -0.19448982179164886, 0.23502208292484283, 0.054238252341747284, 0.1351899355649948, -0.40941962599754333, 0.2057279795408249, 0.17260880768299103, -0.161112442612648, -0.25301986932754517, -0.18354305624961853, -0.09935344755649567, -0.05105946213006973, -0.07827472686767578, -0.12013169378042221, 0.05740709975361824, -0.18391630053520203, -0.10477499663829803, -0.13989587128162384, -0.16052743792533875, 0.20257361233234406, -0.14934556186199188, -0.02880105748772621, 0.057768240571022034, -0.3405907452106476, -0.00443563237786293, -0.2357761710882187, -0.2259979099035263, 0.2479008436203003, 0.36972206830978394, 0.20129965245723724, -0.18330863118171692, -0.28177493810653687, 0.09386095404624939, 0.04983361065387726, -0.21228712797164917, -0.011743261478841305, -0.29721346497535706, 0.278891384601593, -0.13169541954994202, 0.14205846190452576, -0.18089865148067474, 0.013107403181493282], [0.07868404686450958, -0.11529866605997086, 0.3513662815093994, 0.1555841565132141, 0.24258793890476227, 0.23207950592041016, 0.08952800929546356, 0.2735445201396942, -0.23052124679088593, -0.14864948391914368, -0.2550068199634552, -0.15168353915214539, -0.12159588187932968, -0.17543621361255646, 0.2144705206155777, -0.11044681817293167, -0.04799681156873703, 0.07206003367900848, -0.17203357815742493, 0.2739972174167633, -0.1515539139509201, 0.2764418125152588, 0.28874823451042175, -0.27423182129859924, -0.3481462895870209, 0.08622263371944427, 0.09944630414247513, 0.07993435114622116, 0.1822933703660965, -0.33105507493019104, -0.13438864052295685, -0.19926930963993073, 0.31989583373069763, 0.1305377036333084, -0.12680786848068237, -0.23542636632919312, -0.096193328499794, -0.11977874487638474, 0.08668544143438339, 0.04167277365922928, 0.22120243310928345, -0.07088905572891235, -0.22610841691493988, 0.24393443763256073, 0.18084734678268433, 0.0680507943034172, 0.15931081771850586, 0.004247432108968496], [0.10350871831178665, -0.1323525756597519, -0.3721221089363098, -0.29577764868736267, -0.29414403438568115, 0.0711372122168541, -0.13062825798988342, 0.025390012189745903, 0.18372292816638947, -0.2145863175392151, 0.01433683279901743, 0.11906132847070694, -0.2409909963607788, -0.31413522362709045, -0.065492644906044, -0.23875312507152557, 0.21586179733276367, 0.2423974573612213, 0.1640375852584839, 0.2870618999004364, 0.15067099034786224, -0.22895392775535583, 0.31348511576652527, 0.13101227581501007, 0.13135528564453125, 0.2146865874528885, -0.19475339353084564, -0.20813092589378357, -0.12453888356685638, 0.008922571316361427, 0.13765199482440948, 0.25986477732658386, -0.32503560185432434, -0.03743438050150871, 0.003911791834980249, -0.2249133288860321, -0.1819985806941986, -0.06445751339197159, 0.3084718585014343, -0.16972044110298157, -0.060283467173576355, 0.13548943400382996, -0.051717158406972885, 0.21865494549274445, 0.34606045484542847, -0.1544470191001892, 0.03786376118659973, -0.11839497834444046], [-0.09093912690877914, -0.3781656324863434, 0.01299598254263401, -0.05825471878051758, -0.3078451156616211, -0.15625198185443878, 0.2441703975200653, -0.13266082108020782, -0.1716320663690567, -0.07553955167531967, 0.3403516411781311, -0.15560880303382874, 0.13073840737342834, 0.09056156873703003, -0.07254917174577713, 0.13743512332439423, -0.13170108199119568, 0.10508500784635544, 0.1257915496826172, 0.08108243346214294, -0.2839857339859009, 0.13167497515678406, -0.017294323071837425, -0.1739538609981537, -0.21734221279621124, -0.019046103581786156, 0.2256198525428772, -0.2096986174583435, 0.04736432805657387, -0.12715665996074677, 0.05295863375067711, -0.19249601662158966, 0.14502157270908356, -0.049746036529541016, 0.21950462460517883, -0.28294914960861206, -0.08766540139913559, -0.17103002965450287, 0.2117534577846527, 0.14728805422782898, -0.23739942908287048, 0.09328240901231766, 0.2242550402879715, -0.033812783658504486, -0.06634987145662308, -0.18440628051757812, -0.15830406546592712, 0.24909846484661102], [0.2101069539785385, 0.09907090663909912, -0.1429101675748825, -0.03667480871081352, 0.16106095910072327, 0.24246150255203247, 0.16700516641139984, 0.1702665090560913, 0.14307105541229248, -0.23454026877880096, -0.11865343153476715, 0.3228921592235565, 0.09782779216766357, -0.3182205557823181, -0.1854712814092636, 0.11937667429447174, -0.3627200424671173, -0.11541638523340225, -0.011081012897193432, 0.1318969428539276, 0.0833420678973198, -0.23761937022209167, 0.1422104388475418, -0.12185712158679962, 0.007849147543311119, 0.12235166877508163, 0.07173561304807663, 0.2509624660015106, 0.08509561419487, 0.11240120977163315, -0.13495662808418274, -0.06698249280452728, -0.1876317858695984, -0.12758570909500122, 0.25045692920684814, -0.06024277210235596, 0.2766941785812378, 0.09251302480697632, 0.18555574119091034, -0.05473696067929268, -0.010388713330030441, 0.05122363939881325, -0.21326594054698944, 0.09406324476003647, -0.17505258321762085, -0.36183294653892517, 0.17702321708202362, -0.22553952038288116], [0.25795045495033264, 0.36073067784309387, 0.31955966353416443, 0.06477046757936478, -0.232423797249794, 0.2741934359073639, -0.09882625192403793, 0.24772407114505768, 0.303167462348938, 0.23375041782855988, -0.1687629371881485, 0.003358365036547184, 0.27916842699050903, -0.021682677790522575, -0.2809169292449951, 0.032224755734205246, 0.32796716690063477, 0.06111851707100868, -0.06164100021123886, -0.426469624042511, 0.1409522294998169, 0.3654446005821228, -0.413225919008255, 0.01924046501517296, 0.3065602481365204, 0.23439845442771912, 0.10535603761672974, 0.14011836051940918, -0.16183660924434662, -0.10466445982456207, 0.2520070970058441, 0.13424785435199738, 0.14401023089885712, 0.28523823618888855, -0.17228904366493225, 0.0037220630329102278, 0.14607591927051544, 0.06357557326555252, 0.16822849214076996, 0.2556626796722412, 0.34706395864486694, -0.10854639112949371, -0.0946192592382431, -0.23966503143310547, -0.09920758754014969, -0.343904048204422, -0.034289490431547165, 0.03784627839922905], [-0.16214077174663544, 0.15490388870239258, -0.2327605038881302, -0.24613308906555176, 0.21544671058654785, -0.10837946832180023, -0.15812477469444275, -0.019963471218943596, 0.2641855776309967, -0.08276183158159256, 0.014085558243095875, -0.24562717974185944, -0.26968735456466675, 0.05909175053238869, -0.02080327458679676, 0.07429753243923187, 0.21385528147220612, 0.27439701557159424, -0.062407828867435455, -0.12904082238674164, 0.2530958950519562, -0.14991562068462372, -0.05114876478910446, -0.3879948854446411, -0.28041425347328186, 0.2831319272518158, 0.2243252545595169, 0.06993401795625687, -0.11622817069292068, -0.24883782863616943, -0.19912633299827576, -0.16891533136367798, 0.0694129467010498, 0.15696990489959717, 0.04775329679250717, -0.12213219702243805, 0.22839729487895966, 0.09777026623487473, 0.029747962951660156, 0.12977446615695953, 0.01744587905704975, -0.16464614868164062, -0.130900576710701, 0.2367382049560547, -0.32911527156829834, -0.23424801230430603, -0.33760663866996765, -0.2938629686832428], [0.13188961148262024, 0.2041083127260208, 0.05515509471297264, -0.1814527064561844, 0.026206927374005318, -0.04117728769779205, -0.22935399413108826, -0.07812461256980896, -2.8924201615154743e-05, 0.1372436136007309, 0.05100652948021889, -0.2311692237854004, -0.02459377981722355, 0.12098631262779236, -0.04939151927828789, 0.22098706662654877, 0.12562739849090576, -0.21755199134349823, -0.34677833318710327, 0.04649229720234871, -0.24401509761810303, 0.028213290497660637, 0.22685886919498444, -0.029641736298799515, 0.0031426139175891876, 0.10538700222969055, 0.010322834365069866, 0.010392525233328342, 0.22468648850917816, -0.08507394790649414, 0.3566337525844574, 0.23297441005706787, -0.23517093062400818, -0.21567079424858093, -0.30580660700798035, -0.28468918800354004, -0.2786574363708496, 0.07818685472011566, -0.23997007310390472, -0.08797290921211243, 0.25402551889419556, -0.2706575393676758, 0.17107145488262177, -0.10145296901464462, -0.2889830768108368, 0.08648036420345306, 0.08737190067768097, 0.16793730854988098], [0.06711229681968689, 0.21842366456985474, -0.18182989954948425, -0.14384131133556366, 0.17032353579998016, 0.181165412068367, 0.2608066201210022, -0.07578345388174057, -0.030849376693367958, 0.18840554356575012, -0.11473821848630905, 0.3201427459716797, 0.2765336036682129, -0.005222604610025883, 0.17406293749809265, 0.17029765248298645, -0.3028544783592224, 0.23945173621177673, -0.07870981842279434, 0.15566688776016235, -0.11330490559339523, 0.2178884893655777, -0.1283450871706009, -0.30323663353919983, 0.32299184799194336, -0.21735556423664093, -0.08573569357395172, 0.3280385732650757, 0.24274776875972748, 0.06466217339038849, 0.15456852316856384, -0.05845069885253906, -0.22771494090557098, -0.11056022346019745, 0.050305236130952835, 0.13995979726314545, 0.16169317066669464, 0.16264639794826508, -0.22218719124794006, 0.005221830680966377, -0.25876927375793457, 0.07810705155134201, -0.05898832529783249, 0.17237244546413422, -0.15941253304481506, -0.3121435046195984, -0.15242581069469452, 0.11421623080968857], [0.0494205504655838, -0.14823883771896362, -0.3165977895259857, 0.11884772777557373, -0.22437959909439087, 0.19645197689533234, 0.0234067365527153, -0.22730737924575806, -0.17759518325328827, 0.41079285740852356, 0.019985252991318703, 0.007568798493593931, 0.21678228676319122, 0.26227545738220215, 0.3136627674102783, 0.0853954553604126, -0.04649820923805237, -0.2488526850938797, 0.20538708567619324, 0.0610080249607563, 0.014450673945248127, 0.2782204747200012, -0.1414627730846405, 0.062398917973041534, -0.2689758837223053, 0.051616374403238297, -0.29222750663757324, -0.18981027603149414, -0.30570724606513977, 0.11893362551927567, 0.16669872403144836, 0.11588625609874725, 0.25829219818115234, 0.020898938179016113, -0.08283036947250366, 0.24105556309223175, -0.16589128971099854, 0.2785256505012512, -0.2430647313594818, 0.23767170310020447, -0.29484274983406067, 0.32624801993370056, 0.03967234492301941, 0.3095192611217499, -0.1755838841199875, -0.026804443448781967, 0.3068481981754303, -0.06745640188455582], [0.19708558917045593, 0.152047261595726, -0.06576909869909286, 0.11598310619592667, 0.045490533113479614, 0.1264190524816513, -0.32020753622055054, -0.20838893949985504, 0.3339867889881134, 0.33392807841300964, -0.04576893895864487, 0.13148248195648193, -0.021990463137626648, -0.22083911299705505, -0.12218702584505081, -0.1342485547065735, 0.12639154493808746, -0.3960440456867218, 0.1589919924736023, 0.15859293937683105, 0.20570090413093567, 0.038937319070100784, -0.17857013642787933, 0.1271667182445526, 0.11396141350269318, -0.21107278764247894, 0.38846373558044434, 0.242721289396286, 0.25122976303100586, -0.0013568139402195811, 0.11904814094305038, -0.15198814868927002, 0.2452043741941452, 0.24945829808712006, -0.18988993763923645, -0.311926931142807, -0.0946311205625534, 0.1386653631925583, 0.3212990462779999, -0.14561569690704346, 0.20281217992305756, -0.07550118863582611, 0.2647984027862549, 0.19856157898902893, 0.1953469067811966, -0.07712725549936295, -0.16694186627864838, -0.199782595038414], [-0.47596079111099243, 0.262994647026062, 0.27732858061790466, 0.3353661298751831, 0.2767125368118286, 0.1766418218612671, 0.20960381627082825, 0.2341674119234085, 0.3141436278820038, -0.10850073397159576, -0.1672235131263733, -0.1230398416519165, 0.31613025069236755, 0.1445506513118744, -0.2803739011287689, 0.15943358838558197, 0.1095847561955452, -0.01163763739168644, -0.2650192081928253, 0.03381948545575142, 0.036877088248729706, 0.20923234522342682, -0.11202611029148102, 0.25443485379219055, 0.13717684149742126, 0.1373598873615265, 0.14889276027679443, -0.05377728119492531, -0.3508451282978058, -0.2439892590045929, 0.2223852574825287, 0.04127207025885582, 0.061758384108543396, -0.28021371364593506, -0.3770076632499695, -0.3098668158054352, -0.13535168766975403, 0.0826381966471672, 0.059374768286943436, 0.03622949495911598, 0.21756745874881744, 0.002014865167438984, -0.03493572399020195, 0.06428414583206177, -0.14775794744491577, 0.015393652021884918, 0.2613179385662079, 0.284016489982605], [-0.05177044868469238, 0.08519318699836731, 1.2342654009955822e-08, -0.01349777914583683, 8.452548172499519e-08, 0.11174686253070831, 1.176987041162647e-08, -0.0018758801743388176, 0.00016085852985270321, -0.018306517973542213, -0.08401501178741455, -0.05959407985210419, -0.05996033176779747, -0.04975045472383499, -0.05527591332793236, 0.0003151846758555621, -0.037812940776348114, -0.0007966592675074935, 0.07114491611719131, -1.766423984861376e-08, 0.0015897367848083377, -0.04150066152215004, -0.0339372456073761, -0.10118113458156586, -0.042834118008613586, -0.008937637321650982, -0.039676517248153687, -0.07790688425302505, -0.0632423609495163, 8.566605202986466e-08, -0.028957070782780647, -0.00020165712339803576, 3.890664679317979e-09, 0.003859233809635043, -0.10196053236722946, 0.030957762151956558, 8.712281851330772e-05, -0.08119629323482513, 0.06067553535103798, 0.08245142549276352, -0.09118051081895828, -0.009285109117627144, 0.03338777646422386, 0.01514783501625061, -0.03681540861725807, -0.027927454560995102, -0.0001058864509104751, -1.7477363556395176e-08], [1.7919641322805546e-05, -0.0001261848519789055, 6.654999396005223e-08, 0.014942972920835018, -0.10327969491481781, -0.014966831542551517, 0.007395267020910978, 0.07041756808757782, 1.0877416301013909e-08, 3.963379668903144e-08, -0.06932701915502548, -1.441004826574499e-07, 3.1815030610005124e-08, -0.017651507630944252, -0.010916476137936115, -4.1995976062025875e-05, -0.11169395595788956, -0.002470248145982623, -0.027219539508223534, -0.0019799466244876385, -0.06363260746002197, 0.06827663630247116, -1.1231302323722048e-06, 0.0025860979221761227, 0.02742767706513405, -2.2246562370042966e-09, -0.07874801754951477, -6.05396053288132e-08, 5.683556310032145e-07, 0.014421341009438038, 2.534403620302328e-07, -0.06016504019498825, -0.007927656173706055, -0.0002248968812637031, 0.00046177193871699274, -1.3394156894719345e-07, -0.00039872832712717354, 0.11506563425064087, -4.265427833161084e-06, -0.019143855199217796, -0.07180403172969818, -0.04935341328382492, -0.016689125448465347, -0.04614396020770073, -0.03604918718338013, -0.007680861745029688, -0.04108848050236702, 0.07113440334796906], [-0.2492343634366989, 0.05901132896542549, 0.008546257391571999, 0.343659907579422, -0.3216905891895294, 0.028177930042147636, 0.31889915466308594, 0.26129549741744995, 0.30210310220718384, -0.03974884748458862, -0.3486596941947937, 0.19076497852802277, 0.2817363739013672, 0.1310933381319046, -0.05866670981049538, 0.013694380410015583, 0.20430448651313782, -0.35105738043785095, -0.22846609354019165, -0.21915043890476227, 0.026525668799877167, -0.2755323648452759, -0.3612775206565857, 0.0793890729546547, -0.02964787371456623, 0.06913254410028458, -0.04161115735769272, 0.03353186324238777, -0.020668352022767067, -0.42872029542922974, -0.017590010538697243, -0.38293999433517456, -0.2597321569919586, 0.2639523446559906, -0.17414246499538422, 0.2975959777832031, -0.28005561232566833, 0.08326014876365662, 0.19096525013446808, 0.13421577215194702, -0.02450672537088394, -0.014401629567146301, -0.14393828809261322, 0.2909791171550751, 0.08501720428466797, 0.24148288369178772, -0.3354504704475403, 0.2345198690891266]], "b": [0.30916717648506165, -0.07556448131799698, -0.1589401215314865, 0.2852189540863037, 0.02852383814752102, 0.2779569625854492, -0.22381626069545746, 0.16368719935417175, -0.1726168841123581, -0.12356805056333542, -0.13057929277420044, 0.219901904463768, 0.16767077147960663, 0.10858497023582458, -0.10241613537073135, 0.2919597327709198, 0.10672184079885483, 0.22218284010887146, 0.004844816867262125, -0.015236577950417995, 0.07467250525951385, -0.05894947052001953, 0.22167086601257324, 0.1127355620265007, -0.035988807678222656, 0.22341863811016083, -0.02131509780883789, 0.01726464182138443, 0.2202836126089096, 0.07960954308509827, -0.11613986641168594, 0.2558636963367462, 0.15347136557102203, 0.07600266486406326, -0.12331859767436981, 0.3208220303058624, -0.0004052604199387133, -0.024272680282592773, 0.15967220067977905, 0.28940674662590027, -0.1219506561756134, -0.15104971826076508, -0.15448391437530518, 0.20841577649116516, -0.29181766510009766, 0.1439804881811142, 0.20221064984798431, 0.26472410559654236], "act": "relu"}, {"W": [[-0.07076103985309601, 0.1834612637758255, -0.2864460349082947, 0.2514457404613495, -0.2377205193042755, -0.04176731035113335, 0.1273633986711502, -0.14136984944343567, -0.2260465919971466, 0.10718882083892822, 0.2281562089920044, 0.12461322546005249, 0.1855144053697586, 0.0693931132555008, -0.04143120348453522, -0.11295835673809052, -0.15664421021938324, 0.2466069459915161, 0.10745151340961456, -0.11050731688737869, -0.04517027735710144, 0.23523607850074768, -0.19504930078983307, 0.089388407766819], [-0.0020946289878338575, 0.09767933934926987, -0.23173724114894867, 0.26380082964897156, 0.2979687750339508, -0.04638008773326874, 0.09249766916036606, 0.23531454801559448, 0.07225975394248962, -0.21983712911605835, 0.03517327085137367, 0.10810861736536026, -0.010458070784807205, 0.09733754396438599, 0.23279409110546112, 0.20599058270454407, 0.0435434989631176, -0.2655724883079529, 0.32980403304100037, 0.20644621551036835, -0.2287294715642929, 0.2617926597595215, 0.2688583731651306, 0.058921653777360916], [-0.044164951890707016, -0.025118516758084297, -0.20962195098400116, 0.020585140213370323, 0.2073366641998291, -0.3380919098854065, -0.17365139722824097, -0.14745664596557617, -0.05541536957025528, 0.18379327654838562, -0.052650317549705505, 0.017716873437166214, 0.23119795322418213, -0.14191588759422302, -0.23513832688331604, -0.11407607048749924, -0.059834424406290054, -0.27539029717445374, 0.09661117196083069, 0.05746367573738098, 0.2559790313243866, -0.09916054457426071, 0.12710332870483398, 0.21000157296657562], [-0.3498276472091675, 0.10716741532087326, -0.12609224021434784, 0.3580947816371918, -0.17666542530059814, -0.04342350736260414, -0.27794259786605835, 0.27323436737060547, -0.04836905375123024, 0.07110493630170822, -0.1933145970106125, 0.2237558513879776, -0.06579549610614777, 0.16772432625293732, -0.23347805440425873, -0.2202182412147522, -0.23511631786823273, -0.08359081298112869, 0.13927824795246124, -0.26416927576065063, 0.10355431586503983, -0.05127367377281189, 0.06459672003984451, 0.07084918767213821], [-0.009062167257070541, 0.11440913379192352, -0.23949198424816132, -0.18953566253185272, 0.2691209614276886, 0.2732475697994232, -0.036735787987709045, -0.04705619066953659, 0.07651114463806152, 0.03831878677010536, -0.2692573070526123, -0.1937158852815628, 0.11659903824329376, 0.10116539895534515, -0.2788264751434326, -0.15028224885463715, -0.0749068632721901, 0.08593060821294785, -0.20496922731399536, -0.15449990332126617, 0.20139643549919128, -0.12451395392417908, 0.16527287662029266, -0.14651992917060852], [-0.22717636823654175, -0.11703061312437057, 0.15198498964309692, 0.29212018847465515, 0.22957812249660492, -0.041154611855745316, 0.10605660080909729, -0.1109926626086235, -0.18709586560726166, 0.24525199830532074, -0.25860580801963806, -0.17026293277740479, -0.0965670794248581, -0.23129762709140778, -0.12699811160564423, 0.013746940530836582, 0.001935450010932982, 0.22171072661876678, 0.28857916593551636, -0.1404963731765747, -0.1795203983783722, -0.06191927567124367, 0.13503152132034302, -0.06723770499229431], [-0.0007131382590159774, -0.09960762411355972, 0.07938172668218613, 0.09241774678230286, -0.14229561388492584, 0.22764146327972412, 0.056684546172618866, -0.23129881918430328, 0.1363821178674698, -0.06379162520170212, 0.3006601631641388, 0.2769121527671814, 0.1144043356180191, -0.28548192977905273, -0.09741976857185364, -0.0026649534702301025, 0.11987517774105072, -0.07706087827682495, -0.11226216703653336, 0.20043395459651947, 0.27039211988449097, -0.04320281744003296, -0.17068646848201752, -0.001770493807271123], [-0.3376394808292389, 0.2682962417602539, -0.12087613344192505, 0.13508766889572144, -0.08694277703762054, -0.018426209688186646, 0.037984203547239304, 0.13648216426372528, -0.2232275903224945, -0.31856995820999146, -0.18329459428787231, 0.3097112476825714, 0.294646292924881, -0.007567394524812698, -0.0435648038983345, 0.059931810945272446, -0.12085702270269394, 0.2017974555492401, 0.06259168684482574, 0.04548143967986107, 0.014478574506938457, -0.2507939636707306, -0.11271003633737564, 0.2453542947769165], [-0.23091882467269897, 0.06007087975740433, -0.05572293698787689, -0.004300612490624189, -0.1051579937338829, -0.07572701573371887, 0.10484473407268524, -0.07809633761644363, -0.006937213242053986, 0.03946879506111145, 0.13388578593730927, 0.2991376519203186, 0.17040789127349854, -0.19097605347633362, -0.2180355191230774, -0.1794673502445221, 0.1715364009141922, -0.316144198179245, 0.03826321288943291, 0.06284391134977341, -0.18117347359657288, 0.17550405859947205, -0.2003924697637558, -0.18511709570884705], [0.1361144334077835, 0.08620644360780716, 0.10924598574638367, -0.005509337410330772, -0.12804599106311798, 0.2041308432817459, 0.13452230393886566, 0.14590221643447876, -0.16899029910564423, 0.023532601073384285, -0.06134516000747681, -0.2080981582403183, 0.2919548451900482, -0.1911524534225464, 0.3363707661628723, -0.05886734277009964, -0.17781592905521393, 0.012912435457110405, 0.2352389544248581, 0.09247680753469467, 0.1459284871816635, 0.06273958832025528, 0.12764790654182434, 0.2296578586101532], [-0.05834856629371643, 0.011254102922976017, -0.23961840569972992, 0.2203514277935028, 0.25373709201812744, -0.18529567122459412, 0.16661706566810608, 0.32420286536216736, -0.1198418065905571, 0.09372924268245697, 0.2593572735786438, -0.30905357003211975, 0.11006414890289307, -0.005452343728393316, 0.36626145243644714, 0.3037393093109131, 0.30808430910110474, 0.09287554025650024, 0.19475962221622467, 0.16982784867286682, -0.13885697722434998, 0.23345594108104706, -0.3230205476284027, 0.03254622966051102], [-0.11305174976587296, -0.1888965368270874, -0.25240927934646606, 0.12889713048934937, -0.07976298779249191, 0.15488336980342865, -0.2439824640750885, -0.08997488766908646, 0.0043886820785701275, 0.17728297412395477, -0.0012778282398357987, 0.08232415467500687, 0.28428974747657776, 0.10311257839202881, -0.07298604398965836, -0.2649674117565155, 0.2074078768491745, -0.21479816734790802, 0.2751951813697815, 0.03414277732372284, 0.2239268273115158, 0.1881461888551712, 0.35385289788246155, -0.015143665485084057], [0.10158734023571014, -0.07769487053155899, 0.0980728417634964, 0.1604260355234146, 0.2687574625015259, 0.249446302652359, 0.10142739862203598, -0.06126751750707626, -0.10065724700689316, 0.11474032700061798, -0.14333666861057281, -0.15181171894073486, -0.006175163201987743, -0.1557912975549698, -0.1400928646326065, -0.19853658974170685, -0.16310447454452515, -0.3295346796512604, 0.3626321256160736, -0.05874718353152275, -0.14642830193042755, 0.1410835236310959, -0.09604981541633606, 0.3448367714881897], [0.14110489189624786, -0.21630045771598816, 0.0050629680044949055, 0.28303050994873047, 0.2951621413230896, -0.007293137721717358, 0.02017330750823021, -0.16700252890586853, 0.231716588139534, -0.1466703712940216, 0.30808699131011963, 0.14748738706111908, 0.12352973222732544, -0.0095516387373209, -0.13001753389835358, -0.24897371232509613, -0.10491693019866943, -0.20554669201374054, 0.2284945845603943, -0.1398782730102539, -0.2872108221054077, 0.24845455586910248, 0.2740112543106079, 0.31514012813568115], [0.3418824076652527, -0.23679406940937042, -0.0929608941078186, 0.14972266554832458, 0.046973831951618195, -0.1423189789056778, 0.1449136734008789, -0.12033405900001526, -0.1764410138130188, 0.055325064808130264, 0.1529283970594406, 0.03785194456577301, -0.17126694321632385, 0.2369876354932785, -0.03681495785713196, -0.1677670180797577, 0.17256689071655273, 0.32314714789390564, 0.15440918505191803, 0.09643620997667313, 0.07988433539867401, -0.00796722061932087, -0.2871592342853546, -0.06752258539199829], [-0.08153773844242096, -0.16596311330795288, 0.1740114986896515, 0.05175161734223366, -0.1790211796760559, -0.12028636783361435, 0.11490760743618011, -0.17133952677249908, 0.1617719531059265, 0.012759093195199966, -0.03506140783429146, 0.10450225323438644, 0.22009791433811188, -0.039737191051244736, 0.1700698286294937, 0.003924942575395107, -0.05915127694606781, 0.19907502830028534, 0.25043246150016785, 0.12263358384370804, 0.16591790318489075, 0.25124895572662354, 0.19209875166416168, 0.23910383880138397], [0.15961456298828125, 0.17625053226947784, 0.12389178574085236, 0.20939713716506958, -0.12267135828733444, 0.2712615132331848, 0.26184728741645813, -0.22128720581531525, 0.1438131481409073, -0.18933707475662231, -0.17454445362091064, 0.214210644364357, -0.22269585728645325, 0.1219172403216362, 0.19931137561798096, -0.08366624265909195, -0.17537206411361694, -0.21762517094612122, 0.13525870442390442, 0.26167139410972595, -0.02369145303964615, -0.13196980953216553, 0.15748342871665955, 0.09705548733472824], [0.24488894641399384, -0.3405047357082367, 0.18997548520565033, -0.02607216313481331, 0.2830083668231964, -0.022761359810829163, 0.12382300943136215, 0.31190192699432373, -0.2300051897764206, 0.30594292283058167, 0.14511986076831818, -0.26982709765434265, -0.09080825001001358, 0.20574446022510529, -0.16767601668834686, 0.0663752406835556, -0.024827538058161736, 0.12386973947286606, -0.27174481749534607, 0.24952320754528046, 0.2571476697921753, 0.337674081325531, 0.23963752388954163, -0.17244824767112732], [0.23322242498397827, -0.3768192529678345, -0.3420765697956085, -0.15110935270786285, -0.03574012592434883, 0.21640360355377197, 0.1387759894132614, 0.024437544867396355, -0.08710585534572601, 0.3281712830066681, 0.035734254866838455, -0.07486794143915176, -0.14032532274723053, 0.25226259231567383, 0.20749543607234955, -0.0822281613945961, -0.2837952971458435, 0.2152508646249771, 0.04378370940685272, -0.16909918189048767, 0.22823184728622437, -0.16541633009910583, -0.11340461671352386, 0.23117278516292572], [0.12099403142929077, 0.0624544732272625, -0.12183725833892822, -0.2493061125278473, 0.28937554359436035, 0.05199623852968216, 0.3173582851886749, -0.02397335320711136, -0.05922647565603256, -0.16490770876407623, 0.0778127908706665, -0.18798545002937317, 0.16122958064079285, 0.1551663875579834, 0.41838976740837097, -0.08526764065027237, 0.2014748752117157, 0.2642628848552704, 0.10546369850635529, 0.12845632433891296, 0.08123237639665604, 0.1539558619260788, -0.2538526952266693, -0.3481934070587158], [0.31538745760917664, 0.14064712822437286, 0.14223359525203705, -0.048922013491392136, -0.19000861048698425, -0.1785392016172409, 0.14187143743038177, 0.006074643228203058, -0.15488585829734802, 0.01760878413915634, -0.24307715892791748, 0.006823353935033083, -0.11486518383026123, 0.21822457015514374, -0.03388650342822075, -0.03704376146197319, -0.3368477523326874, -0.22958257794380188, -0.07602524012327194, -0.029860960319638252, 0.008721846155822277, -0.10270775109529495, 0.1390073299407959, 0.21596358716487885], [0.1964002400636673, -0.20876793563365936, 0.009715721011161804, -0.22049126029014587, -0.09712918847799301, 0.36742129921913147, -0.17504380643367767, 0.13742031157016754, 0.03696088492870331, 0.16710644960403442, -0.030807768926024437, -0.27226561307907104, -0.08172998577356339, 0.12744349241256714, -0.1156923770904541, -0.12511493265628815, -0.19085143506526947, -0.2644117474555969, -0.032701216638088226, -0.246490478515625, -0.0412927120923996, 0.12485019862651825, 0.20606425404548645, -0.1817243993282318], [-0.05926694720983505, -0.3599165081977844, 0.014747061766684055, 0.01658100076019764, -0.33390143513679504, 0.3421016335487366, -0.19752922654151917, 0.12658187747001648, 0.1960146427154541, 0.2987317144870758, 0.18761780858039856, 0.08902093768119812, -0.09179122000932693, 0.3090101182460785, -0.12129128724336624, 0.39632636308670044, 0.005864581558853388, 0.3365471661090851, -0.09168319404125214, 0.0895732119679451, -0.020817533135414124, 0.20537181198596954, -0.3784348964691162, -0.31439462304115295], [-0.06181783601641655, -0.19769705832004547, 0.2429223209619522, -0.21764320135116577, 0.29889291524887085, -0.017327554523944855, -0.1449446678161621, 0.24379165470600128, 0.110151506960392, 0.07656776160001755, 0.07067184895277023, 0.07559410482645035, -0.08985983580350876, 0.36475780606269836, 0.3544994592666626, 0.06783965975046158, -0.1849498599767685, 0.10309236496686935, -0.21933874487876892, -0.2807322144508362, -0.22853246331214905, 0.033096060156822205, 0.240717813372612, 0.20799842476844788], [0.18047474324703217, -0.07830766588449478, -0.06466488540172577, -0.04329806566238403, 0.3268665671348572, -0.23184964060783386, 0.24088023602962494, 0.08917111158370972, -0.0895710438489914, 0.16303296387195587, 0.025993024930357933, 0.23895175755023956, 0.24593864381313324, 0.03162918984889984, 0.02879909798502922, 0.007390189915895462, 0.3028230667114258, -0.2058538943529129, 0.11559072136878967, 0.11825878918170929, 0.104756198823452, -0.1765812337398529, 0.1521913707256317, 0.2709965109825134], [-0.2330022156238556, -0.08516819030046463, 0.32144585251808167, -0.08720973134040833, 0.25786861777305603, -0.003775707446038723, -0.15555796027183533, 0.21792398393154144, -0.10887689888477325, -0.0005139083368703723, -0.027418632060289383, 0.15093787014484406, -0.12918218970298767, -0.1146087646484375, 0.23818540573120117, -0.189260333776474, 0.13858501613140106, -0.1174493208527565, 0.26128774881362915, -0.19821739196777344, 0.26810598373413086, -0.03595183044672012, -0.058277130126953125, -0.13936582207679749], [-0.21122899651527405, 0.06812471151351929, -0.128982275724411, 0.26809704303741455, -0.013144437223672867, -0.13979604840278625, 0.035627689212560654, 0.1439248025417328, -0.2428150177001953, -0.17960186302661896, -0.25042498111724854, 0.2173037976026535, 0.13317884504795074, -0.06536240875720978, 0.11968580633401871, 0.17060719430446625, 0.18403439223766327, 0.14226064085960388, -0.0009535321150906384, -0.273188978433609, -0.16641856729984283, -0.2738834023475647, 0.10301569104194641, 0.34373193979263306], [-0.27500104904174805, -0.1319858729839325, -0.011922183446586132, 0.3033243417739868, -0.059335868805646896, -0.09647674858570099, -0.2986544668674469, -0.20501893758773804, 0.23329126834869385, 0.22688321769237518, -0.3005615770816803, 0.3096514940261841, 0.12786948680877686, 0.18093574047088623, -0.09101200103759766, -0.020229080691933632, 0.04264821484684944, 0.06142827495932579, -0.12310610711574554, -0.17069102823734283, -0.09717002511024475, 0.09649589657783508, -0.10095309466123581, 0.15327154099941254], [0.2662051320075989, -0.10501569509506226, 0.025833526626229286, 0.021249685436487198, 0.18325099349021912, -0.24646206200122833, 0.04277912527322769, 0.18118292093276978, 0.20845921337604523, 0.053316257894039154, 0.11430457979440689, 0.12072159349918365, 0.28978827595710754, 0.00804203376173973, -0.30007827281951904, 0.25759050250053406, 0.13011980056762695, 0.12194188684225082, -0.07433704286813736, 0.09520655870437622, -0.03080710954964161, 0.03148679807782173, -0.16185714304447174, 0.15056318044662476], [0.3884581923484802, -0.17614279687404633, 0.19297485053539276, -0.11883214861154556, 0.198344424366951, 0.227537602186203, 0.08176706731319427, 0.21451759338378906, 0.2470548301935196, -0.001113775186240673, -0.05376608297228813, 0.03342839330434799, 0.19229213893413544, 0.25387343764305115, 0.29262033104896545, -0.046974219381809235, 0.18202301859855652, -0.16293999552726746, -0.030445024371147156, -0.2777666449546814, -0.14316295087337494, -0.022508608177304268, -0.16081804037094116, 0.06683383882045746], [-0.07737831026315689, -0.07002811878919601, -0.06499596685171127, -0.022516215220093727, -0.10219898819923401, -0.20044761896133423, 0.04978298395872116, 0.16714997589588165, 0.020972998812794685, 0.0078808618709445, -0.16594211757183075, 0.2516724467277527, 0.04402201995253563, 0.07685528695583344, -0.15876111388206482, -0.14966286718845367, 0.04186267405748367, -0.13915328681468964, 0.09028438478708267, -0.059844378381967545, -0.050110869109630585, 0.18494366109371185, 0.2136620283126831, 0.16388599574565887], [0.33625659346580505, -0.3455510139465332, -0.1805378794670105, -0.3188430070877075, 0.1202802062034607, 0.2936502993106842, -0.0944293886423111, 0.3306470215320587, -0.2925945222377777, 0.3126921057701111, -0.09676958620548248, -0.24809032678604126, -0.003792832139879465, -0.033016137778759, -0.004818632733076811, -0.14855284988880157, 0.2240881770849228, 0.019505571573972702, -0.08284090459346771, 0.09151121228933334, 0.07755693048238754, -0.061175186187028885, -0.014478238299489021, -0.2092733234167099], [-0.13139094412326813, 0.1817619800567627, -0.24003086984157562, 0.04691510647535324, 0.15931390225887299, -0.165327787399292, 0.058989547193050385, -0.09853987395763397, 0.23787465691566467, 0.0012745695421472192, 0.23830683529376984, 0.06512080878019333, -0.19514179229736328, 0.050373561680316925, 0.29803815484046936, 0.04858554154634476, 0.18529032170772552, 0.19343091547489166, -0.13583967089653015, -0.22716505825519562, 0.03913729265332222, -0.08363259583711624, 0.2828693091869354, 0.24249374866485596], [-0.11421389132738113, -0.07967846095561981, 0.15316656231880188, -0.06512447446584702, 0.21234703063964844, -0.07072073221206665, 0.044274598360061646, -0.32914990186691284, 0.030852243304252625, -0.13061034679412842, 0.07595162838697433, -0.13253462314605713, 0.19763976335525513, 0.14719246327877045, -0.20847122371196747, -0.23284371197223663, -0.34878429770469666, 0.05466155707836151, 0.14387460052967072, 0.01969403773546219, -0.16573458909988403, -0.1581009179353714, 0.10720307379961014, 0.0766594260931015], [0.37520328164100647, -0.25097522139549255, 0.01582934521138668, -0.12670056521892548, -0.1090647354722023, 0.1803703010082245, 0.12209340184926987, 0.33663806319236755, -0.14798754453659058, -0.18855269253253937, 0.2031155377626419, -0.0007785891066305339, -0.11396113783121109, -0.1420174539089203, -0.11101443320512772, 0.32907626032829285, -0.19480480253696442, 0.03747203201055527, -0.2136024683713913, -0.059744738042354584, -0.25739625096321106, 0.03076275624334812, -0.3731745481491089, 0.1617807149887085], [-0.18170003592967987, 0.056175701320171356, 0.23498857021331787, 0.1672489047050476, 0.007639176677912474, -0.13203997910022736, -0.1943216472864151, 0.057886142283678055, 0.218381866812706, 0.02012745849788189, 0.12928064167499542, 0.21104560792446136, 0.06109078228473663, -0.33538973331451416, 0.05989788845181465, 0.25942355394363403, -0.23385806381702423, 0.14079992473125458, -0.11071113497018814, 0.035720717161893845, -0.25468942523002625, -0.08988786488771439, 0.19367825984954834, 0.008956579491496086], [0.12299922853708267, 0.06941430270671844, 0.2224464863538742, -0.136700838804245, -0.03478286787867546, -0.1758444905281067, 0.27595773339271545, 0.31279024481773376, -0.0216518621891737, 0.20577730238437653, 0.014963848516345024, 0.09173114597797394, -0.2063995599746704, 0.20377761125564575, -0.1141882985830307, 0.16005104780197144, 0.2228478044271469, 0.1026715487241745, -0.219447061419487, -0.02808799222111702, -0.1497299075126648, -0.07541069388389587, -0.21069280803203583, 0.26670145988464355], [-0.0029275286942720413, -0.09031802415847778, 0.013594565913081169, 0.03840216249227524, 0.10378236323595047, -0.044718772172927856, 0.20464961230754852, -0.01669183373451233, 0.2395971417427063, 0.15894275903701782, -0.22761279344558716, 0.30541202425956726, -0.1370915174484253, 0.15715104341506958, -0.09887398779392242, 0.18293851613998413, 0.25225257873535156, 0.14513234794139862, 0.23700396716594696, -0.1461232751607895, -0.27004003524780273, -0.05797262862324715, -0.12266863137483597, 0.1769874393939972], [-0.034924931824207306, 0.2732129693031311, 0.07389722764492035, 0.16715814173221588, -0.22394004464149475, 0.24593934416770935, 0.2589309513568878, 0.020123764872550964, 0.08995257318019867, 0.17505699396133423, -0.14342175424098969, -0.011051185429096222, 0.008694327436387539, -0.1597909927368164, -0.029294511303305626, -0.15489740669727325, -0.3067156672477722, -0.14152416586875916, 0.29516759514808655, 0.0025278115645051003, 0.2341831922531128, -0.05439527705311775, -0.06823217123746872, 0.07897303998470306], [-0.05619170889258385, -0.17456385493278503, 0.13867205381393433, -0.07342718541622162, 0.1256735771894455, 0.12019235640764236, -0.19398978352546692, -0.1916094869375229, 0.08523804694414139, -0.02231379970908165, -0.2249850630760193, 0.3752106726169586, -0.19445958733558655, 0.12018721550703049, 0.3247995972633362, -0.20521199703216553, -0.15279507637023926, -0.23398393392562866, -0.018642831593751907, -0.27092379331588745, 0.07439723610877991, -0.24577248096466064, 0.10276781767606735, 0.3593883216381073], [0.2519662082195282, 0.13397975265979767, -0.133009672164917, 0.11418748646974564, 0.08035043627023697, -0.04437381774187088, -0.169314444065094, 0.3136294484138489, -0.08469219505786896, -0.08496548235416412, -0.08877978473901749, -0.005799945443868637, 0.1578005999326706, 0.11711844056844711, 0.13650567829608917, -0.32200556993484497, 0.0737815797328949, -0.08869583904743195, -0.1997923105955124, -0.07558690756559372, 0.11516571044921875, -0.18567198514938354, 0.10498011112213135, -0.11853605508804321], [-0.2066277265548706, -0.2325672209262848, 0.25481709837913513, 0.11540081351995468, 0.31766724586486816, 0.05866432189941406, -0.1626175493001938, 0.10186206549406052, 0.027317408472299576, 0.2604236602783203, -0.27446386218070984, -0.06108888238668442, -0.3374842703342438, -0.011380225419998169, 0.2223508656024933, 0.08033675700426102, -0.04414129629731178, 0.03138507530093193, -0.06882335990667343, 0.13058017194271088, 0.19004997611045837, 0.3603115677833557, 0.141816183924675, -0.15852133929729462], [0.07052134722471237, -0.020948540419340134, -0.26833006739616394, 0.2700643539428711, -0.2761270999908447, 0.2543792426586151, -0.0793299600481987, 0.07723017036914825, 0.05714016035199165, 0.18232221901416779, 0.11006706953048706, 0.14037886261940002, -0.16359016299247742, 0.0067119300365448, -0.11460887640714645, 0.09437934309244156, 0.060645103454589844, 0.11768293380737305, -0.17927083373069763, -0.31312549114227295, 0.09565462172031403, -0.30126938223838806, -0.24926309287548065, -0.19921410083770752], [0.3211616575717926, 0.15094897150993347, -0.10547781735658646, -0.11060640215873718, -0.08018467575311661, 0.2194889783859253, 0.11287303268909454, -0.12637336552143097, -0.19191506505012512, -0.17841589450836182, 0.16181950271129608, 0.16171954572200775, -0.06026973947882652, -0.2571480870246887, -0.18109597265720367, 0.26817193627357483, -0.18307745456695557, 0.13404691219329834, 0.11399514228105545, -0.0858478993177414, -0.1980002373456955, -0.2211795151233673, 0.08171381056308746, 0.1981923133134842], [0.16544756293296814, -0.02339211478829384, -0.27608251571655273, 0.20760829746723175, 0.19532643258571625, -0.05286841094493866, 0.3315236270427704, 0.11804990470409393, 0.1152515783905983, 0.20217573642730713, 0.16763648390769958, 0.03704078122973442, -0.21465249359607697, -0.014563080854713917, 0.32711705565452576, -0.008666019886732101, -0.1478397250175476, 0.06095554679632187, -0.05622689425945282, 0.03879760950803757, 0.20667493343353271, -0.10976728051900864, -0.23509173095226288, -0.17419254779815674], [0.2329205721616745, 0.0988275408744812, -0.1527053713798523, 0.21003495156764984, 0.18714769184589386, 0.19445040822029114, 0.19290825724601746, -0.15662573277950287, 0.118206687271595, -0.0047218771651387215, 0.27305692434310913, 0.16321593523025513, 0.24087393283843994, 0.06315472722053528, -0.12133964896202087, 0.031672220677137375, 0.20717667043209076, 0.2572762668132782, -0.2229108065366745, -0.18863417208194733, -0.2565518617630005, 0.07606920599937439, 0.1950869858264923, -0.09984644502401352], [0.10892868041992188, 0.20249851047992706, 0.13481435179710388, -0.03486115112900734, 0.10599451512098312, 0.07038161158561707, -0.0396839864552021, 0.1373751312494278, 0.15380138158798218, 0.28743574023246765, 0.048372212797403336, 0.0962425172328949, -0.25827547907829285, 0.08842769265174866, -0.199072003364563, -0.164295956492424, 0.17203225195407867, 0.32450902462005615, -0.24284067749977112, -0.08650857955217361, 0.13083894550800323, -0.056883037090301514, 0.10019019991159439, 0.09367914497852325], [0.0030139745213091373, -0.19262918829917908, 0.007270297966897488, 0.2633545994758606, 0.06227482855319977, -0.3676287829875946, 0.06488047540187836, -0.37103042006492615, 0.08394845575094223, -0.25719696283340454, 0.3064435124397278, 0.0055130720138549805, -0.004512150306254625, -0.2873189151287079, -0.21548715233802795, 0.1753740757703781, 0.3716452717781067, -0.10415848344564438, 0.06377337872982025, 0.17630112171173096, 0.21450106799602509, 0.03628532215952873, 0.0050129760056734085, 0.051012564450502396]], "b": [0.12854702770709991, -0.18021471798419952, 0.0894554927945137, -0.004723946563899517, 0.20150558650493622, -0.21273280680179596, 0.04074229672551155, 0.016416247934103012, 0.009426954202353954, -0.25017014145851135, 0.12136391550302505, 0.1323988437652588, 0.11212147027254105, 0.039929259568452835, 0.14978758990764618, 0.17074260115623474, -0.11132211238145828, 0.20721736550331116, 0.11320760101079941, -0.2304084450006485, -0.281535267829895, -0.09088480472564697, 0.29565709829330444, 0.22612038254737854], "act": "relu"}, {"W": [[0.35624662041664124, 0.053113434463739395, -0.15862177312374115], [-0.38138848543167114, -0.2011151760816574, -0.012350738979876041], [-0.47020310163497925, -0.2701607048511505, 0.16385811567306519], [0.10069393366575241, 0.460492879152298, 0.4662027657032013], [0.1074519008398056, -0.1290408819913864, 0.18112163245677948], [0.39616066217422485, -0.42931145429611206, -0.17359031736850739], [0.3030717074871063, -0.12176262587308884, 0.08021322637796402], [0.18780627846717834, -0.318898469209671, -0.25389644503593445], [-0.19401277601718903, -0.4768805503845215, -0.4130907654762268], [0.3911307752132416, -0.2415599822998047, -0.018758609890937805], [-0.20451012253761292, 0.5485954284667969, -0.3595954477787018], [-0.15791384875774384, 0.3398280739784241, 0.36969488859176636], [-0.3603183627128601, 0.301984578371048, -0.01198059692978859], [0.04450039565563202, -0.3664810061454773, -0.4397464692592621], [0.31794992089271545, 0.009310318157076836, -0.2278096079826355], [0.19814980030059814, 0.307533860206604, -0.3438510596752167], [0.098387211561203, -0.4306486248970032, 0.30383962392807007], [0.16974887251853943, 0.4791306257247925, -0.4635355472564697], [-0.5315836071968079, -0.24373748898506165, -0.1506751924753189], [-0.27775338292121887, 0.45949965715408325, -0.32871416211128235], [-0.18485096096992493, 0.2266237735748291, -0.09780370444059372], [0.2602161765098572, -0.4925083816051483, 0.024056587368249893], [-0.531130313873291, -0.489034503698349, 0.49980154633522034], [-0.42708849906921387, -0.011814846657216549, -0.01580401137471199]], "b": [-0.20853422582149506, 0.3536238372325897, -0.39825761318206787], "act": "softmax"}], "classes": ["focused", "neutral", "relaxed"], "metrics": {"accuracy": 0.7225806451612903, "macroF1": 0.7176991926991927, "fullRefAccuracy": 0.967741935483871, "trainSamples": 1859, "testSamples": 620, "synthetic": false, "dataset": "birdy654/eeg-brainwave-dataset-mental-state", "hardware": "Muse (TP9/AF7/AF8/TP10)", "note": "real Muse EEG mental state; concentrating/neutral/relaxed"}}