{"type": "mlp", "task": "classification", "featureOrder": ["delta", "theta", "alpha", "sigma", "beta", "gamma", "thetaBeta", "deltaTheta", "alphaDelta"], "scaler": {"mean": [0.7477641418031042, 0.08472492245071762, 0.05676891613805679, 0.020765014741893694, 0.06359929608455295, 0.02637770873803651, 3.0650822418943218, 106.33683872104527, 0.10701593080950977], "scale": [0.17260798037225092, 0.050557684898384365, 0.05253370375697186, 0.019563879647472575, 0.06592440422370856, 0.04906497105294692, 3.0346635286668118, 9632.8695202793, 0.18670733772258324]}, "layers": [{"W": [[0.03143397346138954, 0.3365435302257538, 0.2195299118757248, -0.04966455698013306, -0.17665322124958038, -0.17107701301574707, -0.2011653035879135, 0.15574534237384796, 0.049861080944538116, 0.08413930982351303, -0.2724962532520294, 0.23637963831424713, 0.30483880639076233, -0.18624727427959442, -0.32587167620658875, -0.14881613850593567, -0.10373992472887039, 0.045496080070734024, -0.09041444957256317, -0.1336788386106491, 0.04567793384194374, -0.10609902441501617, -0.2125524878501892, -0.13314515352249146, -0.0019293365767225623, 0.16301243007183075, -0.12992823123931885, 0.10395698994398117, 0.04393020272254944, -0.3077772855758667, 0.028556503355503082, -0.1146848276257515, -0.24511796236038208, 0.2754969000816345, 0.3339463770389557, 0.30121055245399475, -0.09361207485198975, -0.24692538380622864, 0.07198677211999893, 0.0019996757619082928, -0.16697104275226593, -0.025366641581058502, -0.2916505038738251, 0.33622854948043823, -0.07515288144350052, 0.10729242116212845, -0.03270460292696953, 0.00014322537754196674, 0.20416924357414246, -0.09185171127319336, 0.40569159388542175, 0.0564633272588253, 0.26514530181884766, 0.33933138847351074, 0.09754573553800583, 0.23983091115951538, -0.19123432040214539, -0.01669730804860592, -0.2689213156700134, -0.11728072166442871, 0.009966567158699036, -0.16197770833969116, 0.22527524828910828, -0.009999140165746212], [-0.5238931775093079, -0.05194970592856407, -0.41362640261650085, 0.40224185585975647, -0.36970311403274536, 0.36589550971984863, 0.07728760689496994, -0.2016458362340927, -0.5220053195953369, 0.21777793765068054, 0.19778531789779663, 0.23322910070419312, 0.017856335267424583, -0.3200169503688812, 0.0740034431219101, -0.34920504689216614, 0.3037767708301544, 0.08337733149528503, 0.07441933453083038, -0.5276870131492615, -0.24763710796833038, -0.2325408011674881, 0.1796943098306656, 0.22315315902233124, 0.3629594147205353, 0.17660966515541077, -0.3781130313873291, 0.12048578262329102, 0.29536378383636475, -0.009587296284735203, 0.2235930860042572, 0.05527891591191292, -0.019519919529557228, -0.03911078721284866, -0.23673374950885773, -0.40056872367858887, -0.15809479355812073, 0.0758812353014946, -0.19061438739299774, 0.06762288510799408, 0.21902485191822052, -0.28320151567459106, 0.002984129823744297, 0.13922670483589172, -0.1791507601737976, -0.4497978687286377, -0.06080718711018562, -0.2304002195596695, 0.209167018532753, 0.10833995044231415, 4.4216289097676054e-05, 0.3348579406738281, 0.21313519775867462, -0.15573802590370178, 0.3001698851585388, 0.1518118977546692, 0.10126861184835434, 0.07239370793104172, -0.049781568348407745, -0.2182454913854599, -0.1493060439825058, -0.1773069053888321, 0.255219966173172, 0.1063738614320755], [-0.23052382469177246, -0.022174552083015442, 0.013734296895563602, -0.11549489945173264, -0.30535775423049927, -0.1277410387992859, 0.21907585859298706, -0.11766725033521652, 0.1446845382452011, 0.18981344997882843, -0.12869583070278168, 0.24216575920581818, 0.343790203332901, 0.013592003844678402, 0.06635783612728119, -0.11880294978618622, -0.018201345577836037, -0.38974234461784363, -0.011972994543612003, 0.030837612226605415, -0.12217830866575241, -0.21528607606887817, 0.3760359287261963, -0.0516701303422451, -0.32388490438461304, -0.09659019857645035, 0.45528644323349, -0.1056046411395073, 0.05264847353100777, 0.24485544860363007, -0.3506067395210266, 0.3032442629337311, 0.12829084694385529, 0.179965540766716, 0.16726645827293396, -0.03245757520198822, -0.17064936459064484, 0.03868681564927101, 0.05410977080464363, -0.39467692375183105, -0.2625918388366699, 0.11669104546308517, 0.1735396683216095, -0.408130943775177, 0.16885536909103394, -0.04331853613257408, 0.019797172397375107, -0.2500324845314026, -0.06162736564874649, -0.1783628612756729, 0.2821860611438751, -0.3925626277923584, -0.13334667682647705, -0.38932785391807556, 0.16254572570323944, 0.21170464158058167, -0.17458543181419373, -0.18495652079582214, 0.24287056922912598, -0.040710363537073135, 0.12540167570114136, -0.27227160334587097, -0.28075939416885376, 0.27859756350517273], [0.39864063262939453, 0.2005302459001541, -0.07396813482046127, -0.49753355979919434, 0.04364602267742157, 0.197585329413414, 0.2247140109539032, 0.39802175760269165, 0.19600766897201538, -0.6762283444404602, -0.345775306224823, 0.17533989250659943, 0.22971931099891663, -0.40370988845825195, -0.18574291467666626, 0.057794906198978424, -0.5788662433624268, -0.5383657813072205, 0.12594079971313477, 0.10666519403457642, -0.017814498394727707, -0.39841997623443604, 0.025286326184868813, -0.09489310532808304, -0.4768695831298828, 0.22747783362865448, 0.14411845803260803, 0.4849165380001068, 0.21608218550682068, 0.0625559389591217, -0.5238211750984192, -0.17438679933547974, -0.25211095809936523, -0.26138728857040405, 0.47877493500709534, 0.006334858480840921, 0.41608405113220215, 0.12937986850738525, -0.10164448618888855, 0.06840352714061737, -0.006944941356778145, -0.06923405826091766, -0.44191974401474, 0.24433712661266327, -0.5554438829421997, -0.18944641947746277, -0.12600000202655792, -0.3121214807033539, 0.32158657908439636, 0.3103134036064148, 0.20074614882469177, 0.016634590923786163, -0.5635190010070801, 0.2681486904621124, -0.15985609591007233, 0.35453516244888306, 0.39177870750427246, 0.10420124977827072, -0.0914745032787323, -0.19485925137996674, 0.40691831707954407, 0.043195486068725586, -0.44418421387672424, -0.1852560192346573], [0.15519586205482483, -0.03356732428073883, -0.01089938823133707, -0.10824821144342422, 0.24325458705425262, 0.17210853099822998, -0.155427485704422, 0.10391350090503693, 0.2960963249206543, 0.1308879554271698, 0.20234571397304535, 0.11176005005836487, -0.34636855125427246, -0.09619588404893875, 0.3364691436290741, 0.13020667433738708, 0.11712794750928879, 0.14167745411396027, 0.1252959966659546, 0.09224748611450195, 0.3026176393032074, 0.09719367325305939, 0.1852339655160904, 0.21726079285144806, 0.252675861120224, -0.17165079712867737, -0.06280387192964554, -0.43449223041534424, 0.04052109271287918, -0.14208300411701202, 0.09792745858430862, -0.16975803673267365, -0.0615369975566864, 0.021706417202949524, -0.4544442892074585, -0.3310563564300537, 0.156245157122612, -0.07072144746780396, -0.07063839584589005, 0.07036615908145905, 0.20172537863254547, -0.2790144383907318, 0.1933213770389557, -0.406104177236557, -0.4036758840084076, 0.0506441667675972, -0.1931176334619522, 0.1311039924621582, -0.05028226971626282, 0.36673885583877563, -0.11213024705648422, 0.18897239863872528, 0.25579169392585754, -0.3589060306549072, 0.008985384367406368, -0.3611372411251068, -0.3053532838821411, 0.18767277896404266, 0.24859750270843506, 0.2379106879234314, -0.28357306122779846, -0.28766360878944397, -0.26343590021133423, -0.42144984006881714], [-0.015279965475201607, 0.05921675264835358, -0.0508568212389946, -0.14698384702205658, 0.2954498827457428, 0.163962259888649, -0.09192601591348648, 0.07677259296178818, -0.04914497956633568, 0.026570869609713554, -0.24979132413864136, 0.20615652203559875, -0.38649782538414, -0.2056698501110077, -0.23962782323360443, -0.10787010192871094, 0.18586497008800507, 0.3172047734260559, -0.3227482736110687, -0.045616064220666885, -0.05713793635368347, -0.11606479436159134, -0.0924510806798935, -0.11592626571655273, -0.0668843537569046, 0.010786146856844425, -0.11430159956216812, -0.6561964154243469, -0.2851821482181549, -0.014301683753728867, 0.2439499795436859, 0.047056593000888824, -0.08607389777898788, -0.40542587637901306, -0.5178431868553162, -0.0995512455701828, -0.7048951387405396, 0.14584480226039886, 0.2863583564758301, -0.062316227704286575, -0.2936432361602783, 0.24695366621017456, -0.12964941561222076, -0.091651551425457, 0.24317893385887146, -0.10656953603029251, 0.3497177064418793, 0.31018367409706116, -0.45898348093032837, -0.5149132609367371, -0.47153452038764954, -0.2908681035041809, -0.26749560236930847, 0.11198948323726654, -0.5718318223953247, -0.2776701748371124, 0.17102573812007904, -0.13639073073863983, 0.08125613629817963, -0.15109652280807495, -0.4404882788658142, 0.34043532609939575, 0.06564699858427048, 0.39557042717933655], [0.05811723321676254, 0.29823383688926697, -0.09002109616994858, -0.18315929174423218, 0.024658409878611565, 0.32328692078590393, 0.282139390707016, -0.09363892674446106, -0.2085805982351303, 0.13254161179065704, -0.11030621826648712, 0.38456305861473083, 0.19471943378448486, -0.05304568633437157, 0.09749718010425568, 0.18565994501113892, -0.3418751358985901, 0.32178449630737305, -0.12000155448913574, 0.11534034460783005, -0.3441815972328186, 0.3089863061904907, -0.3071942925453186, -0.5065508484840393, 0.2100374698638916, -0.19912296533584595, -0.29600417613983154, 0.20375759899616241, 0.3946705758571625, -0.17691494524478912, 0.19431833922863007, -0.14600828289985657, -0.36067724227905273, -0.1332014501094818, 0.21965278685092926, 0.21105512976646423, 0.289745956659317, 0.2187192738056183, -0.41988199949264526, -0.021497298032045364, -0.37361711263656616, -0.026001084595918655, -0.041495710611343384, 0.2632491886615753, -0.2623957395553589, -0.15283766388893127, -0.0970146581530571, 0.17503361403942108, 0.1471964418888092, -0.4497905969619751, -0.14313046634197235, -0.04609430581331253, -0.31723451614379883, 0.301030695438385, 0.03910553827881813, -0.12212579697370529, -0.327399879693985, 0.40983420610427856, -0.1204463317990303, -0.004513794090598822, 0.3689453899860382, 0.19909124076366425, 0.2823270261287689, 0.042593009769916534], [0.07177391648292542, -0.35806986689567566, 0.1537599414587021, 0.06237925961613655, -0.047794051468372345, 0.23423637449741364, -0.09353308379650116, 0.03900853171944618, 0.0025492068380117416, 0.05339730530977249, -0.49199190735816956, -0.35626864433288574, -0.2922920286655426, 0.1567792296409607, 0.15662486851215363, 0.03585090860724449, 0.25558027625083923, 0.0983794704079628, -0.19936859607696533, 0.23860447108745575, -0.16460150480270386, 0.2516230046749115, -0.4766373038291931, 0.2256317436695099, -0.4578683376312256, 0.17368243634700775, -0.09198473393917084, 0.25070977210998535, -0.35968074202537537, 0.03180614486336708, 0.4096924066543579, 0.01927112601697445, 0.06250395625829697, 0.07418054342269897, -0.18597590923309326, 0.06337545812129974, 0.025974730029702187, 0.21478043496608734, -0.1913616806268692, -0.2633725702762604, 0.2204638570547104, 0.23538871109485626, -0.00979183241724968, 0.0017169833881780505, -0.01866934448480606, -0.16163890063762665, -0.010227146558463573, 0.04905395582318306, 0.00790767278522253, -0.3622807562351227, 0.2889575660228729, 0.30166396498680115, 0.05499556288123131, -0.20021021366119385, -0.2440154105424881, 0.14596964418888092, 0.07826944440603256, -0.19771192967891693, 0.2382044792175293, 0.18435487151145935, 0.22537267208099365, 0.07742815464735031, 0.027622966095805168, -0.00040889359661377966], [0.18168292939662933, 0.15858690440654755, -0.2415381669998169, -0.2247680276632309, -0.11663158982992172, 0.130594864487648, 0.33201998472213745, -0.22641338407993317, 0.09648118913173676, 0.0076714130118489265, 0.2705022096633911, 0.12204857915639877, 0.21076568961143494, 0.12277139723300934, -0.05034957826137543, -0.2576814293861389, -0.11651904881000519, 0.19277386367321014, 0.06029229611158371, 0.3432963490486145, 0.3043033480644226, 0.03026403859257698, 0.11993823945522308, 0.1113966777920723, 0.17185448110103607, -0.2993202209472656, -0.053720030933618546, -0.2801418602466583, 0.26848679780960083, 0.07058635354042053, -0.1698453426361084, 0.0533703938126564, 0.009642043150961399, -0.09434691071510315, -0.20591501891613007, 0.06054040789604187, -0.009917473420500755, 0.1897774040699005, -0.056683722883462906, 0.18434374034404755, 0.031662873923778534, 0.020940056070685387, 0.12088554352521896, -0.2423514574766159, -0.1796935498714447, -0.21605239808559418, 0.06465937942266464, 0.17051362991333008, -0.02914612740278244, -0.2388889044523239, -0.34262195229530334, -0.3577863872051239, -0.11212190240621567, -0.10903047025203705, -0.22282609343528748, -0.15561038255691528, 0.24870799481868744, -0.23826821148395538, 0.0530410073697567, 0.24001078307628632, -0.08999228477478027, -0.1365315318107605, 0.09264003485441208, 0.27160337567329407]], "b": [-0.20590220391750336, 0.23239266872406006, 0.021035898476839066, -0.13426445424556732, -0.014495816081762314, 0.174050435423851, -0.13256484270095825, -0.11424455046653748, 0.0184672512114048, -0.05237487331032753, 0.008080655708909035, -0.06006298586726189, -0.1825152188539505, -0.39940640330314636, -0.1698065549135208, 0.2252172976732254, -0.014748089015483856, -0.2778880000114441, 0.2784491181373596, -0.009468083269894123, 0.23156823217868805, -0.3181303143501282, 0.035028908401727676, 0.0006853367085568607, 0.05341784656047821, 0.10710590332746506, 0.004496642854064703, -0.09822826087474823, -0.10021661967039108, 0.0582139790058136, -0.32314759492874146, 0.11126415431499481, 0.20744968950748444, 0.34704458713531494, -0.23112140595912933, 0.14281298220157623, 0.03426250442862511, -0.19065622985363007, 0.26155558228492737, 0.3215450942516327, -0.08003692328929901, -0.20118065178394318, 0.26750844717025757, 0.3100174367427826, -0.12223649024963379, -0.12626004219055176, -0.08416666835546494, -0.0056252446956932545, 0.1548876017332077, 0.07576324790716171, 0.15226739645004272, 0.03327826038002968, -0.20161652565002441, -0.0443190336227417, 0.19905659556388855, 0.3465113341808319, 0.15204662084579468, 0.028098756447434425, -0.2033120095729828, -0.1529463678598404, 0.025103526189923286, -0.01507406122982502, -0.037160612642765045, -0.030785076320171356], "act": "relu"}, {"W": [[-0.2781955599784851, -0.1491696983575821, -0.4195851981639862, -0.22152480483055115, -0.03160658851265907, 0.45609530806541443, 0.24793300032615662, 0.06407659500837326, -0.1718805581331253, 0.08660878241062164, -0.3136097192764282, -0.12775346636772156, -0.23783625662326813, 0.08409453928470612, 0.22681501507759094, -0.4125267267227173, -0.6814574003219604, 0.05817694589495659, 2.4458655759895368e-39, 0.16102080047130585, -8.991141527558073e-39, 0.3863777220249176, 0.20612314343452454, -0.09536749124526978, -0.08757107704877853, -0.3675636053085327, -0.14081208407878876, -0.17151828110218048, -0.2493460774421692, -0.10089364647865295, -0.14659439027309418, 0.13792429864406586], [-0.24839745461940765, -0.0016066193347796798, -0.10061776638031006, 0.32017242908477783, -0.27697330713272095, 0.004642043262720108, 0.26080718636512756, 0.15475431084632874, 0.26877278089523315, -0.07808772474527359, -0.0583094023168087, 0.14345696568489075, 0.2776605188846588, 0.033688124269247055, -0.10436459630727768, -0.012148417532444, 0.26763468980789185, -0.16838383674621582, -7.038209311065613e-39, -0.05375507473945618, -0.00910281203687191, -0.15115372836589813, -0.1530849188566208, 0.1514652967453003, 0.1526104211807251, 0.1617407500743866, -0.16174571216106415, -0.12224461883306503, 0.06699984520673752, -0.2435273677110672, -0.02740277722477913, -0.08974350988864899], [-0.12163858115673065, 0.4233247935771942, -0.1322934329509735, 0.21585150063037872, -0.13228970766067505, 0.2078806757926941, 0.10393613576889038, 0.016423696652054787, 0.1295931190252304, 0.012463293969631195, -0.07001063972711563, 0.3347688317298889, 0.16117288172245026, 0.2185351848602295, 0.0021771478932350874, 0.15169362723827362, 0.28612247109413147, -0.07770208269357681, 1.1820124906290944e-38, 0.16688115894794464, 5.349500327812383e-39, 0.24761810898780823, -0.0979367345571518, 0.2112998217344284, -0.1770087629556656, -0.21561609208583832, -0.00318927806802094, 0.22003254294395447, 0.16739405691623688, -0.017258865758776665, -0.0175920482724905, 0.2983725965023041], [-0.09592126309871674, 0.38039806485176086, -0.11897335201501846, -0.2316301167011261, 0.17527922987937927, -0.20863382518291473, 0.25748640298843384, -0.018580136820673943, -0.305147260427475, 0.43186846375465393, 0.05333918705582619, 0.09490121155977249, 0.2593753933906555, -0.010346455499529839, -0.14769963920116425, 0.15598678588867188, -0.16238954663276672, 0.16603949666023254, -9.473535721304963e-39, 0.3544776737689972, -0.04309189319610596, 0.14355486631393433, 0.24811525642871857, 0.05658377334475517, -0.18531042337417603, -0.19492363929748535, -2.037720582673362e-39, 0.018938038498163223, -0.128437802195549, 0.15880057215690613, 0.4290927052497864, 0.0682065486907959], [-0.09254993498325348, 0.20105676352977753, -0.20825257897377014, 0.41762709617614746, -0.370248407125473, -0.006259002257138491, 0.06258444488048553, -0.19911031424999237, 0.014320746064186096, 0.11165957152843475, 0.10059493780136108, 0.1946638524532318, 0.03312850371003151, -0.01909237541258335, 0.04368724673986435, -0.056883376091718674, -0.036707885563373566, 0.1536916196346283, 7.474800663207582e-39, -0.15980809926986694, 1.3765222463069364e-38, 0.36839982867240906, -0.31774720549583435, 0.01577472686767578, 0.027158398181200027, -0.010003134608268738, -0.21948078274726868, 0.1670048087835312, 0.26841285824775696, 0.03190119192004204, -0.019092047587037086, 0.3475714325904846], [0.1685124635696411, -0.1943894922733307, 0.017299003899097443, 0.06831686198711395, 0.012269425205886364, 0.2031421810388565, 0.29582294821739197, 0.17996053397655487, -0.12179586291313171, -0.210255965590477, 0.20204035937786102, 0.12801828980445862, -0.1984618604183197, 0.17958296835422516, 0.2975119948387146, -0.0024055452086031437, -0.09779280424118042, -0.14191123843193054, -1.4469920046495207e-39, 0.010869345627725124, 0.11637173593044281, -0.1266898363828659, -0.06127675250172615, 0.04721692204475403, 0.07073298841714859, 0.25539273023605347, -0.09252509474754333, -0.020406149327754974, 0.07740292698144913, 0.029306747019290924, -0.006865508854389191, -0.027591750025749207], [-0.11289799958467484, -0.12436877191066742, -0.22414033114910126, -0.27976539731025696, 0.163942351937294, -0.11150041222572327, 0.02982967160642147, 0.03410087898373604, -0.14623808860778809, -0.1537296324968338, -0.15753969550132751, 0.1567385047674179, -0.23579387366771698, -0.053364478051662445, -0.21961618959903717, 0.21034827828407288, 0.06147380545735359, -0.1351432204246521, 9.974576993716623e-39, 0.17354215681552887, -0.16836942732334137, 0.0906905010342598, -0.17016881704330444, -0.13240674138069153, -0.15822207927703857, -0.0826372429728508, 0.0016356924315914512, -0.17937448620796204, 0.14489465951919556, 0.03716007247567177, 0.0910535529255867, -0.11688321828842163], [-0.11755318194627762, 0.16416408121585846, -0.509346604347229, -0.17816103994846344, 0.42358413338661194, 0.3251122832298279, -0.04034452140331268, -0.13382120430469513, 0.047439463436603546, -0.044885825365781784, -0.2532634437084198, -0.23162499070167542, 0.033781617879867554, 0.02414378710091114, -0.26089560985565186, -0.35276421904563904, -0.4098254144191742, 0.10878417640924454, 1.4127291361580075e-37, -0.020170509815216064, -6.937657738459522e-39, 0.16244874894618988, 0.02372821979224682, -0.22200728952884674, -0.3413093686103821, -0.3232278525829315, 0.07521560788154602, 0.31242185831069946, 0.26060643792152405, -0.05739917978644371, 0.2328963726758957, -0.20942583680152893], [0.1575571596622467, -0.024275289848446846, -0.2774423658847809, 0.05387342721223831, -0.10306814312934875, -0.18322716653347015, -0.22786974906921387, 0.010003374889492989, -0.212111234664917, 0.3181992173194885, 0.06282413750886917, -0.14554385840892792, -0.2421759068965912, -0.30556461215019226, 0.07483372092247009, -0.2989538013935089, -0.0267255250364542, 0.08162857592105865, -1.0728373272735479e-38, 0.15660153329372406, -5.515800824364595e-39, 0.5234799385070801, 0.3197556734085083, -0.1371045708656311, 0.15197665989398956, 0.03767438232898712, 0.1527116894721985, 0.30302467942237854, 0.030971303582191467, -0.06369435787200928, 0.13599592447280884, 0.08757702261209488], [0.017689961940050125, -0.11702001094818115, -0.19104260206222534, -0.0033034831285476685, 0.5034880042076111, 0.22278043627738953, 0.06947121769189835, -0.13105686008930206, -0.6297181844711304, 0.5055944323539734, -0.32651543617248535, -0.1494179219007492, -0.3188689053058624, 0.029674680903553963, 0.04476853460073471, -0.07974874973297119, -0.5248581171035767, 0.15611763298511505, -1.2778003491057138e-38, 0.6660336256027222, 0.137734055519104, 0.30092674493789673, 0.4117380380630493, 0.3089730739593506, -0.3694097697734833, 0.22401084005832672, -0.027138609439134598, 0.30164939165115356, -0.08711785078048706, -0.20876632630825043, 0.10615090280771255, 0.05491829290986061], [-0.1913941353559494, 0.1559952199459076, -0.11109668016433716, -0.15635578334331512, -0.03750728443264961, -0.09021931141614914, 0.124032162129879, -0.13016891479492188, -0.09762681275606155, -0.3573549687862396, 0.09550335258245468, 0.3034413158893585, 0.13497501611709595, -0.19299563765525818, -0.013026452623307705, -0.11869578063488007, -0.1501365602016449, -0.5370270013809204, 2.2301020462435874e-39, 0.10386011749505997, -0.10244960337877274, -0.1569175124168396, -0.16869224607944489, -0.21006940305233002, 0.15401756763458252, 0.010342112742364407, 0.049515251070261, -0.06979111582040787, -0.11592438071966171, 0.24941524863243103, 0.3006564676761627, -0.004902179818600416], [-0.009587501175701618, -0.01569281332194805, -0.22139684855937958, -0.2880701422691345, 0.13725516200065613, -0.10356743633747101, 0.2238621562719345, -0.0612872876226902, -0.12415335327386856, -0.290199339389801, 0.10239171236753464, 0.06126930192112923, 0.07011329382658005, 0.0890335887670517, 0.08617659658193588, 0.15619216859340668, -0.1324070692062378, -0.2570423185825348, 5.6094664163169947e-39, 0.32159653306007385, 0.1867598593235016, -0.22841478884220123, 0.13605530560016632, 0.31481531262397766, -0.09083155542612076, 0.04289967194199562, 0.16948609054088593, -0.1777576208114624, 0.06994523853063583, -0.045213907957077026, 0.26086074113845825, 0.18848074972629547], [0.012111522257328033, 0.0009189043194055557, 0.12092337012290955, 0.313468873500824, -0.3600742816925049, 0.05600234493613243, -0.4188099801540375, 0.024000689387321472, 0.3171614706516266, -0.3276556730270386, -0.03972335159778595, 0.054434265941381454, 0.18532253801822662, 0.16028310358524323, -0.4859408140182495, 0.016486387699842453, 0.4218214452266693, 0.1762085109949112, 1.821022386851708e-39, -0.17756175994873047, 0.16533631086349487, -0.08944027125835419, -0.40665170550346375, -0.26239392161369324, 0.41227009892463684, -0.42732852697372437, 0.11670635640621185, -0.08830244839191437, 0.3081456422805786, 0.1608317345380783, 0.16798654198646545, 0.033791426569223404], [0.3786143362522125, 0.0814301073551178, -0.008564747869968414, -0.002887939801439643, 0.4061834216117859, 0.49542611837387085, 0.22662943601608276, -0.07700079679489136, -0.26093626022338867, 0.4370434582233429, -0.3045974373817444, -0.1180548444390297, -0.2325974851846695, -0.11383937299251556, -0.5254009366035461, -0.3305424153804779, -0.5386663675308228, 0.09830284118652344, -3.287517046956377e-37, 0.2186005711555481, -3.837553935446014e-40, 0.36515405774116516, 0.04172779247164726, 0.4697401225566864, -0.06633413583040237, -0.12738239765167236, -3.610750976398114e-39, 0.3478443920612335, 0.2050970047712326, -0.03798507899045944, 0.10650625079870224, -0.09154365956783295], [0.2933675944805145, -0.04578283801674843, 0.24488528072834015, 0.03550035133957863, 0.033846691250801086, -0.0798235759139061, -0.1645013689994812, -0.1886415332555771, -0.10178043693304062, -0.4337989091873169, 0.21191108226776123, -0.04540891945362091, -0.23399917781352997, 0.16371099650859833, 0.13730423152446747, 0.26034969091415405, 0.2276124358177185, -0.5275998115539551, 1.1991265487738934e-38, 0.09700614959001541, 0.036555878818035126, -0.4180666506290436, 0.1728254109621048, -0.1424454301595688, -0.162432461977005, 0.07550930976867676, 0.007656484376639128, -0.010700331069529057, -0.16316112875938416, 0.2543759047985077, -0.07479723542928696, -0.2794782519340515], [0.28331834077835083, 0.31792232394218445, 0.025837110355496407, 0.2950648367404938, 0.06421360373497009, 0.0860738679766655, -0.24529197812080383, -0.06297975033521652, 0.05238831043243408, -0.14205235242843628, 0.19557081162929535, 0.11296096444129944, -0.07303260266780853, -0.09734062850475311, -0.13169589638710022, -0.10694148391485214, 0.28705254197120667, -0.0756184533238411, -9.312725512135976e-39, -0.0037828930653631687, -9.121193235435131e-39, -0.009322118945419788, 0.11437160521745682, 0.08802841603755951, 0.11377786844968796, 0.24415485560894012, 0.11847318708896637, 0.017219796776771545, 0.24911348521709442, 0.16067077219486237, 0.08526571094989777, 0.29424774646759033], [-0.013634296134114265, 0.16592848300933838, 0.1406094878911972, 0.2464102804660797, -0.0889732614159584, 0.3575749099254608, 0.22847016155719757, -0.26257166266441345, 0.15630102157592773, -0.11841288954019547, -0.094273641705513, 0.23329989612102509, -0.0593462809920311, 0.18109309673309326, 0.23076573014259338, 0.01508276630192995, -0.4740215539932251, -0.11708157509565353, -6.394018394030852e-39, 0.17603188753128052, 0.013996962457895279, -0.12340158224105835, -0.04131206497550011, 0.03280654922127724, 0.1584557741880417, -0.2034989595413208, -2.644648170944798e-39, -0.012820536270737648, 0.2216401845216751, -0.12784864008426666, -0.015975341200828552, 0.3356691002845764], [-0.305843710899353, 0.18500684201717377, 0.18745611608028412, -0.5040006637573242, 0.0819665938615799, 0.05392080545425415, -5.150266224518418e-05, 0.017229557037353516, -0.3363434374332428, 0.4721745550632477, -0.22188086807727814, 0.14148475229740143, -0.2684323191642761, 0.102549709379673, 0.3587307631969452, -0.32906320691108704, -0.1599486619234085, 0.08856569230556488, 9.264560361579896e-38, 0.2205636352300644, -0.04635171219706535, 0.16422078013420105, 0.3834853768348694, 0.03999757766723633, -0.5420567989349365, 0.38465234637260437, -1.0622901741221143e-38, -0.14118051528930664, -0.09081947803497314, 0.385771244764328, 0.31395116448402405, -0.27174142003059387], [-0.02266954630613327, 0.04370315372943878, 0.0715114176273346, 0.051130250096321106, 0.3126741647720337, -0.22288836538791656, 0.13385917246341705, 0.187494158744812, -0.04956837743520737, -0.07205194979906082, 0.009996643289923668, -0.30486971139907837, 0.3577445447444916, -0.05570647865533829, 0.07382412254810333, -0.2587100863456726, -0.029321763664484024, -0.1514986902475357, -8.275701590104717e-39, 0.0961247980594635, 0.15411370992660522, 0.10735446959733963, 0.41039344668388367, -0.13180071115493774, 0.2742021083831787, 0.24612313508987427, 0.09150923788547516, 0.2371295839548111, 0.09335293620824814, 0.14319266378879547, 0.12437838315963745, -0.24359023571014404], [0.12664806842803955, 0.08148913830518723, 0.19452542066574097, 0.017468146979808807, -0.10874120146036148, -0.005605772603303194, 0.09746118634939194, -0.06785108149051666, -0.4841741621494293, 0.18688124418258667, -0.29468095302581787, 0.17075037956237793, -0.348486065864563, 0.06940712034702301, -0.08343622833490372, 0.11691658198833466, -0.40267428755760193, 0.07865419238805771, -7.995076158340564e-39, 0.09148500859737396, 0.0378432534635067, 0.05713886022567749, 0.08099117130041122, 0.19647249579429626, 0.11711254715919495, -0.3276333212852478, -0.04259781166911125, -0.20171312987804413, -0.1086234450340271, 0.20415233075618744, -0.3387354612350464, 0.08215776830911636], [0.22224660217761993, -0.01595848798751831, 0.20356814563274384, -0.02359381504356861, -0.001297192880883813, 0.032397884875535965, -0.23628921806812286, -0.11082056164741516, -0.32048845291137695, -0.1621502786874771, -0.0854015126824379, -0.23409362137317657, 0.03316880390048027, -0.11880755424499512, 0.17857955396175385, -0.3321973383426666, -0.20327883958816528, -0.14027507603168488, 6.977726466748426e-39, 0.19923874735832214, -0.15336057543754578, 0.4170214831829071, -0.12559762597084045, 0.06442458927631378, 0.2024594098329544, 0.19406907260417938, 0.07340852916240692, 0.2488590031862259, -0.006298585794866085, 0.3299749493598938, 0.02390241250395775, 0.22200153768062592], [0.12103476375341415, 0.16779673099517822, -0.017579037696123123, -0.0018927864730358124, 0.22692573070526123, 0.21713265776634216, -0.02294580265879631, -0.22630515694618225, -0.27461138367652893, 0.43526673316955566, 0.09644465893507004, -0.09672649949789047, 0.054957035928964615, -0.11409123241901398, -0.48226040601730347, 0.0019094720482826233, -0.12826117873191833, 0.4542716145515442, -7.009156190004767e-39, 0.3199772536754608, 6.476878573524842e-39, 0.3044441342353821, 0.4870327115058899, 0.2600961923599243, -0.3707055151462555, 0.15973998606204987, 2.1614440266855287e-39, -0.18800736963748932, -0.12312380969524384, -0.018644383177161217, 0.22809626162052155, 0.16173528134822845], [0.2250916212797165, -0.0855603888630867, -0.07539542764425278, 0.01678108051419258, 0.274553507566452, -0.11804112046957016, 0.24951589107513428, 0.0043338085524737835, -0.058420971035957336, 0.2535262405872345, -0.06940669566392899, 0.1448344886302948, 0.1702880710363388, -0.13020145893096924, -0.04685607925057411, 0.016352714970707893, 0.2545139491558075, -0.044388167560100555, -2.6676967280860127e-39, 0.18960070610046387, 0.09146884083747864, -0.03106868825852871, 0.20467205345630646, 0.27801188826560974, -0.15898281335830688, -0.09175198525190353, 0.1931881606578827, -0.06651421636343002, 0.1140211820602417, 0.037634845823049545, 0.025480754673480988, 0.19915001094341278], [0.12748700380325317, 0.020518183708190918, -7.409525278490037e-05, 0.17408312857151031, -0.06583449244499207, -0.004411300644278526, 0.2373492270708084, -0.15756559371948242, 0.06412319839000702, 0.04762890934944153, 0.0796576589345932, -0.09721637517213821, 0.2401788979768753, -0.20224981009960175, -0.043089475482702255, -0.3125820755958557, -0.2011670172214508, 0.05466839671134949, 7.99004269425671e-39, 0.24959696829319, -0.04311688244342804, -0.05081658437848091, 0.11534635722637177, 0.1814153641462326, -0.16402609646320343, -0.1333005577325821, -0.20162934064865112, 0.17155371606349945, 0.08909078687429428, 0.09237890690565109, 0.28463050723075867, 0.22463515400886536], [0.05072684958577156, 0.24960769712924957, -0.19999760389328003, -0.3604738712310791, 0.04492436349391937, -0.25604379177093506, 0.08865631371736526, 0.18388737738132477, -0.5900321006774902, 0.1966027319431305, -0.0360557995736599, 0.22649507224559784, -0.20916084945201874, -0.07532253116369247, -0.1220143586397171, -0.26939862966537476, -0.04482113942503929, 0.4898657500743866, -7.129963980328182e-37, 0.47735390067100525, 0.022960280999541283, 0.17211183905601501, 0.08827903121709824, 0.0760197788476944, -0.10190260410308838, 0.11653017997741699, -0.11369284987449646, -0.1450958549976349, -0.04857783019542694, 0.22366231679916382, 0.11187110841274261, 0.01246951799839735], [0.34220942854881287, -0.152872234582901, 0.032187528908252716, 0.021132761612534523, 0.17375394701957703, -0.18791896104812622, 0.13606636226177216, 0.13455303013324738, 0.2759498655796051, 0.07310091704130173, 0.09459088742733002, 0.13614924252033234, 0.27215152978897095, 0.03799320384860039, -0.4017042815685272, 0.15963958203792572, 0.16917334496974945, 0.07507956773042679, -7.047578392598089e-39, 0.12778522074222565, 3.7297408341977915e-39, 0.1235150694847107, -0.2354355752468109, 0.024687429890036583, 0.352060467004776, -0.20149533450603485, 0.19249597191810608, -0.08330263197422028, 0.2330021858215332, 0.15164408087730408, 0.1683143824338913, 0.08148135244846344], [0.29373300075531006, -0.1211695671081543, -0.09601450711488724, 0.11154965311288834, 0.204000785946846, 0.22570456564426422, 0.14414958655834198, -0.0712701827287674, 0.07030853629112244, -0.05709916353225708, -0.06453880667686462, -0.3052077889442444, -0.2822880148887634, -0.2901409864425659, -0.022987522184848785, 0.1099446713924408, -0.0899651050567627, 0.24099555611610413, -4.39194264039452e-39, 0.09942908585071564, -0.14391331374645233, -0.0007792436517775059, 0.12076633423566818, 0.09706351161003113, -0.10055769979953766, -0.06602183729410172, -0.09719276428222656, 0.32405799627304077, 0.03033716045320034, 0.0835936963558197, -0.1074565201997757, -0.04811757430434227], [-0.4583529233932495, 0.04734015092253685, 0.018664784729480743, 0.09307360649108887, -0.0954282358288765, 0.09348636120557785, 0.10499830543994904, 0.10276307165622711, 0.32663100957870483, -0.647822916507721, -0.06325819343328476, -0.1394786685705185, 0.2438013255596161, 0.275037556886673, -0.020810816437005997, 0.3506637215614319, -0.012314206920564175, -0.24013659358024597, 3.297497711190623e-39, -0.386899471282959, -0.0364634245634079, -0.5234116911888123, -0.34924206137657166, -0.2112274020910263, 0.38700029253959656, 0.055689431726932526, -0.08475448936223984, -0.1304480880498886, 0.14266517758369446, -0.3069435954093933, -0.11983232945203781, -0.05071517452597618], [-0.13140343129634857, 0.04022010415792465, -0.6258312463760376, -0.12085512280464172, 0.03912883251905441, -0.45214495062828064, 0.06931588053703308, -0.14755164086818695, 0.11142561584711075, -0.13275305926799774, 0.16949151456356049, -0.1204814463853836, -0.29431217908859253, 0.04682796820998192, 0.34336626529693604, 0.008209874853491783, 0.07971079647541046, 0.06851173937320709, 1.1897231354290417e-38, -0.07733993232250214, 0.020505083724856377, -0.3580721616744995, 0.22368039190769196, 0.2938897907733917, -0.043730273842811584, -0.02017918974161148, 0.10891564190387726, -0.24151623249053955, 0.14044450223445892, 0.11696736514568329, 0.25130537152290344, -0.2911418080329895], [0.12308774143457413, -0.07360485196113586, 0.005923394579440355, -0.18654072284698486, 0.10029690712690353, 0.17298650741577148, -0.09467889368534088, -0.23956450819969177, -0.10782048106193542, 0.07896164804697037, 0.04267085716128349, -0.05331367254257202, -0.16967914998531342, -0.1053810641169548, -0.018188606947660446, 0.006661161780357361, 0.3966927230358124, -0.1849619597196579, -4.136128599239703e-39, 0.0226389542222023, -0.05903179571032524, 0.07479067146778107, 0.14734144508838654, 0.28085705637931824, -0.20911067724227905, -0.2061326801776886, 0.06830447167158127, 0.019973205402493477, -0.17114360630512238, -0.17147211730480194, -0.0744841992855072, 0.1609819084405899], [-0.4510159194469452, 0.05476677045226097, -0.1321752369403839, -0.35028359293937683, -0.02566020004451275, 0.023142345249652863, -0.09911122173070908, 0.13393338024616241, -0.30031976103782654, 0.5349657535552979, 0.2355380803346634, 0.16657933592796326, -0.20389007031917572, -0.2204657644033432, 0.12524445354938507, 0.025585105642676353, 0.026496341452002525, 0.5001044273376465, 5.961876164513114e-39, 0.29545268416404724, -0.05079132318496704, -0.16869324445724487, 0.14182183146476746, 0.24804876744747162, -0.4293544590473175, 0.06528718769550323, 6.304507652025175e-39, -0.038475554436445236, -0.056721292436122894, 0.11711762845516205, 0.3296208381652832, -0.11932795494794846], [0.11650465428829193, 0.1477493792772293, 0.15618298947811127, -0.13000376522541046, 0.0354844406247139, -0.11976885795593262, 0.3433544635772705, 0.17850099503993988, 0.12104303389787674, 0.10629304498434067, 0.005738541949540377, -0.021029086783528328, -0.21055687963962555, 0.12950991094112396, -0.08627008646726608, -0.038354914635419846, 0.13393497467041016, 0.17198768258094788, 1.3294693063419913e-39, -0.03099697455763817, -0.14041344821453094, -0.1197824701666832, -0.14876386523246765, 0.22895440459251404, -0.08810166269540787, -0.11725873500108719, -0.05985720083117485, -0.03552262857556343, -0.005383772775530815, 0.02207779511809349, 0.38103896379470825, -0.0614776648581028], [0.4225524961948395, 0.031820520758628845, -0.046288084238767624, 0.2800695598125458, -0.045638009905815125, 0.17333266139030457, 0.07546120882034302, 0.14898604154586792, 0.08769585937261581, 0.20307280123233795, 0.0528467521071434, -0.266216516494751, -0.24564926326274872, -0.08452048897743225, -0.18049560487270355, -0.26374655961990356, -0.3259815275669098, 0.399695485830307, 1.1375089329602954e-38, 0.2897697687149048, -0.181278795003891, 0.2902699410915375, 0.3641238808631897, 0.12738461792469025, -0.11550586670637131, 0.2102266252040863, -0.09196338057518005, 0.08586274087429047, -0.16149546205997467, -0.10217729210853577, 0.09739600867033005, -0.20220918953418732], [0.00828456413000822, -0.14892899990081787, 0.21847005188465118, 0.11243008077144623, 0.2111647129058838, 0.03948520869016647, -0.07059831917285919, -0.03890715166926384, 0.060155078768730164, -0.11167547106742859, 0.11306513100862503, -0.09733657538890839, 0.10559059679508209, 0.06690458208322525, -0.721062183380127, -0.13950800895690918, 0.23018652200698853, 0.15989910066127777, 3.0109097544607685e-39, 0.38896486163139343, 2.330558330554105e-39, 0.21152356266975403, 0.4048522412776947, -0.018289480358362198, -0.08801822364330292, -0.04150564223527908, -0.012147021479904652, -0.14136618375778198, 0.14212064445018768, -0.2107389122247696, 0.11685328930616379, 0.3575909733772278], [-0.20299005508422852, 0.2409050166606903, -0.24329425394535065, 0.21589726209640503, -0.15485061705112457, 0.14039069414138794, -0.24472832679748535, 0.15383706986904144, 0.10743578523397446, -0.13956892490386963, -0.02975624054670334, 0.10071255266666412, 0.37002837657928467, 0.2714623510837555, -0.1334824115037918, 0.036069635301828384, 0.1432950794696808, -0.09028556942939758, 1.5594840975220626e-37, -0.2856891453266144, -5.631863369672298e-39, -0.18640509247779846, -0.16756564378738403, -0.06353604048490524, 0.01217660028487444, -0.1360672563314438, 0.19881123304367065, 0.09039437770843506, 0.24520453810691833, -0.25768718123435974, -0.38448238372802734, 0.2099347710609436], [-0.09053704887628555, 0.3069855272769928, -0.1480076014995575, 0.0734446570277214, -0.24146775901317596, 0.05897531658411026, 0.07045260071754456, -0.048936326056718826, 0.08114369958639145, 0.06594138592481613, 0.020518044009804726, 0.2307777851819992, 0.20961894094944, 0.25009897351264954, 0.0501118004322052, 0.05441882833838463, 0.21700729429721832, 0.09721837192773819, -9.244272082153708e-39, 0.19132423400878906, -0.0075363703072071075, 0.2510486841201782, 0.00018605405057314783, 0.19899867475032806, 0.09797659516334534, 0.20777775347232819, -0.008796398527920246, 0.0787680596113205, -0.13347530364990234, -0.06656043976545334, -0.20447061955928802, 0.24057041108608246], [-0.23749995231628418, 0.4032159447669983, -0.4410754144191742, -0.11915527284145355, 0.06014455109834671, -0.11834260821342468, -0.26937684416770935, -0.24867719411849976, 0.3125717043876648, -0.09733249247074127, -0.08467615395784378, 0.003921156283468008, -0.04683699831366539, 0.25948965549468994, -0.08291694521903992, -0.023435436189174652, -0.0051050554029643536, -0.5920457243919373, 3.3409617856585856e-39, 0.032993871718645096, 4.7484161541371816e-39, -0.4573763608932495, -0.4432351291179657, 0.24732673168182373, -0.07079266756772995, -0.0798211544752121, 0.03962995484471321, -0.08744049817323685, -0.10542938113212585, -0.42806798219680786, -0.09472990036010742, 0.3191487789154053], [0.16333270072937012, -0.030717160552740097, -0.3241657614707947, 0.07328195124864578, 0.10946068167686462, -0.004365216474980116, 0.2224094122648239, 0.018602972850203514, 0.0880778431892395, -0.24853570759296417, 0.06684502959251404, 0.05480663478374481, -0.2615404725074768, -0.0747668519616127, 0.12746582925319672, -0.10604419559240341, -0.05050203949213028, -0.470272958278656, -5.751584705270353e-39, 0.15565912425518036, 0.1902025043964386, -0.13045787811279297, -0.14952407777309418, -0.06718581914901733, 0.207794651389122, 0.07395400106906891, -0.13081231713294983, 0.1838083267211914, 0.1603250801563263, 0.20238490402698517, 0.24083127081394196, -0.1787445843219757], [0.24680931866168976, -0.10389653593301773, 0.2597883641719818, 0.25295138359069824, 0.09181241691112518, 0.12652088701725006, -0.1994653344154358, -0.010106201283633709, 0.3574475646018982, 0.20274829864501953, -0.186893492937088, -0.19296202063560486, -0.22229942679405212, 0.0402386374771595, 0.2565177381038666, -0.2070060521364212, 0.0627383291721344, 0.19497114419937134, -9.600276160910821e-39, 0.028067374601960182, -8.235361009913734e-40, 0.1408052295446396, -0.13494011759757996, 0.0752146989107132, 0.05494248494505882, 0.15907306969165802, 0.026210539042949677, 0.1780717670917511, -0.13169187307357788, 0.05857204645872116, -0.12796743214130402, -0.11413435637950897], [0.2161986082792282, 0.40337899327278137, -0.15390215814113617, 0.018522076308727264, 0.22823628783226013, -0.1985882967710495, 0.08363949507474899, 0.08463199436664581, 0.1763935536146164, -0.057299695909023285, 0.08525939285755157, 0.23941569030284882, 0.20711146295070648, -0.3123455047607422, 0.1025669127702713, -0.19259880483150482, 0.2085457295179367, -0.10493525862693787, 6.707791540968607e-39, -0.03388330340385437, -0.0840606763958931, -0.09813593327999115, -0.07301168888807297, 0.18958456814289093, 0.5116686820983887, -0.09831998497247696, -0.038139816373586655, 0.03936471790075302, 0.29059383273124695, 0.12134245038032532, 0.11736445873975754, 0.023804055526852608], [0.16051138937473297, -0.11311416327953339, 0.07743915915489197, -0.17814716696739197, 0.3018738329410553, -0.20626331865787506, 0.15956705808639526, -0.04057718440890312, -0.10785704106092453, -0.26273736357688904, 0.07041848450899124, 0.10855425894260406, 0.06048145890235901, 0.025916030630469322, 0.09018982201814651, 0.06844397634267807, -0.36219915747642517, 0.0741223469376564, 1.0059190197589484e-38, -0.12195956707000732, -0.21698997914791107, -0.2640327513217926, 0.19494584202766418, 0.10833584517240524, 0.1344848871231079, 0.048056792467832565, -0.03648465499281883, -0.15006031095981598, -0.09977594017982483, 0.04194819554686546, 0.042385101318359375, -0.23197831213474274], [-0.17079614102840424, 0.2290329933166504, 0.25034353137016296, 0.08616922795772552, 0.10759200900793076, 0.03314517065882683, 0.27735635638237, 0.10929350554943085, -0.26951315999031067, -0.18441328406333923, 0.20600606501102448, -0.10174383223056793, -0.09977982938289642, 0.2617563009262085, -0.08660831302404404, -0.014488212764263153, -0.2282443791627884, -0.28652483224868774, 6.209107532833635e-38, 0.11977865546941757, -0.08824922144412994, -0.1938546895980835, -0.17967075109481812, 0.15865181386470795, -0.3567366898059845, 0.0182492733001709, 0.08230406790971756, 0.196988046169281, -0.31315383315086365, 0.03314202278852463, -0.11540023982524872, -0.131313756108284], [-0.08034849911928177, -0.25761476159095764, 0.16013921797275543, 0.03963485360145569, 0.16787050664424896, 0.19618728756904602, 0.31315240263938904, -0.2030329555273056, -0.03268064931035042, -0.07224643230438232, 0.09728893637657166, -0.022943422198295593, 0.3024422526359558, -0.2273438721895218, -0.34117794036865234, -0.32719171047210693, -0.2948921322822571, 0.14450004696846008, -1.2824271563752214e-38, 0.014892054721713066, -0.13472135365009308, 0.26165351271629333, 0.12542247772216797, 0.20901161432266235, -0.23368483781814575, 0.07794293016195297, -0.1894417256116867, -0.1424039602279663, 0.10110058635473251, -0.07774081826210022, 0.2689300775527954, -0.01245152112096548], [-0.26538896560668945, 0.36478886008262634, -0.38158315420150757, 0.12655198574066162, 0.20951725542545319, 0.011606059968471527, 0.2378290295600891, -0.23391622304916382, 0.0476316474378109, -0.061931151896715164, 0.2284972369670868, 0.3484225571155548, -0.0047160242684185505, 0.08731973171234131, -0.19162070751190186, 0.15696385502815247, 0.08869389444589615, 0.15209951996803284, -7.445140779911683e-39, -0.1693321019411087, -0.14114971458911896, -0.22836412489414215, -0.2450362592935562, -0.13093382120132446, 0.39764586091041565, 0.01755410060286522, 0.0033538269344717264, -0.4151182770729065, 0.26947686076164246, 0.05836619436740875, -0.1537291556596756, 0.20041517913341522], [-0.16375817358493805, -0.10581798106431961, 0.006903497967869043, -0.14209534227848053, 0.017488379031419754, 0.27982136607170105, 0.3791961371898651, 0.05886960029602051, -0.10912338644266129, -0.035221926867961884, 0.07730795443058014, -0.07973577827215195, -0.5712364315986633, 0.14060120284557343, 0.08475276082754135, -0.14452078938484192, -0.5492726564407349, 0.23217442631721497, 4.9355357419738674e-39, -0.13576246798038483, -9.448804204708094e-39, -0.09583549946546555, 0.0799705982208252, -0.04573819413781166, -0.4929735064506531, 0.1316949725151062, 7.2886017284619575e-40, 0.12519453465938568, -0.23656851053237915, -0.11447709798812866, 0.33002370595932007, -0.002947284607216716], [-0.044807251542806625, -0.08782407641410828, 0.09528988599777222, 0.22573183476924896, 0.08399263769388199, 0.1027817651629448, -0.15070778131484985, 0.04283475875854492, 0.2327807992696762, 0.04716957360506058, 0.11960460245609283, 0.33882901072502136, -0.1968909204006195, -0.020150791853666306, 0.03219534084200859, 0.0834750384092331, 0.033697422593832016, 0.17396220564842224, -7.278141035425773e-39, 0.05682898685336113, 8.223367296357578e-39, 0.1350134313106537, -0.009236002340912819, 0.17310936748981476, 0.09153469651937485, -0.08110370486974716, 4.8548840088596526e-39, 0.2772873044013977, -0.053668417036533356, 0.22331830859184265, -0.05775623396039009, -0.07856814563274384], [-0.20676597952842712, 0.2656313478946686, -0.011970436200499535, -0.12549372017383575, -0.0686287134885788, 0.10098159313201904, -0.2207900881767273, 0.16088931262493134, 0.19547197222709656, -0.12639501690864563, 0.21922089159488678, -0.0941229909658432, 0.1631975620985031, 0.11371462047100067, 0.08174706250429153, -0.19357722997665405, 0.37490594387054443, -0.14517395198345184, -3.8086969961701733e-39, -0.2918276786804199, 0.024393554776906967, 0.03275490924715996, -0.11727958917617798, 0.15114203095436096, -0.3927120864391327, 0.06287633627653122, -0.1507384032011032, 0.2277989536523819, 0.19586844742298126, 0.002222960814833641, -0.016497736796736717, -0.06752470880746841], [-0.08944173902273178, 0.33425551652908325, -0.10963590443134308, -0.06597113609313965, 0.11995069682598114, 0.22383473813533783, -0.05145011097192764, -0.18935605883598328, 0.20729604363441467, 0.26369449496269226, -0.20014715194702148, -0.07384634017944336, -0.4698300063610077, -0.10397609323263168, 0.05339885503053665, -0.045704200863838196, -0.009464426897466183, 0.12372589111328125, 2.2344418675876014e-39, 0.1761997640132904, 8.113512503246834e-39, 0.24707743525505066, 0.006420691963285208, -0.20029661059379578, -0.11891058832406998, -0.18679192662239075, -5.617104894246029e-40, -0.24206502735614777, -0.09802410006523132, 0.148014098405838, -0.08192860335111618, 0.17152859270572662], [-0.11457575857639313, 0.12711402773857117, -0.16163139045238495, 0.019344046711921692, -0.1263694167137146, -0.25799253582954407, -0.15696468949317932, -0.12230496853590012, 0.1446049064397812, -0.2785482704639435, 0.29763558506965637, 0.0034159093629568815, 0.28290194272994995, 0.13074319064617157, -0.1227906346321106, 0.2974048852920532, 0.24993038177490234, -0.3367967903614044, 4.010782451605848e-40, -0.03381098806858063, -0.04407405108213425, 0.047312457114458084, -0.039037592709064484, -0.10113134980201721, 0.35654738545417786, -0.17412911355495453, -0.05518241971731186, -0.25103965401649475, 0.115421362221241, 0.21449096500873566, 0.03851936757564545, 0.17456020414829254], [0.03810156136751175, 0.24034690856933594, 0.13604769110679626, 0.026612697169184685, -0.017600877210497856, 0.04260776937007904, 0.4146421551704407, -0.11325222253799438, 0.02445937693119049, -0.5044548511505127, 0.2964742183685303, -0.37184837460517883, 0.23269763588905334, 0.1295967996120453, -0.22542153298854828, -0.3237594962120056, -0.3624698519706726, -0.2880752384662628, 1.3689918084895013e-38, 0.18750117719173431, -0.09834108501672745, -0.1438957005739212, 0.2926451861858368, -0.26637253165245056, 0.24388058483600616, 0.28622063994407654, 0.06236593797802925, -0.014219129458069801, 0.08776338398456573, -0.09603556990623474, 0.18068529665470123, -0.31040850281715393], [0.2994495630264282, -0.33687660098075867, -0.03649917617440224, 0.37390652298927307, 0.012314383871853352, 0.04233301058411598, -0.27922773361206055, 0.15898217260837555, 0.11408217996358871, -0.4100828468799591, -0.17171421647071838, 0.10191281884908676, 0.16045497357845306, 0.16445674002170563, 0.05284670367836952, 0.13680030405521393, 0.17711439728736877, -0.11000090092420578, 1.123549337788538e-38, -0.0015104790218174458, 0.10155972093343735, 0.18519894778728485, 0.21416151523590088, -0.03088589943945408, 0.16702614724636078, 0.13030117750167847, 0.030301814898848534, 0.20931918919086456, -0.10240131616592407, 0.009402764961123466, -0.13920512795448303, -0.020077625289559364], [-0.06984531879425049, 0.28182873129844666, 0.23866324126720428, -0.08003289997577667, 0.1713738590478897, -0.17093370854854584, 0.08270350098609924, -0.227137491106987, -0.13081201910972595, -0.01096845418214798, 0.1422727257013321, -0.08828351646661758, 0.007759575266391039, -0.17257924377918243, 0.356477290391922, -0.056953515857458115, -0.022875163704156876, -0.19810134172439575, 1.1496182536397583e-39, -0.13985230028629303, -0.17079685628414154, -0.15237769484519958, -0.3332105278968811, -0.3595470190048218, 0.038993217051029205, -0.27845266461372375, -4.6162835180406016e-39, -0.29579177498817444, 0.2873312830924988, 0.11323358118534088, 0.2149353325366974, -0.11704061925411224], [0.23583827912807465, 0.08545009791851044, 0.12976695597171783, -0.18534597754478455, 0.11539482325315475, -0.17360526323318481, 0.28662052750587463, 0.13747063279151917, -0.14391136169433594, 0.2513248026371002, 0.3920213580131531, -0.2033987045288086, -0.00890967808663845, -0.14913465082645416, -0.3145144283771515, -0.2098858505487442, -0.024470074102282524, 0.3424008786678314, 4.035096381260348e-39, 0.018470872193574905, -7.436937578701525e-39, 0.3463864326477051, 0.3025459945201874, -0.31587645411491394, 0.1549467295408249, -0.09331269562244415, -2.4183692975225552e-39, -0.2546178996562958, 0.10175713151693344, 0.1803911030292511, 0.13381712138652802, -0.19690676033496857], [-0.34982556104660034, 0.16845396161079407, -0.26878610253334045, 0.00286936666816473, 0.08486998081207275, -0.07361350953578949, -0.24797643721103668, -0.08108828216791153, 0.3605300486087799, 0.20943857729434967, 0.1399926096200943, 0.09179622679948807, 0.03551105037331581, -0.16580398380756378, -0.38626977801322937, 0.3564716875553131, 0.18574555218219757, 0.14730940759181976, 9.568779175328192e-39, -0.3174413740634918, -6.401494321338025e-39, -0.31927260756492615, -0.16716952621936798, -0.11035763472318649, -0.17912763357162476, -0.14579232037067413, -0.0934075117111206, -0.19975575804710388, 0.13181546330451965, -0.3827461898326874, -0.3050859868526459, 0.16980738937854767], [0.020238416269421577, 0.19214826822280884, -0.13595707714557648, 0.18422910571098328, 0.11931496858596802, -0.20179468393325806, 0.2667372524738312, -0.13433000445365906, -0.04626573622226715, -0.04133045673370361, 0.13775846362113953, -0.08636200428009033, 0.36817723512649536, 0.24882136285305023, 0.127144917845726, -0.004970284644514322, -0.034104157239198685, 0.06195910647511482, -1.2907077092606096e-38, 0.1049785166978836, 0.07103561609983444, -0.007682390045374632, 0.08205212652683258, -0.1889800727367401, 0.22481775283813477, -0.04306798800826073, 0.12446115911006927, -0.23843444883823395, -0.2039935290813446, -0.15184979140758514, 0.2775813043117523, 0.05254034698009491], [0.05497615039348602, -0.19041024148464203, -0.20452472567558289, 0.06224449723958969, 0.06716594845056534, 0.03839387744665146, 0.009185770526528358, -0.15590886771678925, 0.33945316076278687, -0.20470991730690002, 0.2127484381198883, -0.32298171520233154, 0.16228564083576202, -0.20464301109313965, -0.4881598651409149, 0.33507010340690613, 0.17257936298847198, -0.24798399209976196, 1.3578468614131867e-38, -0.031151292845606804, -0.18340665102005005, -0.0884278193116188, 0.1150558590888977, -0.0773748829960823, 0.004963265731930733, 0.18475081026554108, -0.19449692964553833, 0.333649605512619, -0.05950402840971947, 0.22920085489749908, 0.21284353733062744, 0.1808953434228897], [0.2850039005279541, -0.12893146276474, 0.19023862481117249, -0.09498845040798187, 0.047146521508693695, -0.06876240670681, 0.13709981739521027, -0.20485475659370422, 0.06715274602174759, 0.0775531753897667, 0.1674201935529709, 0.08915289491415024, -0.030053284019231796, -0.13411188125610352, -0.05119846761226654, -0.3924767076969147, -0.26383885741233826, -0.16617602109909058, 4.5763605247919876e-40, 0.30168214440345764, 0.014157216995954514, -0.0009637148468755186, 0.029450727626681328, -0.17978166043758392, 0.04292634129524231, 0.02610253170132637, -0.03170977905392647, -0.090971440076828, 0.22625140845775604, 0.22053766250610352, 0.296362966299057, -0.1150139570236206], [0.02267545461654663, -0.1226930022239685, -0.1570029854774475, -0.30435603857040405, 0.009827526286244392, -0.11044233292341232, -0.07442761212587357, 0.20812156796455383, 0.15702344477176666, 0.08055298775434494, 0.10337826609611511, 0.07850855588912964, -0.17291958630084991, 0.11783406138420105, -0.11781208962202072, 0.18893146514892578, -0.1528303325176239, 0.0845755934715271, 5.886588601920335e-40, -0.14602169394493103, -0.04899008199572563, 0.04086751490831375, -0.04736041650176048, 0.19251129031181335, 0.10993937402963638, -0.02871626242995262, -0.10559157282114029, -0.18465948104858398, 0.16758409142494202, 0.03740466386079788, 0.17457330226898193, -0.05306454747915268], [0.11170337349176407, 0.11216694116592407, 0.31699681282043457, 0.08166218549013138, 0.16102156043052673, 0.19317923486232758, 0.0400516614317894, 0.19540616869926453, -0.14401176571846008, -0.2019256353378296, 0.10090163350105286, -0.05433926358819008, 0.14889785647392273, 0.04265284538269043, -0.012305944226682186, 0.23379628360271454, -0.044581878930330276, -0.054944876581430435, 6.175530740070255e-39, 0.2778756618499756, -0.24870651960372925, 0.09626610577106476, 0.15708614885807037, 0.21962453424930573, 0.05520959571003914, -0.12355206161737442, -0.10619711130857468, -0.03376910090446472, 0.11551183462142944, -0.11031485348939896, -0.1319955587387085, 0.3125414550304413], [-0.40773576498031616, 0.3375069499015808, 0.09331583976745605, -0.02722524106502533, 0.07798973470926285, -0.3135647177696228, 0.07390695065259933, 0.13825979828834534, 0.09898354113101959, -0.3906829059123993, 0.2281157523393631, 0.1929132640361786, -0.057631317526102066, 0.08923771977424622, 0.07984954118728638, 0.04657144099473953, -0.25227388739585876, -0.18897110223770142, -9.966361180820287e-39, -0.05018963664770126, -0.044465772807598114, -0.4008576273918152, -0.24757499992847443, -0.41669750213623047, 0.17064252495765686, 0.10032748430967331, -0.16869576275348663, 0.22934478521347046, 0.1520874798297882, 0.08994754403829575, -0.16058558225631714, -0.12024880945682526], [-0.13296929001808167, 0.15544909238815308, -0.308576762676239, -0.019220490008592606, -0.23164613544940948, -0.0025471928529441357, -0.24863381683826447, -0.09404779225587845, 0.3155161738395691, 0.030413012951612473, 0.017846807837486267, 0.3031371235847473, 0.08825378865003586, 0.09707505255937576, -0.5151718854904175, 0.24528680741786957, 0.5303835272789001, -0.1870708465576172, -3.1094868975306264e-39, -0.11830168962478638, -0.06453676521778107, 0.030740991234779358, -0.23490002751350403, -0.05314820632338524, 0.2462628334760666, 0.032142721116542816, -0.22111666202545166, 0.03458095341920853, -0.07721790671348572, -0.09183286875486374, 0.031804680824279785, 0.3501704931259155], [-0.3191733956336975, 0.2227766513824463, -0.1865474134683609, 0.057860713452100754, -0.039941005408763885, 0.00706005934625864, 0.0519784651696682, -0.1937786191701889, 0.18847902119159698, -0.15388737618923187, 0.2640233039855957, -0.025108875706791878, -0.4128887951374054, 0.07044108211994171, -0.33882543444633484, -0.0857684388756752, 0.18607038259506226, -0.29452019929885864, 6.7310671084610426e-40, -0.4087510108947754, -0.06595854461193085, -0.16627758741378784, -0.21467646956443787, -0.27978500723838806, -0.22849081456661224, -0.12193779647350311, -5.2317211918858824e-39, -0.3650057315826416, 0.20073167979717255, 0.14502586424350739, 0.012371858581900597, 0.18857933580875397], [-0.3794202506542206, 0.31940627098083496, -0.2946087419986725, 0.08265941590070724, 0.05457277223467827, -0.008568162098526955, 0.14653918147087097, 0.08757145702838898, -0.25432029366493225, 0.14974820613861084, 0.14450885355472565, 0.1432936042547226, 0.20223693549633026, 0.14523735642433167, 0.30408725142478943, 0.13377045094966888, -0.14094819128513336, -0.04537461698055267, 1.4797081198961122e-39, 0.16366249322891235, -0.2620984613895416, -0.05170571804046631, 0.31462913751602173, 0.061136551201343536, -0.08937304466962814, 0.0527525469660759, -8.125227358408589e-39, -0.21889254450798035, -0.009356394410133362, -0.2636946141719818, 0.22565694153308868, 0.021601149812340736], [0.10952326655387878, 0.24887941777706146, -0.3170556426048279, -0.14658810198307037, -0.002491181483492255, 0.08712071180343628, -0.0322895273566246, 0.056960687041282654, 0.13840748369693756, -0.600071907043457, -0.059542085975408554, -0.04331888258457184, 0.12300210446119308, 0.13802653551101685, 0.022616613656282425, -0.047474708408117294, -0.0187432449311018, -0.4842414855957031, 2.943172387993771e-39, -0.14084038138389587, -0.0874415710568428, -0.38379186391830444, -0.24875466525554657, -0.1001247838139534, -0.10278483480215073, 0.088494673371315, -0.21333526074886322, -0.16536791622638702, -0.12540306150913239, -0.20130687952041626, 0.026728207245469093, -0.3036773204803467]], "b": [0.14812202751636505, -0.030369164422154427, 0.02521318569779396, 0.20027191936969757, -0.19573378562927246, -0.03774106130003929, 0.30761492252349854, -0.026529863476753235, 0.237312912940979, -0.043442390859127045, 0.2681289315223694, 0.0676240473985672, 0.2017883062362671, 0.20076310634613037, -0.3748980760574341, -0.2256285697221756, 0.266250878572464, 0.23598064482212067, -0.1898963898420334, -0.0391421765089035, -0.26900607347488403, 0.017886122688651085, 0.22462908923625946, 0.06468057632446289, 0.08026178926229477, 0.0027811836916953325, -0.2876884937286377, -0.057295508682727814, 0.10406669974327087, 0.31441470980644226, 0.3613562285900116, -0.16413052380084991], "act": "relu"}, {"W": [[0.29610979557037354, 0.2852845788002014, 0.3928612172603607, -0.346515953540802, -0.1569681167602539], [-0.22620315849781036, -0.5429564118385315, -0.14993658661842346, -0.10346338152885437, 0.0022742459550499916], [-0.07445449382066727, 0.20372086763381958, -0.7120159864425659, 0.45575663447380066, 0.7291629910469055], [0.12672804296016693, 0.26867854595184326, 0.09557922184467316, 0.5548858046531677, -0.5670989751815796], [-0.028812194243073463, -0.20004242658615112, -0.23368166387081146, -0.5279377102851868, 0.036803748458623886], [0.2895139455795288, 0.0803661122918129, -0.4607316255569458, 0.3276265263557434, 0.12450163066387177], [-0.07309174537658691, 0.18317174911499023, -0.16836842894554138, -0.3256969153881073, 0.44462302327156067], [-0.14669080078601837, 0.0020345125813037157, 0.28697219491004944, 0.14191102981567383, -0.37735870480537415], [-0.5637245774269104, -0.5434845685958862, 0.22324898838996887, 0.12211726605892181, -0.3508133590221405], [0.9464510083198547, -0.18687090277671814, -0.3108082711696625, -0.3692214787006378, 0.09153541922569275], [-0.4109077453613281, -0.19303204119205475, 0.33578431606292725, -0.07988107949495316, 0.11294739693403244], [-0.08015567064285278, -0.48538270592689514, -0.17295172810554504, 0.022720731794834137, -0.35660648345947266], [-0.7517130970954895, 0.19382049143314362, 0.46649405360221863, 0.3693900406360626, 0.3692569434642792], [-0.4187655448913574, 0.3178539276123047, -0.1945701390504837, 0.48408234119415283, 0.4178560674190521], [0.0748424157500267, 0.7129536867141724, 0.342364102602005, -1.1358397006988525, -0.6620129346847534], [-0.3270612061023712, -0.4231873154640198, 0.2985563278198242, 0.5436376333236694, -0.6280781626701355], [0.07476694136857986, 0.11336580663919449, 0.5184875726699829, 0.4954145550727844, -0.21120157837867737], [0.7659014463424683, 0.033734600991010666, -0.31262820959091187, -0.23897689580917358, 0.07544385641813278], [1.1108450257811228e-38, 1.0412335627479374e-38, 5.317152754061909e-39, -9.463735159536543e-32, -8.334249241242672e-39], [0.342318058013916, 0.049318816512823105, -0.36682963371276855, -0.9358084201812744, -0.1509469747543335], [0.29184412956237793, -0.18981172144412994, 0.07305390387773514, -0.20018048584461212, -0.13564811646938324], [0.4541376233100891, 0.3029134273529053, -0.3519006371498108, -0.35374903678894043, -0.8158677220344543], [0.02796747535467148, 0.2505073547363281, -0.1728668361902237, -0.8929586410522461, -0.007851729169487953], [0.4719785749912262, 0.44021978974342346, -0.5518884062767029, 0.10067461431026459, -0.13216263055801392], [-0.6085304617881775, 0.29471731185913086, 0.5012453198432922, 0.3804573118686676, 0.1428920328617096], [-0.1003430113196373, 0.3774702548980713, -0.13830289244651794, -0.3170366883277893, -0.04134838283061981], [0.026518767699599266, -0.09586328268051147, -0.059456292539834976, 6.94171103532426e-05, -0.0005265140789560974], [0.12810349464416504, -0.2011440545320511, -0.2904874086380005, -0.5036008358001709, -0.6134582161903381], [0.2024127095937729, -0.15490983426570892, 0.4422403872013092, 0.11398619413375854, -0.10194218903779984], [0.006768505554646254, -0.012044386938214302, 0.3471539318561554, -0.366235613822937, -0.08177047222852707], [0.24589863419532776, 0.3797934055328369, 0.47723865509033203, -0.4272451102733612, 0.4044739902019501], [-0.025780383497476578, -0.13558045029640198, -0.24367225170135498, 0.24474750459194183, -0.44803062081336975]], "b": [-0.2751721143722534, 0.26212915778160095, -0.1472603976726532, -0.366972953081131, -0.3262943625450134], "act": "softmax"}], "classes": ["wake", "n1", "n2", "n3", "rem"], "metrics": {"accuracy": 0.5957929782082324, "macroF1": 0.556520629185749, "trainSamples": 21551, "testSamples": 6608, "subjects": 197, "synthetic": false, "dataset": "brl028/sleep-edf-30s-epochs", "validation": "subject-wise holdout", "note": "trained & validated on REAL Sleep-EDF"}}