{"type": "mlp", "task": "classification", "featureOrder": ["hr", "sdnn", "rmssd", "pnn50"], "scaler": {"mean": [104.66314010620117, 125.08706340789794, 182.9162088394165, 73.09808950424194], "scale": [7.6912130529981395, 28.092568490967885, 47.669065876056884, 15.728162187778755]}, "layers": [{"W": [[-0.040528085082769394, 0.8035042881965637, 0.3911072909832001, 0.1663796603679657, -0.1318429708480835, -0.10962627828121185, -0.6006549000740051, 0.7381481528282166], [1.1138677597045898, -0.6376266479492188, 0.15991462767124176, 0.5267221331596375, 0.022947397083044052, 0.6706050634384155, -0.13650089502334595, -0.14659053087234497], [-1.0308539867401123, 0.4832751750946045, 0.2356444150209427, 0.541455090045929, 1.3305284976959229, 1.1971228122711182, 0.34881845116615295, 0.6023794412612915], [-0.34710216522216797, 0.5507338047027588, -0.7387269735336304, 0.47497954964637756, -0.18125256896018982, -0.33709198236465454, -0.6791128516197205, 0.8398220539093018]], "b": [-0.03206968680024147, -0.6078057289123535, -0.7860674858093262, -0.3902139663696289, 0.7797161936759949, 0.6971355676651001, 0.6429651379585266, 0.24893341958522797], "act": "tanh"}, {"W": [[-0.7919023633003235], [0.7820684909820557], [0.2263237088918686], [-1.5471618175506592], [0.9177872538566589], [0.8456439971923828], [-0.4143770933151245], [-0.4283749461174011]], "b": [-0.1645854413509369], "act": "sigmoid"}], "metrics": {"accuracy": 0.6428571428571429, "macroF1": 0.641025641025641, "samples": 54, "note": "real chtalhaanwar/mental-stress-ppg, small N"}, "classes": ["normal", "stress"]}